{"generation": 182, "inputs": ["y", "yvel", "xpipe", "ypipe"], "outputs": ["jump"], "layers": [4, 4, 4, 4, 1], "activation": "sigmoid", "ticks": 1657497, "weights": [-0.2521109825511998, 0.4638868947215706, 2.1677089506762206, 0.35702764289793737, -0.6351588558546405, 0.1255106549259468, 0.9274234596460791, 0.6521671985073962, -1.096479144312747, -0.13053791626983574, 0.7456580927476812, 0.2756560244588762, 0.7928545940234812, -0.09090064659593228, -0.6168671269343121, 0.6712933507276586, -0.5580021112218642, -0.9932719788693752, -1.291598083335281, 0.9810423329882463, 2.494151396458917, 0.16233481112377304, 1.0760389966814927, 0.43812496043189936, 0.8066213200907333, 0.04228979044397633, -0.8113645359471956, -0.008510021248391876, -0.821316073975185, 0.12700727502894782, -0.24442536080496274, 1.5206960005116714, -0.24888076594444683, 1.3601937174335974, 1.1273946599524967, -0.23095552068921868, 0.5982013742557605, 0.20366837052000625, -0.1401022773063858, -1.071545666117888, -1.118279440314656, 0.5506444096981942, 0.6873063433235967, 1.0224215930987581, 1.6868359059710263, 0.44864007900595854, -0.7340707087988626, -1.1162099226225455, 0.9866614319353384, -1.1274736842454998, -0.9755469547714175, -0.5303623487991759], "biases": [-0.3072317770218018, -0.1666031416076903, 1.3802212005617638, -2.135620555581289, 1.529828536708442, 0.09697258950379038, 0.4822074214569005, -0.9668369974055528, -2.0788248836005505, -0.9409467668554152, 1.602242687292919, -1.644831264149048, 1.5814335054786783]}