{"generation": 102, "inputs": ["y", "yvel", "xpipe", "ypipe"], "outputs": ["jump"], "layers": [4, 4, 4, 4, 1], "activation": "sigmoid", "ticks": 921633, "weights": [-0.26426159450874, 0.49426916080373434, 2.102259795343258, 0.43151079221746375, -0.6094020064731096, 0.07286975889882201, 0.8864298285945983, 0.608500630426036, -1.0822669045253182, -0.13053791626983574, 0.6789785202601893, 0.2662932778718369, 0.7124010711496919, -0.03012758306168372, -0.574190904965926, 0.6205020463490839, -0.5684189768884856, -0.8858201621194005, -1.3234997642476487, 0.9006625293824351, 2.44125306776999, 0.14884868728166564, 1.0288543264871333, 0.4716635071597101, 0.814311103404846, 0.13333389653744257, -0.5994690110785353, -0.07582165106613002, -0.9269737264542045, 0.14499745295738803, -0.17193093087088518, 1.453306977270248, -0.24086049736785436, 1.2762297605813349, 1.1185517988196807, -0.22539595660690676, 0.6271170996261757, 0.24065951540930405, -0.08047962422437924, -1.0763145985820268, -1.027622094302093, 0.5926184077412863, 0.6773163153885762, 1.1070636281041897, 1.7167344462546703, 0.4048337898392546, -0.8011885159942649, -1.0974735757211662, 1.044676030440048, -1.1445241409527664, -0.9793047657523617, -0.4852741994799229], "biases": [-0.2154774560183617, -0.023176853220019618, 1.2369624387432674, -2.0170285394253784, 1.4486598142645593, -0.07756987017756667, 0.42894586860373185, -0.9194132571830148, -2.134469815486509, -1.0491595202589812, 1.6086329054148696, -1.5042662937415818, 1.539894943601114]}