{"generation": 186, "inputs": ["y", "yvel", "xpipe", "ypipe"], "outputs": ["jump"], "layers": [4, 4, 4, 4, 1], "activation": "sigmoid", "ticks": 1694297, "weights": [-0.2521109825511998, 0.4638868947215706, 2.1677089506762206, 0.3666560062094663, -0.6351588558546405, 0.1255106549259468, 0.9274234596460791, 0.6521671985073962, -1.096479144312747, -0.13053791626983574, 0.7456580927476812, 0.2756560244588762, 0.7928545940234812, -0.09090064659593228, -0.5848039412404554, 0.6712933507276586, -0.5580021112218642, -0.9932719788693752, -1.291598083335281, 1.0063019719973951, 2.5315105566256144, 0.19180344491300388, 1.0760389966814927, 0.40098950376711834, 0.8066213200907333, 0.04228979044397633, -0.8113645359471956, 0.004757325764738418, -0.821316073975185, 0.12700727502894782, -0.24442536080496274, 1.5206960005116714, -0.24888076594444683, 1.3601937174335974, 1.1639389721295166, -0.23095552068921868, 0.5982013742557605, 0.20366837052000625, -0.1576254551200049, -1.071545666117888, -1.118279440314656, 0.5506444096981942, 0.6873063433235967, 1.0224215930987581, 1.7131376606751902, 0.44864007900595854, -0.7340707087988626, -1.0802311487098926, 0.9866614319353384, -1.1274736842454998, -0.9755469547714175, -0.5489705300439477], "biases": [-0.2850757569717916, -0.15398118446110484, 1.3802212005617638, -2.145554910676968, 1.4965607876035494, 0.06137295293567959, 0.5252071013024724, -0.9668369974055528, -2.0751872778345994, -0.9755889914947956, 1.602242687292919, -1.644831264149048, 1.5993179177762864]}