{"generation": 1021, "inputs": ["y", "yvel", "xpipe", "ypipe"], "outputs": ["jump"], "layers": [4, 4, 4, 4, 1], "activation": "sigmoid", "ticks": 30764660, "weights": [-1.0229596241456687, 0.17119878359801094, 2.1235436930956513, 0.26945912701948505, -0.6288978502443865, 0.027072570070837264, 0.9364649884826844, 0.08995477352160448, -0.9534336422075973, -0.0075394382887945645, 1.0058054486328558, 0.6407460843248894, -0.23410253338334264, -0.13000638335488443, -0.8668868300436868, 0.6847401930842919, -0.27446192407536046, -0.940188567911777, -1.681513790732041, 1.1750004067481539, 2.6439780451835486, 0.4317782978554435, 1.0341181645787454, 0.10547450755415733, 1.0012914812376814, -0.23360178668392173, -0.841487626675831, 0.0789997428420032, -1.028204101687116, 0.1609018236287322, -0.24715743383716482, 1.356303828053426, -0.22913985880918886, 1.5082483403260756, 1.0759520148334876, -0.5140409060191875, 0.33140227404772565, 0.37050559817778944, 0.13772424547134565, -1.1233460534387674, -1.2515643089524522, 0.3755718058456138, 0.8561742194504869, 1.0210074088955083, 1.9895861733020557, 0.2858062132408611, -0.7455082207726007, -1.0817381148543619, 1.1578884678511816, -1.3015628116910887, -0.8605472586711436, -0.6961675761921111], "biases": [-0.9795321663009526, -0.4777783201715356, 1.6059711232301832, -2.7708314469902846, 1.467405683885087, 0.051824381933484806, 1.1578097558075, -0.7286004066049377, -2.3063794153337307, -0.7661278315182073, 1.3866341000816487, -1.3336129076749974, 1.6243878563349263]}