{"generation": 1012, "inputs": ["y", "yvel", "xpipe", "ypipe"], "outputs": ["jump"], "layers": [4, 4, 4, 4, 1], "activation": "sigmoid", "ticks": 30288551, "weights": [-1.0229596241456687, 0.17119878359801094, 2.1235436930956513, 0.26945912701948505, -0.6288978502443865, 0.027072570070837264, 0.9364649884826844, 0.08995477352160448, -0.9534336422075973, -0.0075394382887945645, 0.9492383100632712, 0.6177063547786652, -0.23410253338334264, -0.13000638335488443, -0.8668868300436868, 0.6651465271442314, -0.27820391549167756, -0.9863863723288468, -1.681513790732041, 1.1374251526268186, 2.6439780451835486, 0.4317782978554435, 1.0213487371170384, 0.10547450755415733, 1.0012914812376814, -0.269337853134921, -0.7976302350679759, 0.0789997428420032, -1.0018720957428158, 0.1609018236287322, -0.20214612498047427, 1.4061123391836883, -0.22913985880918886, 1.4895484887553943, 1.0759520148334876, -0.5140409060191875, 0.33140227404772565, 0.37050559817778944, 0.13772424547134565, -1.1233460534387674, -1.2073056293837732, 0.3755718058456138, 0.8561742194504869, 1.030310773711262, 1.9895861733020557, 0.27266337368542093, -0.7556222774666961, -1.0817381148543619, 1.1578884678511816, -1.3015628116910887, -0.8605472586711436, -0.73910742446823], "biases": [-1.0262325653018916, -0.495031924187707, 1.5710857407760594, -2.7708314469902846, 1.4908549857228297, 0.12508563899982705, 1.1732550520506428, -0.7255742888886854, -2.3037791024458563, -0.7467176313171411, 1.3891681554135957, -1.3983068412142168, 1.6243878563349263]}