{"generation": 107, "inputs": ["y", "yvel", "xpipe", "ypipe"], "outputs": ["jump"], "layers": [4, 4, 4, 4, 1], "activation": "sigmoid", "ticks": 967599, "weights": [-0.26426159450874, 0.49426916080373434, 2.102259795343258, 0.42062640745314084, -0.6094020064731096, 0.10217139389392918, 0.8864298285945983, 0.608500630426036, -1.0822669045253182, -0.13053791626983574, 0.6789785202601893, 0.2662932778718369, 0.7124010711496919, -0.03012758306168372, -0.574190904965926, 0.6205020463490839, -0.5684189768884856, -0.9304136953313328, -1.3246840247569773, 0.9006625293824351, 2.44125306776999, 0.14884868728166564, 1.0288543264871333, 0.4716635071597101, 0.814311103404846, 0.10205702682961756, -0.5994690110785353, -0.07582165106613002, -0.9269737264542045, 0.14499745295738803, -0.2144979383521219, 1.4441553582751987, -0.23377996159933045, 1.2762297605813349, 1.1185517988196807, -0.256199040666362, 0.6271170996261757, 0.24065951540930405, -0.08047962422437924, -1.0763145985820268, -1.027622094302093, 0.5926184077412863, 0.6773163153885762, 1.1070636281041897, 1.8265651067592026, 0.44864007900595854, -0.8011885159942649, -1.0974735757211662, 1.044676030440048, -1.1445241409527664, -0.9755469547714175, -0.4390948333059814], "biases": [-0.2250538064583075, 0.010162112649263505, 1.2731795699369617, -1.980031783449873, 1.4655001593642722, -0.10064899888820782, 0.4511416118051889, -0.8786653838734222, -2.142670328549452, -1.0491595202589812, 1.6495395588920732, -1.5330764391701126, 1.5479033948891834]}