{"generation": 194, "inputs": ["y", "yvel", "xpipe", "ypipe"], "outputs": ["jump"], "layers": [4, 4, 4, 4, 1], "activation": "sigmoid", "ticks": 1767897, "weights": [-0.2521109825511998, 0.4638868947215706, 2.1677089506762206, 0.3666560062094663, -0.6351588558546405, 0.1255106549259468, 0.9086073462794745, 0.6521671985073962, -1.096479144312747, -0.12266264119101651, 0.7456580927476812, 0.2756560244588762, 0.7783615785330772, -0.09090064659593228, -0.5848039412404554, 0.6592819375415804, -0.5580021112218642, -0.9932719788693752, -1.3183231179444468, 1.0063019719973951, 2.5808157098822417, 0.19180344491300388, 1.0760389966814927, 0.4030606489706326, 0.8066213200907333, 0.04228979044397633, -0.8357868004905799, 0.05004321963616866, -0.821316073975185, 0.15539146375914925, -0.20631684242776, 1.4895055923997473, -0.24888076594444683, 1.3601937174335974, 1.1639389721295166, -0.22253195877620113, 0.5982013742557605, 0.1695571462858169, -0.1576254551200049, -1.0215616453104948, -1.118279440314656, 0.5506444096981942, 0.6586911902343046, 1.0197632629678823, 1.7131376606751902, 0.40033925404485604, -0.7340707087988626, -1.0737450086212412, 0.9866614319353384, -1.1274736842454998, -0.9755469547714175, -0.5498312825645179], "biases": [-0.27996626964650695, -0.1957024945154189, 1.344715388017541, -2.149560801468504, 1.4965607876035494, 0.056124329069087556, 0.531163056954026, -0.9668369974055528, -2.096895874293605, -0.9750419961446656, 1.602242687292919, -1.6536565945530557, 1.5993179177762864]}