{"generation": 124, "inputs": ["y", "yvel", "xpipe", "ypipe"], "outputs": ["jump"], "layers": [4, 4, 4, 4, 1], "activation": "sigmoid", "ticks": 1123897, "weights": [-0.26426159450874, 0.4974050400443929, 2.101781983076214, 0.403944167043227, -0.6094020064731096, 0.10217139389392918, 0.9058363213371009, 0.6809800542812703, -1.0822669045253182, -0.13053791626983574, 0.6790666328889366, 0.29346110756398214, 0.7124010711496919, -0.03012758306168372, -0.5755395753995455, 0.7014886467394469, -0.601826258816907, -0.961129592807836, -1.2285688257543064, 0.9006625293824351, 2.491290680084068, 0.11074220103768304, 1.0052742783400939, 0.48196777091819587, 0.814311103404846, 0.08792934743892351, -0.6768528529734258, -0.027204790948969083, -0.9269737264542045, 0.14499745295738803, -0.2144979383521219, 1.497787257120598, -0.23377996159933045, 1.2762297605813349, 1.1425849865561553, -0.256199040666362, 0.6271170996261757, 0.24065951540930405, -0.12367517006770304, -1.1024440709950367, -1.027622094302093, 0.5926184077412863, 0.6973133622070372, 1.0972233968379987, 1.7727744778005208, 0.44864007900595854, -0.8011885159942649, -1.095574479227795, 1.0099280544542981, -1.1517269320340313, -0.9755469547714175, -0.4390948333059814], "biases": [-0.2731265213497466, -0.044060220735754, 1.3285078428371255, -2.0633542836621106, 1.383651612574595, -0.040515227972838776, 0.44573131223128587, -0.8936311349001924, -2.1673549586015226, -0.9603577200096564, 1.7241452084192106, -1.5320873398904056, 1.5801640204510645]}