{"generation": 1037, "inputs": ["y", "yvel", "xpipe", "ypipe"], "outputs": ["jump"], "layers": [4, 4, 4, 4, 1], "activation": "sigmoid", "ticks": 31508683, "weights": [-1.0229596241456687, 0.17119878359801094, 2.1235436930956513, 0.26945912701948505, -0.5667120774815275, 0.025120294324197778, 0.9364649884826844, 0.09029499540855818, -0.943253547770897, -0.0075394382887945645, 1.0330139423665217, 0.6091011168255954, -0.19035056591391303, -0.13000638335488443, -0.8668868300436868, 0.7089175040175996, -0.254957129722414, -0.940188567911777, -1.7149006331714371, 1.1538486106332853, 2.6439780451835486, 0.4317782978554435, 1.0341181645787454, 0.09402157380041835, 1.1147572844827147, -0.23360178668392173, -0.8142894435210106, 0.050588271370044006, -1.0184669419024928, 0.1609018236287322, -0.2399842605260689, 1.3282902240790349, -0.2105688975125316, 1.5288516454285905, 1.0879905274258024, -0.5140409060191875, 0.3366332670177604, 0.4009921911872065, 0.13772424547134565, -1.1749570809426353, -1.2515643089524522, 0.37393932471720526, 0.8561742194504869, 1.0210074088955083, 1.9895861733020557, 0.2858062132408611, -0.705072108214397, -1.079557287663621, 1.1578884678511816, -1.3015628116910887, -0.8605472586711436, -0.6409651579454729], "biases": [-0.9948193259221298, -0.4874134573143056, 1.5425964085577637, -2.7309976987456643, 1.467405683885087, 0.09995358224950071, 1.139505071548874, -0.7110125621799582, -2.20486118823311, -0.7510762490026844, 1.3284345993896676, -1.2955577455535687, 1.6339785224944283]}