{"generation": 176, "inputs": ["y", "yvel", "xpipe", "ypipe"], "outputs": ["jump"], "layers": [4, 4, 4, 4, 1], "activation": "sigmoid", "ticks": 1602297, "weights": [-0.2521109825511998, 0.4638868947215706, 2.1677089506762206, 0.35702764289793737, -0.6351588558546405, 0.1255106549259468, 0.9274234596460791, 0.6396631567655773, -1.1271205680374328, -0.13053791626983574, 0.7066836921328253, 0.3518179336552537, 0.7928545940234812, -0.09090064659593228, -0.6168671269343121, 0.6712933507276586, -0.5580021112218642, -0.9932719788693752, -1.291598083335281, 0.9810423329882463, 2.4867358700682223, 0.16233481112377304, 1.0523251029190515, 0.43812496043189936, 0.8066213200907333, 0.04228979044397633, -0.8113645359471956, -0.008510021248391876, -0.821316073975185, 0.12103626700213173, -0.24442536080496274, 1.5206960005116714, -0.2008994174511865, 1.3601937174335974, 1.1273946599524967, -0.23095552068921868, 0.5982013742557605, 0.24065951540930405, -0.11678720836606954, -1.071545666117888, -1.118279440314656, 0.592398649510385, 0.705398497240404, 1.0224215930987581, 1.6868359059710263, 0.44864007900595854, -0.7340707087988626, -1.1162099226225455, 1.0327015342761932, -1.1274736842454998, -0.9755469547714175, -0.5132349315812741], "biases": [-0.3181245476639214, -0.1666031416076903, 1.383363973471028, -2.093940318484684, 1.464107307003376, 0.12575244209688802, 0.4300810116499476, -0.9199077256901164, -2.117512803921949, -0.9515338707209242, 1.6012733017168874, -1.644831264149048, 1.5814335054786783]}