{"generation": 128, "inputs": ["y", "yvel", "xpipe", "ypipe"], "outputs": ["jump"], "layers": [4, 4, 4, 4, 1], "activation": "sigmoid", "ticks": 1160697, "weights": [-0.26426159450874, 0.4974050400443929, 2.101781983076214, 0.403944167043227, -0.6094020064731096, 0.10217139389392918, 0.9096346399893727, 0.6809800542812703, -1.1089778551602323, -0.13053791626983574, 0.6790666328889366, 0.29346110756398214, 0.7124010711496919, -0.050945256946000876, -0.5755395753995455, 0.7014886467394469, -0.5819402721542617, -0.961129592807836, -1.2285688257543064, 0.9006625293824351, 2.540122179779028, 0.11074220103768304, 1.0052742783400939, 0.440380076546476, 0.814311103404846, 0.08792934743892351, -0.6768528529734258, -0.027204790948969083, -0.9269737264542045, 0.14499745295738803, -0.25107832917640316, 1.497787257120598, -0.23377996159933045, 1.2762297605813349, 1.1425849865561553, -0.256199040666362, 0.6271170996261757, 0.24065951540930405, -0.12367517006770304, -1.1024440709950367, -1.0639308993189223, 0.5926184077412863, 0.6598542857067793, 1.0972233968379987, 1.7551082664053523, 0.44864007900595854, -0.8011885159942649, -1.095574479227795, 1.0099280544542981, -1.1517269320340313, -0.9755469547714175, -0.42135621015496993], "biases": [-0.29319408914575384, -0.044060220735754, 1.3987418923275372, -2.0633542836621106, 1.3628729805472655, -0.047997600193644956, 0.4623217835104385, -0.906085201219024, -2.1869019662099647, -0.9603577200096564, 1.7154474659290944, -1.5320873398904056, 1.5801640204510645]}