{"generation": 1031, "inputs": ["y", "yvel", "xpipe", "ypipe"], "outputs": ["jump"], "layers": [4, 4, 4, 4, 1], "activation": "sigmoid", "ticks": 31238508, "weights": [-1.0229596241456687, 0.17119878359801094, 2.1235436930956513, 0.26945912701948505, -0.6288978502443865, 0.027072570070837264, 0.9364649884826844, 0.09029499540855818, -0.943253547770897, -0.0075394382887945645, 1.0058054486328558, 0.6407460843248894, -0.23410253338334264, -0.13000638335488443, -0.8668868300436868, 0.7089175040175996, -0.254957129722414, -0.940188567911777, -1.681513790732041, 1.1750004067481539, 2.6439780451835486, 0.4317782978554435, 1.0341181645787454, 0.09402157380041835, 1.0745188755259052, -0.23360178668392173, -0.8142894435210106, 0.0789997428420032, -1.0184669419024928, 0.1609018236287322, -0.2399842605260689, 1.3282902240790349, -0.2178714495685302, 1.5288516454285905, 1.116118983139135, -0.5140409060191875, 0.33140227404772565, 0.4009921911872065, 0.13772424547134565, -1.1749570809426353, -1.2515643089524522, 0.3755718058456138, 0.8561742194504869, 1.0210074088955083, 1.9895861733020557, 0.2858062132408611, -0.705072108214397, -1.079557287663621, 1.1578884678511816, -1.3015628116910887, -0.8605472586711436, -0.6888664475946041], "biases": [-1.056218847963349, -0.4874134573143056, 1.5589895207342441, -2.748517142159014, 1.467405683885087, 0.06781719866992925, 1.113893482464203, -0.7520504253369588, -2.225286296354965, -0.7661278315182073, 1.3154735197154577, -1.2558273883854723, 1.6243878563349263]}