{"generation": 150, "inputs": ["y", "yvel", "xpipe", "ypipe"], "outputs": ["jump"], "layers": [4, 4, 4, 4, 1], "activation": "sigmoid", "ticks": 1363097, "weights": [-0.2759524933108249, 0.4638868947215706, 2.1296805346661283, 0.403944167043227, -0.6351588558546405, 0.12072938968641295, 0.9096346399893727, 0.6309771531689883, -1.1089778551602323, -0.13053791626983574, 0.7079097892435822, 0.3591133104606306, 0.7124010711496919, -0.09090064659593228, -0.5732424174564177, 0.7035777116469933, -0.5580021112218642, -1.0052999061901335, -1.2477080336620205, 0.9006625293824351, 2.470156591514406, 0.1594386317821737, 1.0282612140000977, 0.440380076546476, 0.814311103404846, 0.05711135536476236, -0.7669910973295258, -0.008510021248391876, -0.8622345166696644, 0.15606639618864857, -0.25319137886679494, 1.49372283639519, -0.2192356555707336, 1.3003121637629265, 1.1273946599524967, -0.256199040666362, 0.5982013742557605, 0.24065951540930405, -0.09232033034966924, -1.0814607903520161, -1.0839604486236805, 0.5926184077412863, 0.6853154978744677, 1.0972233968379987, 1.7069870214209348, 0.44864007900595854, -0.7687927838438738, -1.095574479227795, 1.0099280544542981, -1.1274736842454998, -0.9755469547714175, -0.46997232468899525], "biases": [-0.3100857703005648, -0.08108451354372057, 1.4668233488948974, -2.155933066344639, 1.4309642682063157, 0.08220961619753347, 0.37178538122793153, -0.9128571587659846, -2.194110127315726, -0.9461563005534694, 1.6497609020888346, -1.567585786545243, 1.5801640204510645]}