{"generation": 202, "inputs": ["y", "yvel", "xpipe", "ypipe"], "outputs": ["jump"], "layers": [4, 4, 4, 4, 1], "activation": "sigmoid", "ticks": 1841497, "weights": [-0.26729179000367137, 0.4638868947215706, 2.1677089506762206, 0.3666560062094663, -0.556150457754914, 0.1255106549259468, 0.9086073462794745, 0.6521671985073962, -1.096479144312747, -0.12266264119101651, 0.7456580927476812, 0.23515873737282064, 0.7783615785330772, -0.09090064659593228, -0.5848039412404554, 0.6592819375415804, -0.4662477089056094, -1.004914981241904, -1.3183231179444468, 1.0063019719973951, 2.5808157098822417, 0.19180344491300388, 1.079824833486329, 0.4030606489706326, 0.7926774411890105, 0.04228979044397633, -0.8357868004905799, 0.05004321963616866, -0.821316073975185, 0.17562262406686396, -0.2155310587115556, 1.4908396567795485, -0.24888076594444683, 1.3601937174335974, 1.1585355809420255, -0.23575762548410625, 0.612612515299717, 0.16914567263450106, -0.1576254551200049, -1.0215616453104948, -1.118279440314656, 0.5506444096981942, 0.6952717345007933, 1.0508547461109699, 1.7131376606751902, 0.40033925404485604, -0.7340707087988626, -1.0737450086212412, 1.0371901417165774, -1.1274736842454998, -0.9755469547714175, -0.5498312825645179], "biases": [-0.3620827098393976, -0.2161663447282388, 1.360087195130271, -2.1565108061138605, 1.5073861293805666, 0.056124329069087556, 0.6007415861326957, -0.9558893368258883, -2.08197871454712, -0.9556404992928901, 1.6052179029993412, -1.654861952948796, 1.5944844862205534]}