{"generation": 297, "inputs": ["y", "yvel", "xpipe", "ypipe"], "outputs": ["jump"], "layers": [4, 4, 4, 4, 1], "activation": "sigmoid", "ticks": 2715350, "weights": [-0.2910121373571136, 0.34209823903525316, 2.2714902241600936, 0.33250449357484396, -0.6268462758684445, 0.11528251878370054, 0.8670687102540506, 0.5961825926084303, -1.106571317861341, -0.07217742663467394, 0.8939434228119928, 0.25683640322741413, 0.8018908505249024, -0.0959786815544044, -0.5869836055240227, 0.7666418430469033, -0.5285386536887706, -0.9355226915346744, -1.3662152472730613, 1.1492766740457587, 2.5606660243739316, 0.2651960363198857, 1.1148959184804965, 0.41232012196542234, 0.820292955766752, 0.08840192054241913, -0.8450170485347387, 0.08874512199816238, -0.8741863001303156, 0.1671794796361003, -0.26603553181498735, 1.525463493881291, -0.2570093232832868, 1.3408220711001984, 1.2970069641517283, -0.2243970869614148, 0.5901911719947242, 0.23308008670016953, -0.11381666756214713, -0.9841545520700395, -1.1657708238794688, 0.4267100358072557, 0.7760058127016792, 1.0331501125926004, 1.7525853573519306, 0.38655607894484123, -0.8142549790170942, -1.147561109919081, 0.9549488769003968, -1.2187017599754244, -0.9755469547714175, -0.4818710362628165], "biases": [-0.38332704213568247, -0.10109703866606048, 1.4119700127117518, -2.1273355639337517, 1.309450347116708, -0.13297504121171355, 0.5362452476901974, -1.2509421168367696, -2.1040874116323467, -0.8780584465023226, 1.5728798066641652, -1.7777755919267242, 1.6730625217955173]}