{"generation": 220, "inputs": ["y", "yvel", "xpipe", "ypipe"], "outputs": ["jump"], "layers": [4, 4, 4, 4, 1], "activation": "sigmoid", "ticks": 2007097, "weights": [-0.24262335828867276, 0.408102390189807, 2.1677089506762206, 0.3724424111884902, -0.5714916836178885, 0.1255106549259468, 0.8635910363646129, 0.6521671985073962, -1.0693532620267419, -0.12266264119101651, 0.7502671692318128, 0.3059164109189308, 0.7783615785330772, -0.09090064659593228, -0.5848039412404554, 0.7076738137394447, -0.4662477089056094, -1.0346517297947058, -1.3183231179444468, 1.000978135918825, 2.5889785456906305, 0.19180344491300388, 1.1175292744058618, 0.40594815194978373, 0.8367552375941356, 0.04228979044397633, -0.8050604406219039, 0.05004321963616866, -0.8343616649091038, 0.17063391154044105, -0.2155310587115556, 1.4908396567795485, -0.2587215698872823, 1.3616722583413279, 1.2179006370693277, -0.2594263643844836, 0.6288545112834313, 0.18799112679311197, -0.18023787728008314, -1.0215616453104948, -1.123855227438822, 0.5649107247708959, 0.6952717345007933, 1.0427103742928547, 1.7134541259750788, 0.3807164489877478, -0.7340707087988626, -1.0836485119447457, 0.9849739947182248, -1.1274736842454998, -0.9755469547714175, -0.5761529383842497], "biases": [-0.4765423758530435, -0.128125561191125, 1.3611115698816645, -2.1607169012031417, 1.4934418520117354, 0.03260840548794789, 0.6830425324603723, -0.9760079386260294, -1.9977448301435294, -0.9562819683237997, 1.5585045700979412, -1.65087537824326, 1.5713621812442145]}