{"generation": 241, "inputs": ["y", "yvel", "xpipe", "ypipe"], "outputs": ["jump"], "layers": [4, 4, 4, 4, 1], "activation": "sigmoid", "ticks": 2200297, "weights": [-0.24262335828867276, 0.4084818004828281, 2.1499432035091637, 0.33713452245631353, -0.5579939705312916, 0.13668636113264412, 0.8574815495350817, 0.6403314943560133, -1.061545865221545, -0.12266264119101651, 0.7502671692318128, 0.25206011232443226, 0.7783615785330772, -0.09335818976191979, -0.5512509290259711, 0.6973756359385931, -0.5062170810713771, -1.0304422524238583, -1.3198743155195647, 1.0893199456582778, 2.6080611243330623, 0.19180344491300388, 1.114686932737865, 0.40594815194978373, 0.8367552375941356, 0.08069120853834424, -0.8272658116312166, 0.031449168266493056, -0.8343616649091038, 0.13491913893350363, -0.2155310587115556, 1.493747822778526, -0.2587215698872823, 1.369162408968736, 1.2179006370693277, -0.2633292130855973, 0.6266347992032142, 0.1872469291798956, -0.1293447892753799, -1.0215616453104948, -1.1672800700180026, 0.5180060360238659, 0.6952717345007933, 1.0427103742928547, 1.7022984000173191, 0.4174206282613051, -0.748177658910314, -1.1291178344523745, 0.9464775996404037, -1.1714330350708249, -0.9755469547714175, -0.5761529383842497], "biases": [-0.5220137149042732, -0.15122104039007528, 1.3779530613859696, -2.073902876036682, 1.448306735710454, 0.0002825250247064995, 0.706488950744209, -1.1227407795080928, -2.051101311039398, -0.9620793015008167, 1.4185416795134065, -1.6811720566156636, 1.5732529825255874]}