{"generation": 213, "inputs": ["y", "yvel", "xpipe", "ypipe"], "outputs": ["jump"], "layers": [4, 4, 4, 4, 1], "activation": "sigmoid", "ticks": 1942697, "weights": [-0.26729179000367137, 0.4638868947215706, 2.1677089506762206, 0.3724424111884902, -0.556150457754914, 0.1255106549259468, 0.8635910363646129, 0.6521671985073962, -1.0693532620267419, -0.12266264119101651, 0.7502671692318128, 0.23515873737282064, 0.7783615785330772, -0.09090064659593228, -0.5848039412404554, 0.7076738137394447, -0.4662477089056094, -1.0346517297947058, -1.3183231179444468, 1.000978135918825, 2.5808157098822417, 0.19180344491300388, 1.079824833486329, 0.40594815194978373, 0.8534636452396536, 0.04228979044397633, -0.8050604406219039, 0.05004321963616866, -0.8031192457578842, 0.17063391154044105, -0.2155310587115556, 1.4908396567795485, -0.2587215698872823, 1.3616722583413279, 1.2179006370693277, -0.2594263643844836, 0.6288545112834313, 0.16914567263450106, -0.18023787728008314, -1.0215616453104948, -1.118279440314656, 0.5506444096981942, 0.6952717345007933, 1.008799961382522, 1.6647097861382383, 0.3807164489877478, -0.7340707087988626, -1.0836485119447457, 1.0028376762376152, -1.1274736842454998, -0.9755469547714175, -0.5381696080432601], "biases": [-0.44793367572919196, -0.16291085992456578, 1.3345930847217202, -2.1607169012031417, 1.4569126207730099, 0.06772498385652392, 0.6295407133366567, -1.0083502600249301, -1.969213732546658, -0.9523869468023223, 1.591617400463844, -1.654861952948796, 1.5944844862205534]}