{"generation": 292, "inputs": ["y", "yvel", "xpipe", "ypipe"], "outputs": ["jump"], "layers": [4, 4, 4, 4, 1], "activation": "sigmoid", "ticks": 2669350, "weights": [-0.2910121373571136, 0.34209823903525316, 2.2714902241600936, 0.33250449357484396, -0.6268462758684445, 0.11528251878370054, 0.8670687102540506, 0.5961825926084303, -1.106571317861341, -0.07217742663467394, 0.8939434228119928, 0.25683640322741413, 0.8018908505249024, -0.0959786815544044, -0.5402202844723285, 0.7418291597114005, -0.5262055095007161, -0.9549455793894431, -1.3662152472730613, 1.1319050352491464, 2.5606660243739316, 0.2651960363198857, 1.1148959184804965, 0.43646939802923757, 0.820292955766752, 0.03908157719102647, -0.8450170485347387, 0.08874512199816238, -0.8741863001303156, 0.1671794796361003, -0.26603553181498735, 1.525463493881291, -0.2570093232832868, 1.3493277631759653, 1.2970069641517283, -0.2437157703967116, 0.5807638896180745, 0.23308008670016953, -0.10122496651785108, -0.9841545520700395, -1.1657708238794688, 0.40469809533302764, 0.7760058127016792, 1.0331501125926004, 1.7525853573519306, 0.38655607894484123, -0.8185306132368063, -1.147561109919081, 0.9549488769003968, -1.2187017599754244, -0.9755469547714175, -0.45505158160630726], "biases": [-0.38332704213568247, -0.13148712148034616, 1.4119700127117518, -2.0779309597840174, 1.290137766533542, -0.13297504121171355, 0.48848454789287854, -1.2856626113452014, -2.1040874116323467, -0.9225837052218128, 1.579547851968401, -1.7492027267925396, 1.6740864093102803]}