{"generation": 224, "inputs": ["y", "yvel", "xpipe", "ypipe"], "outputs": ["jump"], "layers": [4, 4, 4, 4, 1], "activation": "sigmoid", "ticks": 2043897, "weights": [-0.24262335828867276, 0.408102390189807, 2.1677089506762206, 0.3536981531056644, -0.5714916836178885, 0.1255106549259468, 0.8571996084253147, 0.6521671985073962, -1.0693532620267419, -0.12266264119101651, 0.7502671692318128, 0.3059164109189308, 0.7783615785330772, -0.09090064659593228, -0.5613115282527716, 0.7076738137394447, -0.4662477089056094, -1.0346517297947058, -1.3183231179444468, 1.000978135918825, 2.6080611243330623, 0.19180344491300388, 1.124876678043289, 0.40594815194978373, 0.8367552375941356, 0.04228979044397633, -0.8050604406219039, 0.05004321963616866, -0.8343616649091038, 0.13491913893350363, -0.2155310587115556, 1.4908396567795485, -0.2587215698872823, 1.376510791763311, 1.2179006370693277, -0.2594263643844836, 0.6288545112834313, 0.1872469291798956, -0.18023787728008314, -1.0215616453104948, -1.123855227438822, 0.5649107247708959, 0.6952717345007933, 1.0427103742928547, 1.7022984000173191, 0.3807164489877478, -0.748177658910314, -1.0836485119447457, 0.9849739947182248, -1.1274736842454998, -0.9755469547714175, -0.5761529383842497], "biases": [-0.4765423758530435, -0.128125561191125, 1.3611115698816645, -2.0937428378319836, 1.4626248584793238, 0.07592479879636357, 0.7362149710631612, -0.9760079386260294, -1.9506432870251205, -0.9713272465746994, 1.5585045700979412, -1.6062787418418978, 1.5649945980518387]}