{"generation": 253, "inputs": ["y", "yvel", "xpipe", "ypipe"], "outputs": ["jump"], "layers": [4, 4, 4, 4, 1], "activation": "sigmoid", "ticks": 2310550, "weights": [-0.24262335828867276, 0.42589454157512957, 2.1499432035091637, 0.3449496824820556, -0.6302796304525808, 0.16235005259409177, 0.8390195237610527, 0.6403314943560133, -1.061545865221545, -0.12266264119101651, 0.7800707740217268, 0.2152788628819268, 0.7783615785330772, -0.0959786815544044, -0.5852600804076417, 0.6973756359385931, -0.529523934949552, -1.0227853956468362, -1.3437474022086124, 1.0893199456582778, 2.6337704480087822, 0.22337392313019663, 1.1515783214922573, 0.3995240867496273, 0.8379005667434465, 0.07742679521301785, -0.8272658116312166, 0.031449168266493056, -0.8741863001303156, 0.13491913893350363, -0.24089025268832337, 1.493747822778526, -0.30318005920514196, 1.380915941603614, 1.2564609668305955, -0.27841967139173396, 0.6004824192551831, 0.20948722420653978, -0.1293447892753799, -1.0215616453104948, -1.1601558530184828, 0.5180060360238659, 0.6952717345007933, 1.0427103742928547, 1.7022984000173191, 0.4174206282613051, -0.748177658910314, -1.142668563263832, 0.9464775996404037, -1.1714330350708249, -0.9755469547714175, -0.5761529383842497], "biases": [-0.5316167960527929, -0.1250590158238869, 1.4168091066048318, -2.0205681319804274, 1.428703450121501, -0.060102742650071275, 0.6372937525556454, -1.1227407795080928, -2.05840734215225, -0.9307522779295482, 1.4422133104194916, -1.744366410280328, 1.605351149790841]}