{"generation": 284, "inputs": ["y", "yvel", "xpipe", "ypipe"], "outputs": ["jump"], "layers": [4, 4, 4, 4, 1], "activation": "sigmoid", "ticks": 2595750, "weights": [-0.2910121373571136, 0.3616729497471344, 2.2714902241600936, 0.3594491176441439, -0.6268462758684445, 0.11528251878370054, 0.8499059464592453, 0.5961825926084303, -1.106571317861341, -0.07217742663467394, 0.8939434228119928, 0.26912546014950045, 0.7531767372311583, -0.0959786815544044, -0.5402202844723285, 0.7418291597114005, -0.5262055095007161, -0.9691127034939256, -1.3662152472730613, 1.1319050352491464, 2.5858229877850936, 0.2651960363198857, 1.1148959184804965, 0.43646939802923757, 0.820292955766752, 0.03908157719102647, -0.8450170485347387, 0.09431820564014905, -0.8741863001303156, 0.1671794796361003, -0.29119294995606004, 1.525463493881291, -0.2570093232832868, 1.3480690824230006, 1.2970069641517283, -0.2437157703967116, 0.5690878676919903, 0.23308008670016953, -0.1293447892753799, -1.006917364457573, -1.1657708238794688, 0.40469809533302764, 0.7482990783246755, 1.0331501125926004, 1.7525853573519306, 0.38655607894484123, -0.7766802799920101, -1.147561109919081, 0.9733855695341052, -1.2187017599754244, -0.9755469547714175, -0.5307070604694494], "biases": [-0.38332704213568247, -0.13891663186072917, 1.4278996367268169, -1.9950371554708337, 1.3972514282159656, -0.16062611901730414, 0.4910840957895093, -1.2186477070335406, -2.1294242867295248, -0.932931193547665, 1.568156397917191, -1.790237779502127, 1.6740864093102803]}