{"generation": 344, "inputs": ["y", "yvel", "xpipe", "ypipe"], "outputs": ["jump"], "layers": [4, 4, 4, 4, 1], "activation": "sigmoid", "ticks": 3147750, "weights": [-0.34441325406302487, 0.31962627776738306, 2.3453949100233067, 0.2883140154437189, -0.5866858693002118, 0.09902548942068519, 0.8957513145141134, 0.5585979406365489, -1.106571317861341, -0.07217742663467394, 0.878852630790576, 0.2983019661135923, 0.7828470914276487, -0.0959786815544044, -0.5869836055240227, 0.7783319872965335, -0.6233286904406459, -0.9622231351437006, -1.3554235001418444, 1.1009707353504325, 2.5765992201113748, 0.2651960363198857, 1.133424212943629, 0.3715245202195707, 0.835700290999752, 0.09828631498612685, -0.8382642009657694, 0.14159094943169837, -0.8253181701519472, 0.16549355042694364, -0.26758560444238993, 1.506059176188862, -0.18674966281572702, 1.350662500414086, 1.2628894861429458, -0.16975010263816165, 0.6050378907920965, 0.1880097203537635, -0.08363233557479646, -1.0252505986881495, -1.113196637988886, 0.4356353731530506, 0.8005367268366866, 1.125045264463909, 1.7901192778159611, 0.377785416820887, -0.8790613023983256, -1.1486241474750258, 0.9703177943879842, -1.2317672563748607, -0.9755469547714175, -0.5320373004510076], "biases": [-0.43652470054306386, -0.10992325782005621, 1.5475591211680497, -2.3108701586695988, 1.3016725798266868, -0.06087872202752476, 0.48723287419820943, -1.2915824716685034, -2.069134125939875, -0.7734690052982829, 1.6939967152625999, -1.7135719488278207, 1.6856838253416173]}