{"generation": 3, "inputs": ["y", "yvel", "xpipe", "ypipe"], "outputs": ["jump"], "layers": [4, 4, 4, 4, 1], "activation": "sigmoid", "ticks": 27600, "weights": [-0.22526446553672075, 0.5093872276228795, 2.0526603984045444, 0.51659526913061, -0.5961972423624615, -0.028022153235000707, 0.8851865448688319, 0.641748129959951, -1.0527766023595468, -0.21377085540797194, 0.5674793356190091, 0.2364141913109777, 0.8723196942605459, 0.019239890083303568, -0.5789538760649102, 0.6774417885929422, -0.5632817253543575, -0.8950689506394052, -1.3809377583098832, 0.8918734257386218, 2.402074399828431, 0.2935954067373189, 1.2071243803536116, 0.5455426843330387, 0.7753715371513861, 0.2102382182715043, -0.6300685326958362, -0.12369961843886433, -0.8473237016801574, 0.1381685003847166, -0.09453913237681036, 1.5121698992484895, -0.2904448221973737, 1.2999077254242586, 1.0813892084956176, -0.17075389521916937, 0.7418755635671137, 0.19054765941735397, -0.17119553625446743, -1.1304562938148275, -0.9935239244113088, 0.7102035206660396, 0.6925827181536963, 1.1346599799536792, 1.6537160817766288, 0.4637277982818716, -0.7556011592348713, -1.1054922877504822, 1.1831821609414244, -1.0134714036729076, -0.9325345780173657, -0.405139685921046], "biases": [-0.3008102471103111, 0.1789465382939483, 1.270944271472646, -2.0966875192395733, 1.490552650636019, -0.08501871498798473, 0.42162837149876015, -0.7094827897301264, -2.237839194073772, -0.9515123170316457, 1.3467624080484433, -1.5602605821303959, 1.4079838351804461]}