{"generation": 335, "inputs": ["y", "yvel", "xpipe", "ypipe"], "outputs": ["jump"], "layers": [4, 4, 4, 4, 1], "activation": "sigmoid", "ticks": 3064950, "weights": [-0.3287500329378388, 0.31962627776738306, 2.3471963212782745, 0.3149074926824561, -0.5660259897811882, 0.12273982296055676, 0.8957513145141134, 0.5585979406365489, -1.106571317861341, -0.07217742663467394, 0.878852630790576, 0.3123016898196915, 0.7828470914276487, -0.0959786815544044, -0.5869836055240227, 0.7298004777212901, -0.6233286904406459, -0.968761888689184, -1.3554235001418444, 1.1462012244816582, 2.549214985663885, 0.2651960363198857, 1.133424212943629, 0.3715245202195707, 0.835700290999752, 0.09828631498612685, -0.8914321353643331, 0.14159094943169837, -0.8253181701519472, 0.14645174819038836, -0.26603553181498735, 1.5470964896731563, -0.14073976992007944, 1.350662500414086, 1.2628894861429458, -0.16975010263816165, 0.5647634536169082, 0.19481694195531496, -0.08363233557479646, -1.0252505986881495, -1.113196637988886, 0.4267100358072557, 0.8005367268366866, 1.125045264463909, 1.7901192778159611, 0.34475011718466736, -0.8790613023983256, -1.147561109919081, 0.9703177943879842, -1.2317672563748607, -0.9755469547714175, -0.5078802330622171], "biases": [-0.46079617642309884, -0.10015070320639635, 1.5475591211680497, -2.249709997499152, 1.3037441478292786, -0.05464806056377662, 0.46120211737538763, -1.3309125083749678, -2.173621940108034, -0.7734690052982829, 1.6158971900906276, -1.66231639440695, 1.6856838253416173]}