{"generation": 387, "inputs": ["y", "yvel", "xpipe", "ypipe"], "outputs": ["jump"], "layers": [4, 4, 4, 4, 1], "activation": "sigmoid", "ticks": 3543350, "weights": [-0.321788871342285, 0.30855567574240117, 2.3862598018508017, 0.29399921463804035, -0.6577387133813023, 0.003715297857948722, 0.8480456145072374, 0.5168546549677874, -1.106571317861341, -0.03793609875370411, 0.8376745845110737, 0.368751210920557, 0.6218058526366019, -0.1356020975498457, -0.6735724568779626, 0.7430487941222018, -0.5926363538344868, -0.9754459108636119, -1.2831916176504166, 1.136196292549805, 2.5322400561570584, 0.31380198796362113, 1.1598800552295052, 0.32410030675265195, 0.8262970776813059, 0.006661383114194903, -0.872266541938202, 0.16713304282880803, -0.8725401073437326, 0.20358057040829086, -0.16038902228563226, 1.5186056233145964, -0.15555204724867844, 1.3579105864638346, 1.3166999023820025, -0.20820512870518507, 0.6046196128960547, 0.20135183433553105, -0.040008128118223865, -1.0155737126667805, -1.0898652756235236, 0.38832206348966003, 0.8054795499647723, 1.0835774248977805, 1.8659660372256768, 0.3682226122260905, -0.9153031747992136, -1.1625213005021453, 1.0095923209949296, -1.2317672563748607, -0.9755469547714175, -0.590718609225833], "biases": [-0.4763782296028133, -0.18946108359226238, 1.4514795945612005, -2.2413114182621854, 1.4572774469682968, -0.11038207114020013, 0.520443451971347, -1.427823753664587, -1.9810684055163166, -0.8055018287617022, 1.8501227404374647, -1.6315631752478572, 1.6784119406480598]}