{"generation": 377, "inputs": ["y", "yvel", "xpipe", "ypipe"], "outputs": ["jump"], "layers": [4, 4, 4, 4, 1], "activation": "sigmoid", "ticks": 3451350, "weights": [-0.321788871342285, 0.31962627776738306, 2.356983851120813, 0.2883140154437189, -0.6192401305847377, 0.003715297857948722, 0.8480456145072374, 0.5517922143004819, -1.106571317861341, -0.03793609875370411, 0.878852630790576, 0.368751210920557, 0.6559586355464149, -0.1356020975498457, -0.6350792004658812, 0.7430487941222018, -0.5926363538344868, -0.9754459108636119, -1.3175706275402657, 1.1009707353504325, 2.5322400561570584, 0.31380198796362113, 1.1201530545609553, 0.32410030675265195, 0.858922718490292, 0.006661383114194903, -0.8104990518400007, 0.14586178861994298, -0.8725401073437326, 0.20358057040829086, -0.16038902228563226, 1.5416302182555373, -0.15555204724867844, 1.3579105864638346, 1.3125987489646265, -0.17550637951289644, 0.5840400638996144, 0.1857508448669817, -0.040008128118223865, -1.0155737126667805, -1.1310221155600948, 0.38832206348966003, 0.8258701013859526, 1.0835774248977805, 1.8068174679463378, 0.3682226122260905, -0.9099071426191365, -1.1724588633992854, 1.0095923209949296, -1.2317672563748607, -0.9755469547714175, -0.590718609225833], "biases": [-0.5185089969793852, -0.15198692402411, 1.419923314033796, -2.2168758245127655, 1.315319984846574, -0.07973187790320484, 0.520443451971347, -1.3704789691599013, -1.9834389566346666, -0.7560745556294263, 1.7855520871073303, -1.681325548753984, 1.6784119406480598]}