{"generation": 382, "inputs": ["y", "yvel", "xpipe", "ypipe"], "outputs": ["jump"], "layers": [4, 4, 4, 4, 1], "activation": "sigmoid", "ticks": 3497350, "weights": [-0.321788871342285, 0.31962627776738306, 2.356983851120813, 0.2759828670687042, -0.6577387133813023, 0.003715297857948722, 0.8480456145072374, 0.5517922143004819, -1.106571317861341, -0.03793609875370411, 0.878852630790576, 0.368751210920557, 0.6218058526366019, -0.1356020975498457, -0.6735724568779626, 0.7430487941222018, -0.5926363538344868, -0.9754459108636119, -1.2831916176504166, 1.136196292549805, 2.5322400561570584, 0.31380198796362113, 1.1201530545609553, 0.32410030675265195, 0.8262970776813059, 0.006661383114194903, -0.8104990518400007, 0.16713304282880803, -0.8725401073437326, 0.20358057040829086, -0.16038902228563226, 1.5416302182555373, -0.15555204724867844, 1.3579105864638346, 1.3103054044226607, -0.20820512870518507, 0.6046196128960547, 0.1857508448669817, -0.040008128118223865, -1.0155737126667805, -1.1310221155600948, 0.38832206348966003, 0.8054795499647723, 1.0835774248977805, 1.8458122387850595, 0.3682226122260905, -0.8897334941516686, -1.1517415303428844, 1.0095923209949296, -1.2317672563748607, -0.9755469547714175, -0.590718609225833], "biases": [-0.5185089969793852, -0.18946108359226238, 1.439210780169151, -2.2168758245127655, 1.417678146842067, -0.11038207114020013, 0.520443451971347, -1.4117026804735104, -1.9810684055163166, -0.7835214996409962, 1.8154491792398455, -1.6540258379642025, 1.6784119406480598]}