{"generation": 355, "inputs": ["y", "yvel", "xpipe", "ypipe"], "outputs": ["jump"], "layers": [4, 4, 4, 4, 1], "activation": "sigmoid", "ticks": 3248950, "weights": [-0.34441325406302487, 0.31962627776738306, 2.35051641982079, 0.2883140154437189, -0.5695272013198113, 0.06739451992352907, 0.8480456145072374, 0.5517922143004819, -1.106571317861341, -0.07217742663467394, 0.878852630790576, 0.2983019661135923, 0.7598165703286167, -0.0959786815544044, -0.6343403403988207, 0.7783319872965335, -0.5926363538344868, -0.9622231351437006, -1.3554235001418444, 1.1009707353504325, 2.5322400561570584, 0.2651960363198857, 1.128752124089579, 0.3715245202195707, 0.835700290999752, 0.0483629175606475, -0.8159184728072512, 0.14159094943169837, -0.8322621351040276, 0.20358057040829086, -0.2249322412241, 1.5375368601761767, -0.18674966281572702, 1.350662500414086, 1.2734551519561117, -0.17550637951289644, 0.5840400638996144, 0.1880097203537635, -0.08363233557479646, -1.0155737126667805, -1.1508270672284295, 0.38832206348966003, 0.8401392153807768, 1.125045264463909, 1.7901192778159611, 0.377785416820887, -0.8731200221768254, -1.1044582412997817, 0.9703177943879842, -1.2317672563748607, -0.9755469547714175, -0.5320373004510076], "biases": [-0.43521320614788117, -0.09780665931864743, 1.4983279602252115, -2.296348948474281, 1.3255700616641355, -0.09456459700916539, 0.44661668201848453, -1.268409942547807, -2.0492694582789412, -0.7846344095480395, 1.791233662627834, -1.6716893551145853, 1.6856838253416173]}