{"generation": 362, "inputs": ["y", "yvel", "xpipe", "ypipe"], "outputs": ["jump"], "layers": [4, 4, 4, 4, 1], "activation": "sigmoid", "ticks": 3313350, "weights": [-0.35219148305462933, 0.31962627776738306, 2.35051641982079, 0.2883140154437189, -0.5695272013198113, 0.044277709909177204, 0.8480456145072374, 0.5517922143004819, -1.106571317861341, -0.07217742663467394, 0.878852630790576, 0.2747717859425918, 0.6559586355464149, -0.0959786815544044, -0.6343403403988207, 0.7783319872965335, -0.5926363538344868, -0.9754459108636119, -1.3554235001418444, 1.1009707353504325, 2.5322400561570584, 0.3345506454201833, 1.1650216829579163, 0.3715245202195707, 0.835700290999752, 0.0483629175606475, -0.8104990518400007, 0.14159094943169837, -0.8661748962266824, 0.20358057040829086, -0.2249322412241, 1.5375368601761767, -0.18674966281572702, 1.3579105864638346, 1.2734551519561117, -0.17550637951289644, 0.5840400638996144, 0.1880097203537635, -0.08363233557479646, -1.0155737126667805, -1.1508270672284295, 0.38832206348966003, 0.8401392153807768, 1.125045264463909, 1.7901192778159611, 0.354083668964596, -0.8684490191019151, -1.1525630329846905, 1.0095923209949296, -1.2317672563748607, -0.9755469547714175, -0.5563167812951748], "biases": [-0.500100425888967, -0.09780665931864743, 1.4837469075340868, -2.3211066944230763, 1.2979180940522557, -0.1331211980402967, 0.48183290693429315, -1.3041617481265484, -2.0370321347018825, -0.7706532571943073, 1.8133738215379576, -1.6746253049675663, 1.6980144145538343]}