{"generation": 395, "inputs": ["y", "yvel", "xpipe", "ypipe"], "outputs": ["jump"], "layers": [4, 4, 4, 4, 1], "activation": "sigmoid", "ticks": 3616950, "weights": [-0.34107550528751923, 0.30855567574240117, 2.3862598018508017, 0.29399921463804035, -0.67411124741465, -0.032774098663959486, 0.8407958608637119, 0.5590829834484469, -1.106571317861341, -0.03793609875370411, 0.8376745845110737, 0.368751210920557, 0.6218058526366019, -0.1356020975498457, -0.6668453370679513, 0.7319137871331033, -0.5926363538344868, -0.9754459108636119, -1.2831916176504166, 1.136196292549805, 2.5054251477576406, 0.3453572984037357, 1.2317422577784511, 0.32410030675265195, 0.8262970776813059, 0.006661383114194903, -0.872266541938202, 0.21406667499658427, -0.8725401073437326, 0.20358057040829086, -0.16038902228563226, 1.5186056233145964, -0.15555204724867844, 1.3579105864638346, 1.3166999023820025, -0.21976601254122774, 0.6046196128960547, 0.20135183433553105, -0.011022347376753908, -1.0046700576242933, -1.0898652756235236, 0.38832206348966003, 0.8206950053746873, 1.0835774248977805, 1.8659660372256768, 0.3682226122260905, -0.9564801632943649, -1.1414388522931254, 1.044110646085881, -1.2317672563748607, -0.9755469547714175, -0.6280912114487541], "biases": [-0.4984057015869785, -0.15951191205777918, 1.4835971043927998, -2.244193670606354, 1.4572774469682968, -0.04149544534988119, 0.5281520482426417, -1.4139504292555403, -1.9810684055163166, -0.8182392769832978, 1.8336452155757512, -1.5746592623173241, 1.671103700993316]}