{"generation": 441, "inputs": ["y", "yvel", "xpipe", "ypipe"], "outputs": ["jump"], "layers": [4, 4, 4, 4, 1], "activation": "sigmoid", "ticks": 4051675, "weights": [-0.5287368023012246, 0.2789340729361177, 2.344015225728983, 0.31022531661660246, -0.67411124741465, -0.10886741560592741, 0.8863434505236487, 0.5015881554785306, -1.1828364680404952, -0.03793609875370411, 0.8247216836502935, 0.33146752931865386, 0.5239808312008208, -0.14494383574943123, -0.7562249178725338, 0.7754631421909552, -0.4826962251594694, -0.9550118638578429, -1.265153852091856, 1.1809244686629998, 2.4915180168966193, 0.3422068194396907, 1.1881118313650183, 0.26254339937813365, 0.8262970776813059, 0.021429867274649912, -0.908262096282772, 0.17095189498544014, -0.9015538093782514, 0.16853823174203114, -0.1717941100800644, 1.501850283101123, -0.14679793442937045, 1.3596637352222913, 1.2637496960186465, -0.17161967503249703, 0.5631206857187682, 0.2976554243785375, -0.015904504698649437, -1.0240788507253238, -1.0977520614308716, 0.4199000445328201, 0.811015357167912, 1.0501268132343877, 1.7953712025917072, 0.42415321086214713, -0.8943769308016579, -1.1022571591961345, 1.0704075086581435, -1.3125909840599252, -0.8587561080646726, -0.6280912114487541], "biases": [-0.484106985558392, -0.25627202889680495, 1.5083822877363953, -2.29092597407832, 1.554376019489748, -0.046833484255507485, 0.707661401851955, -1.4325622564161238, -1.9124486793226858, -0.8506551532233741, 1.8300570112544003, -1.5907490120821974, 1.5833105848991555]}