{"generation": 437, "inputs": ["y", "yvel", "xpipe", "ypipe"], "outputs": ["jump"], "layers": [4, 4, 4, 4, 1], "activation": "sigmoid", "ticks": 4011731, "weights": [-0.5287368023012246, 0.280623456361366, 2.344015225728983, 0.31022531661660246, -0.67411124741465, -0.10886741560592741, 0.8863434505236487, 0.5015881554785306, -1.1828364680404952, -0.03793609875370411, 0.8247216836502935, 0.33146752931865386, 0.5239808312008208, -0.14494383574943123, -0.7562249178725338, 0.7754631421909552, -0.4826962251594694, -0.994199584123727, -1.2985460166386005, 1.1809244686629998, 2.48232343886818, 0.3422068194396907, 1.2317422577784511, 0.27496360371439993, 0.8262970776813059, 0.021429867274649912, -0.9043680591570662, 0.17095189498544014, -0.9324248218278188, 0.16853823174203114, -0.1717941100800644, 1.501850283101123, -0.14679793442937045, 1.3596637352222913, 1.2637496960186465, -0.18739533402324618, 0.6045692410391371, 0.2976554243785375, -0.015904504698649437, -1.0240788507253238, -1.0977520614308716, 0.4199000445328201, 0.8173739652391253, 1.0501268132343877, 1.7953712025917072, 0.40499552918389486, -0.8943769308016579, -1.1022571591961345, 1.0704075086581435, -1.3125909840599252, -0.8587561080646726, -0.6280912114487541], "biases": [-0.484106985558392, -0.20944219642274997, 1.5262887999081753, -2.2431948978565064, 1.5252916672666945, -0.05845725699344234, 0.6415900864345524, -1.439922796908883, -1.9124486793226858, -0.8685724733918889, 1.8300570112544003, -1.5626930928296945, 1.5833105848991555]}