{"generation": 422, "inputs": ["y", "yvel", "xpipe", "ypipe"], "outputs": ["jump"], "layers": [4, 4, 4, 4, 1], "activation": "sigmoid", "ticks": 3867343, "weights": [-0.3901994688706428, 0.280623456361366, 2.344015225728983, 0.31022531661660246, -0.67411124741465, -0.07302930324725339, 0.8863434505236487, 0.5181622926240771, -1.1567074651977571, -0.03793609875370411, 0.7958686814567977, 0.368751210920557, 0.5424476198046763, -0.14494383574943123, -0.6965461898098215, 0.7676841951475674, -0.5232264827200933, -1.0185775527619048, -1.3244765922765092, 1.136196292549805, 2.4799253235308925, 0.3422068194396907, 1.2317422577784511, 0.27496360371439993, 0.8262970776813059, 0.006661383114194903, -0.9043680591570662, 0.21800691010948037, -0.9564668640467978, 0.15388434686164637, -0.1717941100800644, 1.5186056233145964, -0.15555204724867844, 1.3878742056737112, 1.2637496960186465, -0.23018940720412823, 0.5861097783207211, 0.2976554243785375, -0.015904504698649437, -1.0240788507253238, -1.0613293422896015, 0.38832206348966003, 0.8173739652391253, 1.0501268132343877, 1.77011843758283, 0.40499552918389486, -0.9082133968751454, -1.1022571591961345, 1.0704075086581435, -1.256298572203559, -0.9042046777043052, -0.6280912114487541], "biases": [-0.520214380054452, -0.20944219642274997, 1.5021919298979933, -2.238519204282546, 1.5132789741301516, -0.1098795910808249, 0.6146342510144774, -1.4592290970685076, -1.9581699061571076, -0.8795462296986897, 1.845139339370845, -1.610202248572438, 1.5862727204968832]}