{"generation": 450, "inputs": ["y", "yvel", "xpipe", "ypipe"], "outputs": ["jump"], "layers": [4, 4, 4, 4, 1], "activation": "sigmoid", "ticks": 4141568, "weights": [-0.5287368023012246, 0.2789340729361177, 2.3095908402331835, 0.31022531661660246, -0.67411124741465, -0.05931013089743802, 0.8405276093328523, 0.5015881554785306, -1.1828364680404952, -0.03793609875370411, 0.8247216836502935, 0.33146752931865386, 0.5239808312008208, -0.14494383574943123, -0.7667572468165778, 0.7265278531739074, -0.4476165642686733, -0.9550118638578429, -1.265153852091856, 1.1809244686629998, 2.4915180168966193, 0.38546474880815823, 1.1841105891760484, 0.26254339937813365, 0.8225767824710812, 0.02686762727464776, -0.908262096282772, 0.14539101027488843, -0.9015538093782514, 0.16853823174203114, -0.1717941100800644, 1.501850283101123, -0.11197259292255116, 1.4052270955034933, 1.2637496960186465, -0.17161967503249703, 0.5631206857187682, 0.2976554243785375, -0.07076208450057253, -1.0240788507253238, -1.1027786052721285, 0.41302747467694256, 0.8805348935942066, 1.0501268132343877, 1.7953712025917072, 0.4374136882997493, -0.8943769308016579, -1.1318912740624136, 1.0511200166180705, -1.3125909840599252, -0.8587561080646726, -0.6242789354609053], "biases": [-0.490684394583628, -0.2928418265639302, 1.556761380823388, -2.2436568926356624, 1.5644472551300284, -0.0030128071520188924, 0.707661401851955, -1.4047632872724327, -1.9039806058962652, -0.8311606653606778, 1.8054586790743068, -1.6222280058311591, 1.593217721971205]}