{"generation": 418, "inputs": ["y", "yvel", "xpipe", "ypipe"], "outputs": ["jump"], "layers": [4, 4, 4, 4, 1], "activation": "sigmoid", "ticks": 3829815, "weights": [-0.3901994688706428, 0.280623456361366, 2.344015225728983, 0.31022531661660246, -0.67411124741465, -0.07302930324725339, 0.8863434505236487, 0.5181622926240771, -1.1567074651977571, -0.03793609875370411, 0.7958686814567977, 0.368751210920557, 0.5424476198046763, -0.14494383574943123, -0.6965461898098215, 0.7676841951475674, -0.561579186887069, -1.0185775527619048, -1.316107106736909, 1.136196292549805, 2.4799253235308925, 0.3811957817811165, 1.2317422577784511, 0.27496360371439993, 0.8262970776813059, 0.006661383114194903, -0.9043680591570662, 0.21800691010948037, -0.9084562663365716, 0.15388434686164637, -0.1717941100800644, 1.5186056233145964, -0.15555204724867844, 1.3976188245665524, 1.2637496960186465, -0.22127619396683243, 0.5861097783207211, 0.2976554243785375, -0.011022347376753908, -1.0240788507253238, -1.0898652756235236, 0.38832206348966003, 0.8173739652391253, 1.0501268132343877, 1.77011843758283, 0.40499552918389486, -0.9082133968751454, -1.1022571591961345, 1.0704075086581435, -1.256298572203559, -0.9042046777043052, -0.6280912114487541], "biases": [-0.520214380054452, -0.24780747830681343, 1.5021919298979933, -2.238519204282546, 1.5132789741301516, -0.11645704755802458, 0.6485676132433081, -1.4384295454260956, -1.9375637272368762, -0.8920436099072803, 1.845139339370845, -1.610202248572438, 1.5862727204968832]}