{"generation": 467, "inputs": ["y", "yvel", "xpipe", "ypipe"], "outputs": ["jump"], "layers": [4, 4, 4, 4, 1], "activation": "sigmoid", "ticks": 4312050, "weights": [-0.5915736359649022, 0.2789340729361177, 2.290140501112688, 0.31022531661660246, -0.67411124741465, -0.005827810120624742, 0.8405276093328523, 0.5015881554785306, -1.1321667712069425, -0.007661368865117802, 0.8413384823344227, 0.34564308527131904, 0.5039377170712571, -0.14494383574943123, -0.7667572468165778, 0.7265278531739074, -0.4476165642686733, -0.9550118638578429, -1.289448454627383, 1.1684166062036576, 2.5163987452405485, 0.30948239796662597, 1.214162018764392, 0.30134671058945767, 0.8026252514073426, 0.02909544249923178, -0.908262096282772, 0.1317814559707863, -0.893883022489012, 0.19835778077824825, -0.1717941100800644, 1.498568122850119, -0.11197259292255116, 1.4052270955034933, 1.2637496960186465, -0.15728426413304292, 0.607475943396633, 0.2751973394713392, -0.09690988336454341, -1.0292745611490048, -1.144220758542662, 0.42284449699456245, 0.8805348935942066, 1.0501268132343877, 1.7953712025917072, 0.38974462251534436, -0.9339510021944132, -1.115414512271224, 1.0511200166180705, -1.3125909840599252, -0.8646944894124146, -0.6242789354609053], "biases": [-0.456404536709066, -0.3041976935975096, 1.5242750441479567, -2.2509849825084403, 1.5699599989852133, 0.048905291564876045, 0.7445157599834772, -1.3582777144914846, -1.9030605078531448, -0.9358450196831374, 1.7371553047196386, -1.6686397297021436, 1.6365744498372372]}