{"generation": 446, "inputs": ["y", "yvel", "xpipe", "ypipe"], "outputs": ["jump"], "layers": [4, 4, 4, 4, 1], "activation": "sigmoid", "ticks": 4101599, "weights": [-0.5287368023012246, 0.2789340729361177, 2.344015225728983, 0.31022531661660246, -0.67411124741465, -0.05931013089743802, 0.8405276093328523, 0.5015881554785306, -1.1828364680404952, -0.03793609875370411, 0.8247216836502935, 0.33146752931865386, 0.5239808312008208, -0.14494383574943123, -0.7562249178725338, 0.7265278531739074, -0.4476165642686733, -0.9550118638578429, -1.265153852091856, 1.1809244686629998, 2.4915180168966193, 0.3422068194396907, 1.1841105891760484, 0.26254339937813365, 0.8262970776813059, 0.021429867274649912, -0.908262096282772, 0.15807669883235348, -0.9015538093782514, 0.16853823174203114, -0.1717941100800644, 1.501850283101123, -0.14679793442937045, 1.3596637352222913, 1.2637496960186465, -0.17161967503249703, 0.5631206857187682, 0.2976554243785375, -0.03521923773857101, -1.0240788507253238, -1.1027786052721285, 0.41302747467694256, 0.8428374360198806, 1.0501268132343877, 1.7953712025917072, 0.42415321086214713, -0.8943769308016579, -1.1318912740624136, 1.0511200166180705, -1.3125909840599252, -0.8587561080646726, -0.6280912114487541], "biases": [-0.490684394583628, -0.2928418265639302, 1.518790145902255, -2.2436568926356624, 1.5644472551300284, -0.0011664433077127057, 0.707661401851955, -1.427991085705311, -1.9216408768829827, -0.8360730590039155, 1.8300570112544003, -1.5792817691528553, 1.593217721971205]}