{"generation": 400, "inputs": ["y", "yvel", "xpipe", "ypipe"], "outputs": ["jump"], "layers": [4, 4, 4, 4, 1], "activation": "sigmoid", "ticks": 3662950, "weights": [-0.34107550528751923, 0.30855567574240117, 2.3862598018508017, 0.29399921463804035, -0.67411124741465, -0.07302930324725339, 0.8407958608637119, 0.5590829834484469, -1.106571317861341, -0.03793609875370411, 0.8376745845110737, 0.368751210920557, 0.6218058526366019, -0.1356020975498457, -0.6965461898098215, 0.7319137871331033, -0.561579186887069, -1.0185775527619048, -1.2831916176504166, 1.136196292549805, 2.5054251477576406, 0.3373454141782672, 1.2317422577784511, 0.32410030675265195, 0.8262970776813059, 0.006661383114194903, -0.9043680591570662, 0.21406667499658427, -0.8725401073437326, 0.20358057040829086, -0.16038902228563226, 1.5186056233145964, -0.15555204724867844, 1.3579105864638346, 1.2886475548380776, -0.21976601254122774, 0.6046196128960547, 0.20135183433553105, -0.011022347376753908, -1.0046700576242933, -1.0898652756235236, 0.38832206348966003, 0.8482372218180507, 1.0501268132343877, 1.8178485692174877, 0.3682226122260905, -0.9082133968751454, -1.1220950410458093, 1.0704075086581435, -1.2317672563748607, -0.9755469547714175, -0.6280912114487541], "biases": [-0.45223987980535446, -0.22207620537838035, 1.455475485850456, -2.244193670606354, 1.5013130984949032, -0.06221845691567623, 0.5715778218121785, -1.4350469552910856, -1.9810684055163166, -0.8397375934043545, 1.8336452155757512, -1.5335445774717524, 1.671103700993316]}