{"generation": 476, "inputs": ["y", "yvel", "xpipe", "ypipe"], "outputs": ["jump"], "layers": [4, 4, 4, 4, 1], "activation": "sigmoid", "ticks": 4403437, "weights": [-0.6207236615105187, 0.23526720359100717, 2.290140501112688, 0.26807039756409395, -0.67411124741465, -0.005827810120624742, 0.7929538252788725, 0.5126187300222157, -1.1321667712069425, -0.007661368865117802, 0.8413384823344227, 0.3564062561685488, 0.4267816468997462, -0.14430487285293317, -0.7667572468165778, 0.8033222748655435, -0.4476165642686733, -0.9550118638578429, -1.289448454627383, 1.1684166062036576, 2.5163987452405485, 0.2763076030377953, 1.214162018764392, 0.28875441574525745, 0.8178664438493329, 0.0015603341250523053, -0.908262096282772, 0.1317814559707863, -0.873718798541774, 0.19835778077824825, -0.1717941100800644, 1.498568122850119, -0.13782707857491014, 1.4052270955034933, 1.2688742594890063, -0.1585405960674518, 0.607475943396633, 0.2751973394713392, -0.1259525633105205, -1.0292745611490048, -1.173851553656225, 0.42284449699456245, 0.835040970869811, 1.0501268132343877, 1.840094864217359, 0.38974462251534436, -0.9339510021944132, -1.115414512271224, 1.0511200166180705, -1.3125909840599252, -0.8646944894124146, -0.6164091119116314], "biases": [-0.4140159975219126, -0.3120371918965715, 1.4902742443190922, -2.264314313034001, 1.6136552578333656, 0.10130286103266316, 0.6145178255325356, -1.3458719920402302, -1.9382187576638394, -0.9161493503375548, 1.723114054163942, -1.6802945866993555, 1.6365744498372372]}