{"generation": 45, "inputs": ["y", "yvel", "xpipe", "ypipe"], "outputs": ["jump"], "layers": [4, 4, 4, 4, 1], "activation": "sigmoid", "ticks": 403717, "weights": [-0.313095386198732, 0.5047532984037667, 2.082825111486756, 0.4962945410812198, -0.6104042113517083, 0.010066634785723158, 0.9061784338973081, 0.6151026876617154, -1.0385641528476315, -0.15475654083731438, 0.5918779563561081, 0.18540500473842977, 0.8111233101993646, -0.04586900361775968, -0.5400753190657376, 0.6484636069333484, -0.6024202397783472, -0.8655541195340974, -1.3234997642476487, 0.9003651032415952, 2.3999814706167526, 0.2935954067373189, 1.0633739950948085, 0.4984210192874653, 0.8220239346822746, 0.12070605351873073, -0.6451339644004799, -0.11019741524918449, -0.9255267785264317, 0.13645415318348836, -0.12706627156495642, 1.5121698992484895, -0.2801116005216464, 1.2270201497798054, 1.0990416939368801, -0.13802995947111943, 0.6589675454549481, 0.1919109476522016, -0.1324823088371643, -1.0335970709650755, -1.0030152379710173, 0.7126530424814588, 0.6894261770251737, 1.1403930259919546, 1.6928492020144983, 0.4231117713941804, -0.7774617396001084, -1.070662361185965, 1.1227995459639795, -1.0863057809751295, -1.0041715379686014, -0.4657520160327268], "biases": [-0.2855352516331875, 0.12749746807278217, 1.2056038793996697, -2.0663381109742573, 1.4757452942780698, -0.10200662618707802, 0.352108266170049, -0.7341982512599685, -2.2392538418330306, -0.844117095918421, 1.560626764317589, -1.396683944491469, 1.506409007567852]}