{"generation": 579, "inputs": ["y", "yvel", "xpipe", "ypipe"], "outputs": ["jump"], "layers": [4, 4, 4, 4, 1], "activation": "sigmoid", "ticks": 5663495, "weights": [-0.8046663322476165, 0.20452868031623186, 2.3137955194026962, 0.3455867580300743, -0.6694513890508005, -0.05822894698255392, 0.8999006127985039, 0.43168796483566657, -1.073880073424328, -0.007661368865117802, 0.8337512764189738, 0.41204417227809825, 0.07193914120454205, -0.13756544537432305, -0.6993980095423327, 0.7785302980885471, -0.32596541633766457, -0.9870697016655159, -1.43008466932312, 1.2872549592510534, 2.648713678919533, 0.2970095414272819, 1.2382087928908463, 0.16814943740484747, 0.9576400232711706, 0.01266462869899506, -0.9026404239954742, 0.07841107024634628, -0.9018767912933295, 0.10260156636842675, -0.07665428605223867, 1.3434032145714347, -0.07244788647250608, 1.4308379563125058, 1.2129443058693663, -0.29220069585064384, 0.5367080900719557, 0.36720779919516777, -0.04557636707270072, -1.1395193358383842, -1.2307907436926058, 0.29886145866968605, 0.9011088398339772, 1.0702447843520577, 1.8871722671195572, 0.41209149255014293, -0.8432965629526064, -1.1824434174702434, 1.0444231594971785, -1.291669785862539, -0.8563746893944959, -0.6697531402590811], "biases": [-0.316997854625631, -0.3295343298337324, 1.4872864662165632, -2.360145016869595, 1.5899972073253819, 0.21761641674691945, 0.7299242257538794, -1.1824988752324066, -2.029544422745333, -0.6096566046700869, 1.556934818765309, -1.7208430097445797, 1.6821204425803487]}