{"generation": 566, "inputs": ["y", "yvel", "xpipe", "ypipe"], "outputs": ["jump"], "layers": [4, 4, 4, 4, 1], "activation": "sigmoid", "ticks": 5489390, "weights": [-0.8046663322476165, 0.20452868031623186, 2.3137955194026962, 0.3129899991918483, -0.6237797546307348, 0.003699204655662005, 0.9193248476528622, 0.4413496502266341, -1.0970201874516912, -0.007661368865117802, 0.8337512764189738, 0.39587232577863096, 0.1458281044675343, -0.13756544537432305, -0.6993980095423327, 0.7785302980885471, -0.36534829887632425, -0.9870697016655159, -1.4076338318581274, 1.263165098953056, 2.638652743302263, 0.2911235396666127, 1.2638674905940908, 0.16814943740484747, 0.9223828504891429, 0.01266462869899506, -0.9026404239954742, 0.0943237282627393, -0.9043599228765712, 0.10377650691570742, -0.14715812110020046, 1.3434032145714347, -0.05231522414347553, 1.4308379563125058, 1.2262895581025386, -0.29220069585064384, 0.5817682029684534, 0.3735468023691816, -0.04557636707270072, -1.0634842215016393, -1.2307907436926058, 0.29886145866968605, 0.9011088398339772, 1.056141941744427, 1.8871722671195572, 0.462478335934693, -0.8432965629526064, -1.1824434174702434, 1.0444231594971785, -1.3359154853415016, -0.8563746893944959, -0.6697531402590811], "biases": [-0.326626085844487, -0.3295343298337324, 1.5742328603167244, -2.3372110461906375, 1.560730915279975, 0.32172639126175145, 0.716154922751215, -1.1994760931757058, -2.021367531715632, -0.6531623371336768, 1.4749301687458711, -1.7372831188410482, 1.674178261649599]}