{"generation": 520, "inputs": ["y", "yvel", "xpipe", "ypipe"], "outputs": ["jump"], "layers": [4, 4, 4, 4, 1], "activation": "sigmoid", "ticks": 4900563, "weights": [-0.7192909260152404, 0.20304906663406688, 2.2761142553602376, 0.2853414083092841, -0.6115945227361439, 0.0007084871849485494, 0.8578821047116224, 0.5126187300222157, -1.216485033809262, -0.007661368865117802, 0.8427706820162628, 0.397091438957008, 0.2620346495550803, -0.13756544537432305, -0.7143782508954603, 0.734100028421805, -0.43420960216119825, -0.9552189482034065, -1.3493923496119975, 1.2256409063975673, 2.5596620011134705, 0.24595751260259197, 1.193528376674235, 0.25561909428117935, 0.8710490162380674, -0.043471355038397226, -0.9026404239954742, 0.06594501385976874, -0.9043599228765712, 0.1725254976960043, -0.17638404700965427, 1.4520052726798531, -0.10774703091701626, 1.3795362440430874, 1.2810177560469809, -0.19338879838382406, 0.6395481483768404, 0.3703305085177909, -0.1259525633105205, -1.013738922440623, -1.2113568927192029, 0.3657614199626951, 0.8716249406790822, 1.0501268132343877, 1.8950720585170675, 0.4363577559491681, -0.9391343233513959, -1.1824434174702434, 1.0932063205800928, -1.2827481662505436, -0.9102482206520799, -0.6442651065597083], "biases": [-0.24095801924680255, -0.3117801691780035, 1.5534512533018634, -2.215664059498563, 1.6069520535499464, 0.1805026907523184, 0.7113508257024606, -1.2137238794222722, -2.003469361050678, -0.6996051626843236, 1.6000611296564595, -1.6657443823252773, 1.645408611440728]}