{"generation": 529, "inputs": ["y", "yvel", "xpipe", "ypipe"], "outputs": ["jump"], "layers": [4, 4, 4, 4, 1], "activation": "sigmoid", "ticks": 5018040, "weights": [-0.7192909260152404, 0.20304906663406688, 2.2761142553602376, 0.2853414083092841, -0.6354120930689021, 0.0007084871849485494, 0.8368813482464057, 0.5126187300222157, -1.179626384339435, -0.007661368865117802, 0.8427706820162628, 0.4393259993796209, 0.2346497897959722, -0.13756544537432305, -0.7143782508954603, 0.734100028421805, -0.41268378515522486, -0.9552189482034065, -1.3493923496119975, 1.2331247600215218, 2.5596620011134705, 0.27882576739923665, 1.193528376674235, 0.22215225900121627, 0.8710490162380674, -0.043471355038397226, -0.9026404239954742, 0.0943237282627393, -0.9043599228765712, 0.15463561161169767, -0.15118602912865056, 1.4520052726798531, -0.10774703091701626, 1.3795362440430874, 1.2604330685910572, -0.26970839713668476, 0.6395481483768404, 0.3969284690740349, -0.10680118466780288, -1.033236589883507, -1.2113568927192029, 0.3657614199626951, 0.9011088398339772, 1.0501268132343877, 1.8874780696020037, 0.4363577559491681, -0.9034280985185541, -1.1824434174702434, 1.0932063205800928, -1.3264301281886164, -0.879242979814723, -0.6442651065597083], "biases": [-0.1820446630630163, -0.38462023393734135, 1.534552507680496, -2.294265011221794, 1.5721415794491953, 0.2063513638048973, 0.6897633941649428, -1.2056153395138176, -1.9838994185937606, -0.6996051626843236, 1.5305575719401476, -1.6891275322807315, 1.6280849431073428]}