{"generation": 559, "inputs": ["y", "yvel", "xpipe", "ypipe"], "outputs": ["jump"], "layers": [4, 4, 4, 4, 1], "activation": "sigmoid", "ticks": 5401909, "weights": [-0.7638599576951486, 0.20304906663406688, 2.3137955194026962, 0.3129899991918483, -0.6237797546307348, 0.0007084871849485494, 0.9193248476528622, 0.4413496502266341, -1.134082582896994, -0.007661368865117802, 0.8337512764189738, 0.39587232577863096, 0.1458281044675343, -0.13756544537432305, -0.7143782508954603, 0.7785302980885471, -0.36534829887632425, -0.9870697016655159, -1.3675371894887134, 1.263165098953056, 2.5936988000096997, 0.2911235396666127, 1.2638674905940908, 0.16814943740484747, 0.9223828504891429, 0.01266462869899506, -0.9026404239954742, 0.0943237282627393, -0.9043599228765712, 0.08982028279753744, -0.1706061333211961, 1.3434032145714347, -0.09958613703188972, 1.381416947157318, 1.250129646435422, -0.26970839713668476, 0.5817682029684534, 0.3735468023691816, -0.04557636707270072, -1.0554210920113467, -1.2307907436926058, 0.29886145866968605, 0.9011088398339772, 1.0841343130915566, 1.8871722671195572, 0.462478335934693, -0.8538251715364434, -1.1824434174702434, 1.0932063205800928, -1.3264301281886164, -0.8563746893944959, -0.6697531402590811], "biases": [-0.26902961586225166, -0.34069500288902144, 1.5742328603167244, -2.302862047236483, 1.539384358775321, 0.32172639126175145, 0.6755207084342426, -1.182546375007771, -1.9815726644997342, -0.7008667470571597, 1.5195071050801259, -1.7077033654857996, 1.665193886733818]}