{"generation": 589, "inputs": ["y", "yvel", "xpipe", "ypipe"], "outputs": ["jump"], "layers": [4, 4, 4, 4, 1], "activation": "sigmoid", "ticks": 5796820, "weights": [-0.8046663322476165, 0.20452868031623186, 2.3441396609639313, 0.3455867580300743, -0.6234620084855943, -0.05822894698255392, 0.9403412258938415, 0.43168796483566657, -0.9455443780342506, -0.007661368865117802, 0.8733869286611163, 0.443881269392234, 0.054107709376897434, -0.13756544537432305, -0.7203061008185019, 0.7285549417857109, -0.32596541633766457, -0.963820762213748, -1.43008466932312, 1.2872549592510534, 2.610684693481256, 0.3252934171926624, 1.2382087928908463, 0.16814943740484747, 0.9576400232711706, 0.01266462869899506, -0.9026404239954742, 0.07841107024634628, -0.8984839674272719, 0.10260156636842675, -0.07665428605223867, 1.3434032145714347, -0.11179502821454185, 1.453713379968663, 1.2129443058693663, -0.29220069585064384, 0.5132204906420648, 0.40430476166992246, -0.04557636707270072, -1.1257222452431637, -1.2666754083619323, 0.29886145866968605, 0.9011088398339772, 1.0599273046335846, 1.8871722671195572, 0.41209149255014293, -0.877581825029294, -1.1824434174702434, 1.0444231594971785, -1.291669785862539, -0.8563746893944959, -0.697257237225335], "biases": [-0.316997854625631, -0.3603030500911392, 1.4650422813833393, -2.405448257825721, 1.540748498132042, 0.29833712720530015, 0.6849137839187139, -1.2361677789290264, -2.029544422745333, -0.5693076320403527, 1.5718829021699847, -1.6772104845327307, 1.6821204425803487]}