{"generation": 583, "inputs": ["y", "yvel", "xpipe", "ypipe"], "outputs": ["jump"], "layers": [4, 4, 4, 4, 1], "activation": "sigmoid", "ticks": 5714807, "weights": [-0.8046663322476165, 0.20452868031623186, 2.3509600056833384, 0.3455867580300743, -0.6234620084855943, -0.05822894698255392, 0.9403412258938415, 0.43168796483566657, -1.073880073424328, -0.007661368865117802, 0.8733869286611163, 0.41204417227809825, 0.07193914120454205, -0.13756544537432305, -0.6993980095423327, 0.7285549417857109, -0.32596541633766457, -0.963820762213748, -1.43008466932312, 1.2872549592510534, 2.648713678919533, 0.3252934171926624, 1.2382087928908463, 0.16814943740484747, 0.9576400232711706, 0.01266462869899506, -0.9026404239954742, 0.07841107024634628, -0.9018767912933295, 0.10260156636842675, -0.07665428605223867, 1.3434032145714347, -0.07244788647250608, 1.4308379563125058, 1.2129443058693663, -0.29220069585064384, 0.5367080900719557, 0.40430476166992246, -0.04557636707270072, -1.1713286165961467, -1.2464507738382369, 0.29886145866968605, 0.9011088398339772, 1.0702447843520577, 1.8871722671195572, 0.41209149255014293, -0.8494991092561937, -1.1824434174702434, 1.0444231594971785, -1.291669785862539, -0.8563746893944959, -0.6697531402590811], "biases": [-0.316997854625631, -0.3295343298337324, 1.5145789723999874, -2.360145016869595, 1.5784006245813704, 0.29833712720530015, 0.6896368247648723, -1.2361677789290264, -2.029544422745333, -0.6023959982214445, 1.5622882685440882, -1.7208430097445797, 1.6821204425803487]}