{"generation": 534, "inputs": ["y", "yvel", "xpipe", "ypipe"], "outputs": ["jump"], "layers": [4, 4, 4, 4, 1], "activation": "sigmoid", "ticks": 5085198, "weights": [-0.7192909260152404, 0.20304906663406688, 2.2761142553602376, 0.2853414083092841, -0.6354120930689021, 0.0007084871849485494, 0.8534904981984945, 0.5126187300222157, -1.179626384339435, -0.007661368865117802, 0.8274242704575739, 0.4393259993796209, 0.20627967768443595, -0.13756544537432305, -0.7143782508954603, 0.734100028421805, -0.41268378515522486, -0.9552189482034065, -1.3493923496119975, 1.263165098953056, 2.568593800049094, 0.27074227754095453, 1.2312308504754093, 0.22215225900121627, 0.8475254445420296, -0.043471355038397226, -0.9026404239954742, 0.0943237282627393, -0.9043599228765712, 0.10973518441610175, -0.15118602912865056, 1.4520052726798531, -0.10774703091701626, 1.3795481076562377, 1.250129646435422, -0.26970839713668476, 0.6271124356112109, 0.3969284690740349, -0.10680118466780288, -1.033236589883507, -1.2113568927192029, 0.3662226792058333, 0.9011088398339772, 1.0501268132343877, 1.8874780696020037, 0.4363577559491681, -0.8916216551314156, -1.1824434174702434, 1.0932063205800928, -1.3264301281886164, -0.879242979814723, -0.6442651065597083], "biases": [-0.1820446630630163, -0.37846934157700457, 1.534552507680496, -2.250479295362457, 1.5783466331059672, 0.2063513638048973, 0.7312336321522604, -1.2163912215872505, -1.9751582648315908, -0.6996051626843236, 1.527969478848697, -1.711881596074959, 1.6280849431073428]}