{"generation": 538, "inputs": ["y", "yvel", "xpipe", "ypipe"], "outputs": ["jump"], "layers": [4, 4, 4, 4, 1], "activation": "sigmoid", "ticks": 5137704, "weights": [-0.7192909260152404, 0.20304906663406688, 2.3005554526355776, 0.2853414083092841, -0.6354120930689021, 0.0007084871849485494, 0.8534904981984945, 0.462820397017348, -1.179626384339435, -0.007661368865117802, 0.8274242704575739, 0.39587232577863096, 0.1630375744878078, -0.13756544537432305, -0.7143782508954603, 0.7785302980885471, -0.41268378515522486, -0.9552189482034065, -1.3493923496119975, 1.263165098953056, 2.568593800049094, 0.27074227754095453, 1.232036105694142, 0.22215225900121627, 0.8727199457447532, -0.043471355038397226, -0.9026404239954742, 0.0943237282627393, -0.9043599228765712, 0.10973518441610175, -0.15118602912865056, 1.4157177221348176, -0.10774703091701626, 1.3795481076562377, 1.250129646435422, -0.26970839713668476, 0.6271124356112109, 0.3969284690740349, -0.10680118466780288, -1.0412423502762753, -1.2113568927192029, 0.3662226792058333, 0.9011088398339772, 1.0501268132343877, 1.8874780696020037, 0.4363577559491681, -0.8916216551314156, -1.1824434174702434, 1.0932063205800928, -1.3264301281886164, -0.879242979814723, -0.6770446861581844], "biases": [-0.16572756863265703, -0.37742937231915796, 1.534552507680496, -2.250479295362457, 1.541012131131395, 0.24734181985922216, 0.7111068662221217, -1.2163912215872505, -1.9751582648315908, -0.7489154931001001, 1.527969478848697, -1.6950620219648787, 1.6582991212585187]}