{"generation": 513, "inputs": ["y", "yvel", "xpipe", "ypipe"], "outputs": ["jump"], "layers": [4, 4, 4, 4, 1], "activation": "sigmoid", "ticks": 4814678, "weights": [-0.7192909260152404, 0.23526720359100717, 2.2761142553602376, 0.290032684651616, -0.6115945227361439, 0.0007084871849485494, 0.8271798830923422, 0.5126187300222157, -1.1833379287472927, -0.007661368865117802, 0.8427706820162628, 0.397091438957008, 0.2620346495550803, -0.13756544537432305, -0.7143782508954603, 0.7681286071097772, -0.4119325982372169, -0.9550118638578429, -1.3342920938721106, 1.2256409063975673, 2.5279254071160966, 0.24595751260259197, 1.1700297690641395, 0.25561909428117935, 0.8496387674111396, 0.02546020340331203, -0.8546670588438136, 0.06594501385976874, -0.9043599228765712, 0.19835778077824825, -0.17638404700965427, 1.4520052726798531, -0.10774703091701626, 1.3795362440430874, 1.2810177560469809, -0.19338879838382406, 0.6281583858167222, 0.30698275333821334, -0.1259525633105205, -1.013738922440623, -1.2113568927192029, 0.3657614199626951, 0.8716249406790822, 1.0501268132343877, 1.8950720585170675, 0.4363577559491681, -0.9391343233513959, -1.1824434174702434, 1.0932063205800928, -1.2827481662505436, -0.9102482206520799, -0.6442651065597083], "biases": [-0.23393833874394887, -0.2855584699771476, 1.5534512533018634, -2.2189884502115174, 1.6069520535499464, 0.1508904864610734, 0.7695303361870567, -1.2456552590540928, -2.0346519087871378, -0.7073667993938969, 1.575393998601132, -1.6452766395286753, 1.705241142074716]}