{"generation": 52, "inputs": ["y", "yvel", "xpipe", "ypipe"], "outputs": ["jump"], "layers": [4, 4, 4, 4, 1], "activation": "sigmoid", "ticks": 466647, "weights": [-0.25996243540031916, 0.5047532984037667, 2.135428894095987, 0.4962945410812198, -0.6104042113517083, 0.010066634785723158, 0.9061784338973081, 0.6151026876617154, -1.0385641528476315, -0.15475654083731438, 0.6194818595150263, 0.18540500473842977, 0.7863485894687312, -0.04586900361775968, -0.5400753190657376, 0.6484636069333484, -0.5684189768884856, -0.8655541195340974, -1.3234997642476487, 0.9077742245830138, 2.3625440946583516, 0.2935954067373189, 1.0633739950948085, 0.4984210192874653, 0.8434970899767045, 0.12070605351873073, -0.6451339644004799, -0.06261980589850046, -0.915912750262888, 0.13645415318348836, -0.12706627156495642, 1.5121698992484895, -0.2801116005216464, 1.2270201497798054, 1.0990416939368801, -0.13802995947111943, 0.6589675454549481, 0.1919109476522016, -0.1324823088371643, -1.0763145985820268, -1.0030152379710173, 0.7126530424814588, 0.6894261770251737, 1.1403930259919546, 1.6865585824468832, 0.4231117713941804, -0.7774617396001084, -1.0888381290365117, 1.0733021139571417, -1.0863057809751295, -1.0041715379686014, -0.4880758810826231], "biases": [-0.2880195760090569, 0.09186093541919146, 1.2496260839178883, -2.0945672593913893, 1.4802027346220965, -0.10200662618707802, 0.352108266170049, -0.8126630814125516, -2.241252125012907, -0.9386710019348642, 1.5363473955016091, -1.396683944491469, 1.4692068098864708]}