{"generation": 542, "inputs": ["y", "yvel", "xpipe", "ypipe"], "outputs": ["jump"], "layers": [4, 4, 4, 4, 1], "activation": "sigmoid", "ticks": 5190004, "weights": [-0.7192909260152404, 0.20304906663406688, 2.3005554526355776, 0.3129899991918483, -0.6354120930689021, 0.0007084871849485494, 0.8534904981984945, 0.462820397017348, -1.179626384339435, -0.007661368865117802, 0.8274242704575739, 0.39587232577863096, 0.1458281044675343, -0.13756544537432305, -0.7143782508954603, 0.7785302980885471, -0.36534829887632425, -0.9552189482034065, -1.3493923496119975, 1.263165098953056, 2.568593800049094, 0.27074227754095453, 1.232036105694142, 0.22215225900121627, 0.9158842026587228, -0.03403757532265696, -0.9026404239954742, 0.0943237282627393, -0.9043599228765712, 0.10973518441610175, -0.15118602912865056, 1.4157177221348176, -0.09391130342718798, 1.3795481076562377, 1.250129646435422, -0.26970839713668476, 0.6271124356112109, 0.3735468023691816, -0.10680118466780288, -1.0664248800065994, -1.222896700399197, 0.3662226792058333, 0.9011088398339772, 1.0501268132343877, 1.8874780696020037, 0.4363577559491681, -0.8916216551314156, -1.1824434174702434, 1.0932063205800928, -1.3264301281886164, -0.879242979814723, -0.6599640323552027], "biases": [-0.1725526732154938, -0.37742937231915796, 1.549798720159281, -2.2156402602508956, 1.5696604494695, 0.3158327509943481, 0.706423264498536, -1.2163912215872505, -1.9751582648315908, -0.757818076864789, 1.5681181374046933, -1.6950620219648787, 1.6241215104809519]}