{"generation": 523, "inputs": ["y", "yvel", "xpipe", "ypipe"], "outputs": ["jump"], "layers": [4, 4, 4, 4, 1], "activation": "sigmoid", "ticks": 4939456, "weights": [-0.7192909260152404, 0.20304906663406688, 2.2761142553602376, 0.2853414083092841, -0.6115945227361439, 0.0007084871849485494, 0.8411159215654103, 0.5126187300222157, -1.216485033809262, -0.007661368865117802, 0.8427706820162628, 0.397091438957008, 0.2346497897959722, -0.13756544537432305, -0.7143782508954603, 0.734100028421805, -0.43817854962679603, -0.9552189482034065, -1.3493923496119975, 1.2331247600215218, 2.5596620011134705, 0.24595751260259197, 1.193528376674235, 0.25561909428117935, 0.8710490162380674, -0.043471355038397226, -0.9026404239954742, 0.0943237282627393, -0.9043599228765712, 0.15463561161169767, -0.17638404700965427, 1.4520052726798531, -0.10774703091701626, 1.3795362440430874, 1.2810177560469809, -0.19338879838382406, 0.6395481483768404, 0.3969284690740349, -0.1259525633105205, -0.9986642182316058, -1.2113568927192029, 0.3657614199626951, 0.8716249406790822, 1.0501268132343877, 1.8950720585170675, 0.4363577559491681, -0.9391343233513959, -1.1824434174702434, 1.0932063205800928, -1.2827481662505436, -0.879242979814723, -0.6442651065597083], "biases": [-0.20938159976588663, -0.3437346218449847, 1.6000684211715033, -2.2476225321008765, 1.6069520535499464, 0.20321252654350758, 0.7113508257024606, -1.2137238794222722, -2.003469361050678, -0.6996051626843236, 1.562577157047053, -1.6657443823252773, 1.6280849431073428]}