{"generation": 595, "inputs": ["y", "yvel", "xpipe", "ypipe"], "outputs": ["jump"], "layers": [4, 4, 4, 4, 1], "activation": "sigmoid", "ticks": 5881208, "weights": [-0.8411558005050755, 0.20452868031623186, 2.3441396609639313, 0.31337811674880245, -0.5745568740150588, -0.08280940227015672, 0.92964608812917, 0.43168796483566657, -0.9455443780342506, -0.007661368865117802, 0.8733869286611163, 0.443881269392234, 0.01884799282276576, -0.1417061836579155, -0.7203061008185019, 0.7285549417857109, -0.32596541633766457, -1.011536723898546, -1.43008466932312, 1.2872549592510534, 2.610684693481256, 0.3252934171926624, 1.2621778383126097, 0.16814943740484747, 0.9517157158554777, -0.020870952269308823, -0.9026404239954742, 0.07841107024634628, -0.8984839674272719, 0.10260156636842675, -0.0486205039212636, 1.3434032145714347, -0.11179502821454185, 1.453713379968663, 1.2129443058693663, -0.29220069585064384, 0.5227881250129893, 0.4395167733336618, -0.04557636707270072, -1.1257222452431637, -1.2666754083619323, 0.3209192511473896, 0.9030226181730995, 1.0599273046335846, 1.8852863363532084, 0.41209149255014293, -0.8429505380883631, -1.1824434174702434, 1.0444231594971785, -1.291669785862539, -0.8563746893944959, -0.697257237225335], "biases": [-0.38141859077943546, -0.3827256051517302, 1.4724702622873709, -2.4502393379244873, 1.567146459266754, 0.29833712720530015, 0.7347161361969187, -1.2708155610924716, -1.9904979054264913, -0.5643281733378455, 1.5449096205776327, -1.6772104845327307, 1.6901842768835578]}