{"generation": 547, "inputs": ["y", "yvel", "xpipe", "ypipe"], "outputs": ["jump"], "layers": [4, 4, 4, 4, 1], "activation": "sigmoid", "ticks": 5254506, "weights": [-0.7516860917548724, 0.20304906663406688, 2.3137955194026962, 0.3129899991918483, -0.6354120930689021, 0.0007084871849485494, 0.8534904981984945, 0.462820397017348, -1.179626384339435, -0.007661368865117802, 0.8274242704575739, 0.39587232577863096, 0.1458281044675343, -0.13756544537432305, -0.7143782508954603, 0.7785302980885471, -0.36534829887632425, -0.985349666126026, -1.3675371894887134, 1.263165098953056, 2.568593800049094, 0.27074227754095453, 1.232036105694142, 0.196473144781455, 0.8826313984125843, -0.03403757532265696, -0.9026404239954742, 0.0943237282627393, -0.9043599228765712, 0.08982028279753744, -0.15118602912865056, 1.4157177221348176, -0.09391130342718798, 1.3795481076562377, 1.250129646435422, -0.26970839713668476, 0.6271124356112109, 0.3735468023691816, -0.08958786515605036, -1.030908089498902, -1.222896700399197, 0.3602536274854824, 0.9011088398339772, 1.0501268132343877, 1.8404387378560452, 0.4363577559491681, -0.8538251715364434, -1.1824434174702434, 1.0932063205800928, -1.3264301281886164, -0.8563746893944959, -0.6697531402590811], "biases": [-0.1725526732154938, -0.37742937231915796, 1.5444144643162805, -2.272997470784416, 1.5637806871755002, 0.3450632045651562, 0.6755207084342426, -1.1777481681881512, -1.9751582648315908, -0.7294207207570446, 1.5195071050801259, -1.6950620219648787, 1.6276691370876981]}