{"generation": 612, "inputs": ["y", "yvel", "xpipe", "ypipe"], "outputs": ["jump"], "layers": [4, 4, 4, 4, 1], "activation": "sigmoid", "ticks": 6150541, "weights": [-0.9186230323326837, 0.19718778556405472, 2.3580409816969494, 0.3333410103762958, -0.5745568740150588, -0.15219032888980671, 0.8981015236687975, 0.47947927259852907, -1.0313778063762546, -0.007661368865117802, 0.8733869286611163, 0.46437715274459623, -0.010007498851037477, -0.1417061836579155, -0.7203061008185019, 0.7480522010246478, -0.32596541633766457, -1.011536723898546, -1.43008466932312, 1.2872549592510534, 2.610684693481256, 0.33194706741067753, 1.2502126738095707, 0.10896960588692492, 0.9363437835769624, -0.020870952269308823, -0.8658522867155355, 0.059144241672760056, -0.9560453645559418, 0.10260156636842675, -0.0486205039212636, 1.3434032145714347, -0.1609255321522747, 1.4734484647380626, 1.2408228265921775, -0.29220069585064384, 0.49289788255959033, 0.4167647763443774, -0.04557636707270072, -1.133275810572543, -1.2666754083619323, 0.3620301373325846, 0.8947646000580584, 1.046882423505165, 1.9126767668078748, 0.3822604757039978, -0.8429505380883631, -1.1581045610072527, 1.0261188898214686, -1.2773959291125143, -0.8563746893944959, -0.6750874800234753], "biases": [-0.35246755435566013, -0.39896762447870454, 1.5010766039105496, -2.4532838495508655, 1.6120152464205713, 0.32672937462055057, 0.7100088724380429, -1.1290613176654043, -2.082680953499449, -0.6361028665276952, 1.6097681842596332, -1.661430679308818, 1.6614383344120864]}