{"generation": 669, "inputs": ["y", "yvel", "xpipe", "ypipe"], "outputs": ["jump"], "layers": [4, 4, 4, 4, 1], "activation": "sigmoid", "ticks": 7459170, "weights": [-1.045494851060461, 0.17617614142047672, 2.269669797442886, 0.34502355789228945, -0.5221189263213314, -0.11633446904856426, 0.9033540527139668, 0.459417634655847, -1.084723408266444, -0.007661368865117802, 0.8130418182206293, 0.45906983251727623, -0.013851827364161063, -0.1297458407814159, -0.7913607937423092, 0.7142307950520703, -0.32444752965545454, -1.02324111940231, -1.4410029793355061, 1.2855832684103272, 2.580623061022037, 0.3770304246249845, 1.261410799379248, 0.14871124201267572, 0.9581407927901255, -0.05173619030312204, -0.8367523605618494, 0.09492487955031265, -0.9376296286383073, 0.09680131028231079, -0.1097437016644937, 1.3497428251506984, -0.2363643054336309, 1.5366103349434146, 1.2408228265921775, -0.3475978685868246, 0.49289788255959033, 0.5006587706362912, -0.04873360398619727, -1.1518522713198927, -1.3687809750557172, 0.3342102160205248, 0.8430287114414411, 0.9954446161250854, 2.036315939418107, 0.3827178832350078, -0.8823590739745095, -1.1081917469966105, 1.0761905108852718, -1.2773959291125143, -0.8828052560957371, -0.6609186720967267], "biases": [-0.4549863068272744, -0.3487012215176421, 1.4458486783680629, -2.4728521593710884, 1.7840106720744546, 0.20257637545330215, 0.7228172262811143, -1.0829780237645088, -2.129019846787099, -0.7208224233751617, 1.6862864279064294, -1.6898093268164005, 1.6693386819068001]}