{"generation": 695, "inputs": ["y", "yvel", "xpipe", "ypipe"], "outputs": ["jump"], "layers": [4, 4, 4, 4, 1], "activation": "sigmoid", "ticks": 8157780, "weights": [-1.0664555450676985, 0.17617614142047672, 2.3189108826847087, 0.34502355789228945, -0.43306874781056315, -0.11633446904856426, 0.8477487642400153, 0.3701018151591806, -0.9910206076432747, -0.007661368865117802, 0.8534199028094038, 0.4857068708735369, -0.035665648523994134, -0.1297458407814159, -0.7733176118412552, 0.7285047516877121, -0.32444752965545454, -1.0483103137014667, -1.4730932798031575, 1.282425406014438, 2.572723524046368, 0.3444022470022545, 1.261410799379248, 0.22446579940503353, 0.8714818590865592, -0.09121399407066474, -0.8367523605618494, 0.04119899767955959, -0.9376296286383073, 0.14029532639507522, -0.13775230664015242, 1.3497428251506984, -0.198340770700188, 1.5366103349434146, 1.246174648554466, -0.3475978685868246, 0.44849529204101607, 0.4930050832820636, -0.05301527423652523, -1.1756121711299272, -1.3449738921977954, 0.3047279701734903, 0.8513687851594527, 1.0035648117599107, 2.030118160259234, 0.3543872147458388, -0.9211619653337368, -1.0472706493950334, 1.07971695530136, -1.2773959291125143, -0.8828052560957371, -0.6557062718897022], "biases": [-0.47823284831492563, -0.40113213247767293, 1.4068829818956858, -2.516967931654415, 1.7007107379311117, 0.17218307195897636, 0.5805618542613885, -1.1796844758288585, -2.1386212090975145, -0.6886093890100295, 1.6735588463375812, -1.5492956677299874, 1.673141283081929]}