{"generation": 691, "inputs": ["y", "yvel", "xpipe", "ypipe"], "outputs": ["jump"], "layers": [4, 4, 4, 4, 1], "activation": "sigmoid", "ticks": 8043965, "weights": [-1.0664555450676985, 0.17617614142047672, 2.3189108826847087, 0.34502355789228945, -0.4751398197477263, -0.11633446904856426, 0.8812082922314888, 0.38362756787101526, -0.9910206076432747, -0.007661368865117802, 0.8534199028094038, 0.4857068708735369, -0.035665648523994134, -0.1297458407814159, -0.7733176118412552, 0.7142307950520703, -0.32444752965545454, -1.0483103137014667, -1.4730932798031575, 1.282425406014438, 2.572723524046368, 0.3444022470022545, 1.261410799379248, 0.22446579940503353, 0.8473784412689205, -0.09121399407066474, -0.8367523605618494, 0.04119899767955959, -0.9376296286383073, 0.14029532639507522, -0.10877084438971454, 1.3497428251506984, -0.198340770700188, 1.5366103349434146, 1.246174648554466, -0.3475978685868246, 0.44849529204101607, 0.4930050832820636, -0.05301527423652523, -1.1756121711299272, -1.3449738921977954, 0.3047279701734903, 0.8513687851594527, 1.0035648117599107, 2.030118160259234, 0.3543872147458388, -0.9350996944213303, -1.063332992025543, 1.105314180020354, -1.2773959291125143, -0.8828052560957371, -0.6557062718897022], "biases": [-0.4509595129064938, -0.4259319858498904, 1.4068829818956858, -2.515999740228763, 1.6850458949002864, 0.17218307195897636, 0.6395531012915858, -1.1796844758288585, -2.1386212090975145, -0.6554173301070579, 1.6403498408146382, -1.5702005192985935, 1.673141283081929]}