{"generation": 600, "inputs": ["y", "yvel", "xpipe", "ypipe"], "outputs": ["jump"], "layers": [4, 4, 4, 4, 1], "activation": "sigmoid", "ticks": 5962363, "weights": [-0.8844107931797769, 0.20452868031623186, 2.3441396609639313, 0.33046472827756873, -0.5745568740150588, -0.10774232778114556, 0.92964608812917, 0.43168796483566657, -0.9918492530448445, -0.007661368865117802, 0.8733869286611163, 0.443881269392234, 0.01884799282276576, -0.1417061836579155, -0.7203061008185019, 0.7480522010246478, -0.32596541633766457, -1.011536723898546, -1.43008466932312, 1.2872549592510534, 2.610684693481256, 0.3252934171926624, 1.2502126738095707, 0.1718733586705006, 0.9517157158554777, -0.020870952269308823, -0.9026404239954742, 0.04727569696183, -0.8984839674272719, 0.10260156636842675, -0.0486205039212636, 1.3434032145714347, -0.1396215353552365, 1.453713379968663, 1.2408228265921775, -0.29220069585064384, 0.5227881250129893, 0.4137908035313658, -0.04557636707270072, -1.1257222452431637, -1.2666754083619323, 0.3620301373325846, 0.9030226181730995, 1.046882423505165, 1.8852863363532084, 0.3822604757039978, -0.8429505380883631, -1.1824434174702434, 1.0444231594971785, -1.291669785862539, -0.8563746893944959, -0.697257237225335], "biases": [-0.38141859077943546, -0.3827256051517302, 1.5010766039105496, -2.4791136316445033, 1.58966093469013, 0.34432495960843673, 0.7347161361969187, -1.1775420641973915, -2.022374416562571, -0.5772977780055959, 1.5501943384606915, -1.6772104845327307, 1.6901842768835578]}