{"generation": 75, "inputs": ["y", "yvel", "xpipe", "ypipe"], "outputs": ["jump"], "layers": [4, 4, 4, 4, 1], "activation": "sigmoid", "ticks": 673404, "weights": [-0.27315968268934854, 0.5047532984037667, 2.135428894095987, 0.44196016298833485, -0.5951676035830236, 0.0460482663727857, 0.861559627434992, 0.6042745846571812, -1.0568933136382412, -0.15475654083731438, 0.6555239102208329, 0.2662932778718369, 0.7076176174662316, -0.006155917401415849, -0.572178169370425, 0.6110792741587047, -0.5684189768884856, -0.8367089202931944, -1.3234997642476487, 0.9006625293824351, 2.3938325873745576, 0.21277547159056642, 1.0025688769961185, 0.4838481719225628, 0.8520117577645949, 0.13333389653744257, -0.5994690110785353, -0.06261980589850046, -0.8695080425202466, 0.13645415318348836, -0.17193093087088518, 1.4996191528020189, -0.2669166067551389, 1.272975899518445, 1.0990416939368801, -0.18142340814503252, 0.6271170996261757, 0.1919109476522016, -0.12007656202364549, -1.0763145985820268, -1.0478284390649564, 0.6263524646795229, 0.630475136209063, 1.15445708501668, 1.710992035880729, 0.4421909814053406, -0.8137049562778684, -1.1160833219463333, 1.0845686130098282, -1.064364094801005, -1.0041715379686014, -0.4587510025651354], "biases": [-0.22693098268914216, 0.08767451683824118, 1.26907613336809, -2.066724997049023, 1.4665531047010685, -0.15491548107568476, 0.3543945119751843, -0.9268822301418387, -2.117196001628814, -0.9664156170685597, 1.549265579339782, -1.5150153783385172, 1.5474567907783094]}