{"generation": 739, "inputs": ["y", "yvel", "xpipe", "ypipe"], "outputs": ["jump"], "layers": [4, 4, 4, 4, 1], "activation": "sigmoid", "ticks": 10327207, "weights": [-1.1640812993541156, 0.1635322761198771, 2.2946479267208493, 0.34671591409651126, -0.4471020462374204, -0.03491738812532119, 0.8742475911946502, 0.3701018151591806, -0.957028748319908, -0.007661368865117802, 0.8834937938041889, 0.5485293720566855, -0.036080238095050954, -0.1297458407814159, -0.8193205232859597, 0.8571605986618503, -0.3753492058783507, -1.013478402913492, -1.512277245883033, 1.3094735857793043, 2.6561027082071975, 0.3481480281540907, 1.2215191873020734, 0.17732872013094889, 0.8359343906580715, -0.12988087661757142, -0.8367523605618494, 0.07857284407287125, -0.9284869840320772, 0.2276976389114379, -0.16920103131669023, 1.354089608076299, -0.15945654939017476, 1.5121070165029784, 1.1499962742448635, -0.404154213211812, 0.34853247313043034, 0.49863968762421157, -0.021670606514206478, -1.1096136301859054, -1.3309142366917748, 0.2501386289192013, 0.830152883123218, 1.052727876020004, 2.0260045834325338, 0.35993590115029245, -0.9754287543352428, -1.0693595740441353, 1.07971695530136, -1.2773959291125143, -0.8431341476633089, -0.6934270112705179], "biases": [-0.424779965667663, -0.4840976027301718, 1.4855414343314095, -2.6106587821115887, 1.6048677300560772, 0.02056943736277938, 0.8015916084453901, -1.0393974322447936, -2.1952059927472294, -0.6524980828739083, 1.6136196371343277, -1.5710284127590362, 1.6152503975075285]}