{"generation": 71, "inputs": ["y", "yvel", "xpipe", "ypipe"], "outputs": ["jump"], "layers": [4, 4, 4, 4, 1], "activation": "sigmoid", "ticks": 636604, "weights": [-0.25996243540031916, 0.5047532984037667, 2.135428894095987, 0.44196016298833485, -0.5951676035830236, 0.0460482663727857, 0.8971915564843618, 0.6042745846571812, -1.0568933136382412, -0.15475654083731438, 0.6194818595150263, 0.2657513683500564, 0.7371728023507569, -0.006155917401415849, -0.572178169370425, 0.6110792741587047, -0.5684189768884856, -0.8301459603905936, -1.3234997642476487, 0.9006625293824351, 2.3938325873745576, 0.21277547159056642, 1.0297918452615316, 0.4838481719225628, 0.8520117577645949, 0.13333389653744257, -0.6451339644004799, -0.06261980589850046, -0.8695080425202466, 0.13645415318348836, -0.15959404234879682, 1.4996191528020189, -0.2801116005216464, 1.272975899518445, 1.0990416939368801, -0.15283925921113437, 0.6271170996261757, 0.1919109476522016, -0.12007656202364549, -1.0763145985820268, -1.0478284390649564, 0.6263524646795229, 0.630475136209063, 1.1728088584637213, 1.710992035880729, 0.4421909814053406, -0.8137049562778684, -1.1160833219463333, 1.0845686130098282, -1.064364094801005, -1.0041715379686014, -0.4587510025651354], "biases": [-0.2528399692168344, 0.10556916626230653, 1.295509118360253, -2.066724997049023, 1.4665531047010685, -0.15491548107568476, 0.3117665357503485, -0.9016497172390068, -2.117196001628814, -0.9436317167629382, 1.549265579339782, -1.5150153783385172, 1.494515400314095]}