{"generation": 79, "inputs": ["y", "yvel", "xpipe", "ypipe"], "outputs": ["jump"], "layers": [4, 4, 4, 4, 1], "activation": "sigmoid", "ticks": 710204, "weights": [-0.26426159450874, 0.5047532984037667, 2.135428894095987, 0.4179998358618917, -0.5951676035830236, 0.0460482663727857, 0.861559627434992, 0.6042745846571812, -1.0568933136382412, -0.13571056868291945, 0.6555239102208329, 0.2662932778718369, 0.7076176174662316, -0.03012758306168372, -0.572178169370425, 0.6110792741587047, -0.5684189768884856, -0.8367089202931944, -1.3234997642476487, 0.9006625293824351, 2.3938325873745576, 0.21277547159056642, 1.0025688769961185, 0.4838481719225628, 0.8520117577645949, 0.13333389653744257, -0.5994690110785353, -0.03417713991060213, -0.8695080425202466, 0.13645415318348836, -0.17193093087088518, 1.4713409933031583, -0.24086049736785436, 1.272975899518445, 1.0990416939368801, -0.18142340814503252, 0.6271170996261757, 0.1919109476522016, -0.12007656202364549, -1.0763145985820268, -1.0478284390649564, 0.6234704091236778, 0.6773163153885762, 1.15445708501668, 1.710992035880729, 0.4421909814053406, -0.8137049562778684, -1.0707137570986212, 1.0845686130098282, -1.064364094801005, -1.0041715379686014, -0.4587510025651354], "biases": [-0.27559680627268107, 0.08767451683824118, 1.3106258656072975, -2.066724997049023, 1.4665531047010685, -0.12323133187512794, 0.3372975679127882, -0.9268822301418387, -2.10396825884426, -0.9678807046558099, 1.5199876481549541, -1.5362434483186722, 1.5016694183143253]}