{"generation": 798, "inputs": ["y", "yvel", "xpipe", "ypipe"], "outputs": ["jump"], "layers": [4, 4, 4, 4, 1], "activation": "sigmoid", "ticks": 14705397, "weights": [-1.1809656908542248, 0.17045981480653166, 2.2691554152900495, 0.42399888500136446, -0.47131039524475615, -0.05600308880645323, 0.9073482546857858, 0.37538543161342053, -1.0408295309081708, -0.007661368865117802, 0.8739118084245371, 0.5485293720566855, -0.14260845886104453, -0.1297458407814159, -0.825648257780061, 0.784143690321436, -0.29758636282659967, -1.0330060021991423, -1.5268238626546182, 1.2776621328901245, 2.6727081190660487, 0.3572337302499952, 1.2134304963553875, 0.09511743726926096, 0.8344955712699911, -0.15227392841965304, -0.7933397464855304, 0.11617132790549795, -0.993560158238767, 0.1952548919442895, -0.1687596914758029, 1.3636968260115394, -0.1761300443368516, 1.523702528964893, 1.0832389623150513, -0.4130956449476514, 0.34853247313043034, 0.4836089397166487, -0.0567510124487063, -1.1009695151553462, -1.3030602986630369, 0.2748715353937924, 0.8669433902969902, 0.9702939599723747, 1.9420098371791732, 0.40781905641773775, -0.9510167389620697, -1.1024852186895795, 1.0880126727370252, -1.273150514179925, -0.8410105783224855, -0.7602978398433475], "biases": [-0.5536665229912341, -0.5376632097928992, 1.4039728508547413, -2.5743222473452194, 1.556399912544068, -0.006017630340810596, 0.8342086064390483, -0.9853432184718481, -2.165444965081092, -0.7018205383494509, 1.5208178129169094, -1.414415334332928, 1.6027531198327305]}