{"generation": 706, "inputs": ["y", "yvel", "xpipe", "ypipe"], "outputs": ["jump"], "layers": [4, 4, 4, 4, 1], "activation": "sigmoid", "ticks": 8440664, "weights": [-1.0664555450676985, 0.164358790951645, 2.3189108826847087, 0.34502355789228945, -0.43306874781056315, -0.11633446904856426, 0.8908612773987055, 0.3701018151591806, -0.9910206076432747, -0.007661368865117802, 0.8534199028094038, 0.4922317527322199, -0.035665648523994134, -0.1297458407814159, -0.7733176118412552, 0.8140284888721868, -0.3398064586116863, -1.0083566295766984, -1.4730932798031575, 1.282425406014438, 2.6297766710116948, 0.3889907098529548, 1.261410799379248, 0.24029094895670552, 0.8704366175828071, -0.09121399407066474, -0.8367523605618494, 0.048964394886406894, -0.9376296286383073, 0.18190360392525826, -0.13775230664015242, 1.3497428251506984, -0.198340770700188, 1.5366103349434146, 1.1997135430790886, -0.3475978685868246, 0.44849529204101607, 0.4985702501926302, -0.03919318770451445, -1.1756121711299272, -1.3809286088600665, 0.25601100640554664, 0.8018224497587197, 1.0035648117599107, 2.0161180715176594, 0.3543872147458388, -0.9211619653337368, -1.05521611754853, 1.07971695530136, -1.2773959291125143, -0.8828052560957371, -0.6557062718897022], "biases": [-0.456532116259302, -0.467834421690387, 1.5101829855412257, -2.5161273733702547, 1.6425712874384764, 0.10705512741249493, 0.6408888646009816, -1.1796844758288585, -2.1891026236901765, -0.7101660496368648, 1.6687194062402266, -1.5084853506783076, 1.6513487325992027]}