{"generation": 710, "inputs": ["y", "yvel", "xpipe", "ypipe"], "outputs": ["jump"], "layers": [4, 4, 4, 4, 1], "activation": "sigmoid", "ticks": 8675094, "weights": [-1.0664555450676985, 0.164358790951645, 2.3189108826847087, 0.32677843370240167, -0.43306874781056315, -0.11633446904856426, 0.8908612773987055, 0.3701018151591806, -0.957028748319908, -0.007661368865117802, 0.8534199028094038, 0.4922317527322199, -0.035665648523994134, -0.1297458407814159, -0.7733176118412552, 0.8140284888721868, -0.3398064586116863, -1.0083566295766984, -1.503103311202169, 1.282425406014438, 2.648692660112754, 0.3644084151667173, 1.261410799379248, 0.24029094895670552, 0.8704366175828071, -0.09121399407066474, -0.8367523605618494, 0.048964394886406894, -0.9284869840320772, 0.18190360392525826, -0.13910462036949128, 1.3576795977847855, -0.198340770700188, 1.5121070165029784, 1.1997135430790886, -0.3475978685868246, 0.44849529204101607, 0.4985702501926302, -0.03919318770451445, -1.1756121711299272, -1.3809286088600665, 0.25601100640554664, 0.8018224497587197, 1.0035648117599107, 2.0161180715176594, 0.3543872147458388, -0.9704839912555515, -1.0693595740441353, 1.07971695530136, -1.2773959291125143, -0.8828052560957371, -0.6557062718897022], "biases": [-0.4674081461032521, -0.46355565048405306, 1.5101829855412257, -2.5406768951985854, 1.6760994890303886, 0.10422521185511392, 0.7136834527450809, -1.1335841086973506, -2.1891026236901765, -0.7101660496368648, 1.6928195623275224, -1.4755454837230568, 1.6540394702173307]}