{"generation": 793, "inputs": ["y", "yvel", "xpipe", "ypipe"], "outputs": ["jump"], "layers": [4, 4, 4, 4, 1], "activation": "sigmoid", "ticks": 14354786, "weights": [-1.1477176108955893, 0.17045981480653166, 2.2691554152900495, 0.42399888500136446, -0.47131039524475615, -0.06502992486106032, 0.9073482546857858, 0.36355023558173316, -1.0408295309081708, -0.007661368865117802, 0.8739118084245371, 0.5485293720566855, -0.14260845886104453, -0.1297458407814159, -0.825648257780061, 0.7774243323638257, -0.29758636282659967, -1.0330060021991423, -1.5268238626546182, 1.3233318809666705, 2.6727081190660487, 0.3572337302499952, 1.2134304963553875, 0.10440760884907463, 0.8344955712699911, -0.15227392841965304, -0.7901370085475529, 0.11617132790549795, -0.993560158238767, 0.1952548919442895, -0.1276968322051133, 1.3636968260115394, -0.1761300443368516, 1.523702528964893, 1.0832389623150513, -0.3959041638586059, 0.34853247313043034, 0.4836089397166487, -0.0567510124487063, -1.0671276920240635, -1.3030602986630369, 0.2748715353937924, 0.8669433902969902, 1.0494601624214086, 1.9420098371791732, 0.3601350771801752, -0.9510167389620697, -1.1024852186895795, 1.0880126727370252, -1.273150514179925, -0.8410105783224855, -0.7602978398433475], "biases": [-0.5726016951115994, -0.5311290215378134, 1.401146998917769, -2.5421396498351494, 1.5236619341446727, -0.021042717628673345, 0.8044225942742654, -0.9853432184718481, -2.1530068101851763, -0.6702567056885991, 1.4793286974518143, -1.4525885348582663, 1.6027531198327305]}