{"generation": 848, "inputs": ["y", "yvel", "xpipe", "ypipe"], "outputs": ["jump"], "layers": [4, 4, 4, 4, 1], "activation": "sigmoid", "ticks": 21594624, "weights": [-1.1816585803931923, 0.17119878359801094, 2.2326431574313754, 0.3635929334783394, -0.43722131901974276, 0.04490303186901587, 0.8368371920699506, 0.2827899829318435, -0.9879154210919714, 0.000501871852818192, 0.8479946925459654, 0.5446809682341263, -0.22552549657176912, -0.1297458407814159, -0.8033990990352856, 0.766043113310918, -0.22002611912332426, -1.087102295231886, -1.5380442724956969, 1.2082818264580708, 2.6062004634443325, 0.37352940548068764, 1.1951244016536413, 0.0882442521922639, 0.7987219704466167, -0.16664175261698044, -0.796953562358616, 0.09951529339729907, -0.9522281833595496, 0.14886388417281482, -0.1824394729218816, 1.40090426658817, -0.17017878624970917, 1.523702528964893, 1.1256487695107418, -0.5122136966659445, 0.3595494920117173, 0.47782557164579564, 0.0955293959239606, -1.121993318106305, -1.2031557719148884, 0.3422993208556077, 0.9415672187501528, 1.0813558886699393, 1.8991969495589154, 0.3507635242114423, -0.897416976498659, -1.1024852186895795, 1.0566057786072012, -1.3124349194937903, -0.8410105783224855, -0.8295002455854026], "biases": [-0.621840355982107, -0.4011061027010103, 1.3370071854090992, -2.5812092562954776, 1.5974705722263491, 0.0006611899229791284, 0.7758166464360999, -0.9919838197702417, -2.1755103039360084, -0.8396976954281046, 1.550921138954252, -1.2660082921651896, 1.6190334580262258]}