{"generation": 853, "inputs": ["y", "yvel", "xpipe", "ypipe"], "outputs": ["jump"], "layers": [4, 4, 4, 4, 1], "activation": "sigmoid", "ticks": 21860086, "weights": [-1.147413552392718, 0.17119878359801094, 2.1911411711970565, 0.3635929334783394, -0.43722131901974276, 0.08227031545327185, 0.7948381822430843, 0.2827899829318435, -0.9872124785792521, -0.006577343221213905, 0.8479946925459654, 0.5446809682341263, -0.1786593126002772, -0.1297458407814159, -0.8033990990352856, 0.766043113310918, -0.22002611912332426, -1.0745423403131613, -1.5380442724956969, 1.1620020850277561, 2.6062004634443325, 0.37352940548068764, 1.1714178939292919, 0.0882442521922639, 0.7987219704466167, -0.16664175261698044, -0.7860433093662857, 0.09951529339729907, -0.9522281833595496, 0.14886388417281482, -0.1824394729218816, 1.4129731932081246, -0.17017878624970917, 1.523702528964893, 1.1357903458641088, -0.5191425221225452, 0.3595494920117173, 0.47782557164579564, 0.0955293959239606, -1.121993318106305, -1.2089449176824063, 0.3422993208556077, 0.9415672187501528, 1.0813558886699393, 1.8991969495589154, 0.3507635242114423, -0.897416976498659, -1.1024852186895795, 1.0566057786072012, -1.3124349194937903, -0.8410105783224855, -0.8295002455854026], "biases": [-0.6544964006667017, -0.4011061027010103, 1.4164109396280222, -2.5812092562954776, 1.5793920590087305, 0.0006611899229791284, 0.776335961172572, -0.9773445557250545, -2.135674301533322, -0.857577503730443, 1.571193195663823, -1.3010710563207533, 1.6106391833443063]}