{"generation": 842, "inputs": ["y", "yvel", "xpipe", "ypipe"], "outputs": ["jump"], "layers": [4, 4, 4, 4, 1], "activation": "sigmoid", "ticks": 21266518, "weights": [-1.1816585803931923, 0.17119878359801094, 2.2326431574313754, 0.39089749463385876, -0.455537364632113, 0.033478913810717534, 0.8368371920699506, 0.31794337136770434, -0.9879154210919714, 0.000501871852818192, 0.8801138971554889, 0.5446809682341263, -0.22552549657176912, -0.1297458407814159, -0.8033990990352856, 0.766043113310918, -0.22002611912332426, -1.0472600262271228, -1.5380442724956969, 1.2082818264580708, 2.6401495580560814, 0.4211836215823459, 1.1951244016536413, 0.0882442521922639, 0.8272742644922354, -0.16664175261698044, -0.7933397464855304, 0.09951529339729907, -0.9522281833595496, 0.1952548919442895, -0.1824394729218816, 1.4431556207732161, -0.17017878624970917, 1.523702528964893, 1.1256487695107418, -0.5122136966659445, 0.3595494920117173, 0.47782557164579564, 0.020239370716320655, -1.121993318106305, -1.2031557719148884, 0.3320028326408686, 0.9415672187501528, 1.0813558886699393, 1.8991969495589154, 0.3507635242114423, -0.8535546106052613, -1.1024852186895795, 1.0825565341514314, -1.3124349194937903, -0.8410105783224855, -0.8295002455854026], "biases": [-0.5425229729022649, -0.4011061027010103, 1.3080136503272537, -2.5812092562954776, 1.5790455241963268, 0.05321257727425222, 0.7800211107111036, -0.9484033605165367, -2.153730008610219, -0.8444584843375176, 1.4855370074821057, -1.256634806380839, 1.6042653766764832]}