{"generation": 804, "inputs": ["y", "yvel", "xpipe", "ypipe"], "outputs": ["jump"], "layers": [4, 4, 4, 4, 1], "activation": "sigmoid", "ticks": 15138534, "weights": [-1.1809656908542248, 0.17045981480653166, 2.2691554152900495, 0.42399888500136446, -0.47131039524475615, -0.05600308880645323, 0.8612068177679282, 0.37538543161342053, -1.0408295309081708, -0.007661368865117802, 0.8739118084245371, 0.5485293720566855, -0.14260845886104453, -0.1297458407814159, -0.79513387440875, 0.784143690321436, -0.2608231903225087, -1.0330060021991423, -1.5268238626546182, 1.2776621328901245, 2.648028945215585, 0.3572337302499952, 1.2134304963553875, 0.0882442521922639, 0.8344955712699911, -0.15227392841965304, -0.7933397464855304, 0.11617132790549795, -0.9906486797098488, 0.1952548919442895, -0.1687596914758029, 1.334469946546766, -0.18125486822538675, 1.523702528964893, 1.0832389623150513, -0.4130956449476514, 0.34853247313043034, 0.4870021189663584, -0.0567510124487063, -1.0816854685475172, -1.2619846707578752, 0.2748715353937924, 0.9137130740437087, 0.9702939599723747, 1.9420098371791732, 0.36749281758181457, -0.9510167389620697, -1.1024852186895795, 1.0880126727370252, -1.273150514179925, -0.8410105783224855, -0.7602978398433475], "biases": [-0.5889238380947234, -0.5141977595011306, 1.2693580654776955, -2.560515727475028, 1.556399912544068, -0.055188416494228044, 0.817084528197209, -1.057376716905241, -2.163936816546005, -0.7018205383494509, 1.5208178129169094, -1.4354020785700183, 1.6027531198327305]}