{"generation": 930, "inputs": ["y", "yvel", "xpipe", "ypipe"], "outputs": ["jump"], "layers": [4, 4, 4, 4, 1], "activation": "sigmoid", "ticks": 25895793, "weights": [-1.1071261662612513, 0.17119878359801094, 2.1631928210546185, 0.3141095905179392, -0.6456058736986657, 0.007132365037667995, 0.8901659521497365, 0.13157925004909937, -0.9360503364368412, -0.006577343221213905, 0.8571210435400672, 0.5787177493498017, -0.23498422431576624, -0.13000638335488443, -0.9385939815738287, 0.6586894284401899, -0.3131733024593924, -1.0416729031579812, -1.5745521110735181, 1.1753609829400447, 2.636358283561705, 0.415920922529613, 1.003737410129381, 0.11299744485789598, 0.8456758178592512, -0.16929693084196173, -0.7498344462051623, 0.10737284148624596, -1.027608850800511, 0.1782412742900406, -0.17816655169903836, 1.4429755570994702, -0.1662356233321442, 1.4883092213383073, 1.0474965949870643, -0.519541102782534, 0.4041076544198172, 0.4354003901092803, 0.0935634483594743, -1.1048975692135072, -1.231578115632136, 0.4251089600148991, 0.8680720303655723, 1.0823824774472752, 1.928026744508793, 0.3507635242114423, -0.8594257283708645, -1.0452999040045452, 1.17663019788244, -1.3124349194937903, -0.857282974675961, -0.7564811732731433], "biases": [-0.9513725789735716, -0.5057653614654741, 1.5219529877214328, -2.74927436383651, 1.4432311836768856, 0.09110175914443147, 1.0207977858192105, -0.7687335737262415, -2.277512813308064, -0.7899555333654398, 1.6023923769091875, -1.3165615681115785, 1.6243878563349263]}