{"generation": 943, "inputs": ["y", "yvel", "xpipe", "ypipe"], "outputs": ["jump"], "layers": [4, 4, 4, 4, 1], "activation": "sigmoid", "ticks": 26551048, "weights": [-1.0574839848310815, 0.17119878359801094, 2.163141691787551, 0.3141095905179392, -0.6072910477928329, 0.007132365037667995, 0.8565573641470603, 0.13157925004909937, -0.9072474681478138, 0.017753132542951546, 0.8226793842387057, 0.5787177493498017, -0.23498422431576624, -0.13000638335488443, -0.9252707205867521, 0.6586894284401899, -0.35163100784966816, -1.0416729031579812, -1.576121788028873, 1.1429091725487872, 2.623235983184948, 0.415920922529613, 1.003737410129381, 0.11299744485789598, 0.8456758178592512, -0.16929693084196173, -0.7498344462051623, 0.10153060154162667, -1.027608850800511, 0.1782412742900406, -0.17816655169903836, 1.4429755570994702, -0.1662356233321442, 1.4993760024788598, 1.1173990611098654, -0.5058660865984852, 0.376377558372049, 0.39687220990912764, 0.13772424547134565, -1.1299902768854766, -1.1888791115436805, 0.42178138944199817, 0.8404244930700753, 1.0823824774472752, 1.928026744508793, 0.3507635242114423, -0.8279300278819128, -1.0576171450340381, 1.17663019788244, -1.3113956369293176, -0.857282974675961, -0.7721755830081264], "biases": [-0.9462043945779288, -0.5328862157517601, 1.5413527765951518, -2.762322303369561, 1.403469975625636, 0.16570002876810946, 0.9967961233340134, -0.7548750738569387, -2.2316161120002738, -0.7446638305909165, 1.5533938365246545, -1.332697498753352, 1.6243878563349263]}