{"generation": 952, "inputs": ["y", "yvel", "xpipe", "ypipe"], "outputs": ["jump"], "layers": [4, 4, 4, 4, 1], "activation": "sigmoid", "ticks": 27045966, "weights": [-1.0624145428486231, 0.17119878359801094, 2.163141691787551, 0.2752268750682144, -0.6072910477928329, 0.007132365037667995, 0.8565573641470603, 0.13157925004909937, -0.9072474681478138, -0.0006999044354035859, 0.8573904496980492, 0.5787177493498017, -0.2839830105921393, -0.13000638335488443, -0.9252707205867521, 0.6586894284401899, -0.35163100784966816, -1.0413322276656236, -1.604367666961869, 1.1429091725487872, 2.5747541039411703, 0.415920922529613, 1.003737410129381, 0.11299744485789598, 0.9183366090867994, -0.20868987912058862, -0.7498344462051623, 0.13027681994224138, -1.027608850800511, 0.1782412742900406, -0.21874931126949557, 1.4917839309075702, -0.19442022178042356, 1.5156845550486893, 1.0945127434408009, -0.4880421361044284, 0.376377558372049, 0.41144840148118483, 0.13772424547134565, -1.1299902768854766, -1.1679526409600909, 0.42178138944199817, 0.8404244930700753, 1.0823824774472752, 1.928026744508793, 0.3507635242114423, -0.7946130937933829, -1.0576171450340381, 1.17663019788244, -1.3113956369293176, -0.857282974675961, -0.7721755830081264], "biases": [-0.9797897423047348, -0.5368963984843059, 1.6175543383783515, -2.725849883396085, 1.403469975625636, 0.14333613420303815, 1.0469862030694614, -0.8134525218134169, -2.209899222659534, -0.761630370724957, 1.5064680326918023, -1.3117893924787463, 1.6243878563349263]}