{"generation": 975, "inputs": ["y", "yvel", "xpipe", "ypipe"], "outputs": ["jump"], "layers": [4, 4, 4, 4, 1], "activation": "sigmoid", "ticks": 28296334, "weights": [-1.0751853525497699, 0.17119878359801094, 2.131145654251243, 0.232920262910054, -0.6072910477928329, 0.007132365037667995, 0.9100141541571453, 0.13869735366567804, -0.9072474681478138, 0.005542165440324288, 0.9022440898189774, 0.5836809128573264, -0.2779476304311142, -0.13000638335488443, -0.8668868300436868, 0.6622195270984692, -0.33126159830762286, -0.9965106590419384, -1.6429226408197215, 1.1429091725487872, 2.623556297879434, 0.38182420158306063, 1.003737410129381, 0.12845703226592817, 0.9656039455729074, -0.25345056118783793, -0.7665933838106798, 0.13027681994224138, -1.027608850800511, 0.16961016226234962, -0.2764246220034624, 1.4459062837671692, -0.22913985880918886, 1.4815063231879142, 1.0759520148334876, -0.510438205500158, 0.33140227404772565, 0.356386475072112, 0.13772424547134565, -1.1299902768854766, -1.1679526409600909, 0.33849746164618555, 0.8404244930700753, 1.0753491728573101, 1.960234346014699, 0.3385587554482759, -0.7518441606686904, -1.0576171450340381, 1.1325385914027106, -1.3113956369293176, -0.857282974675961, -0.758597304892739], "biases": [-1.047999241485423, -0.45422866427124, 1.6076802874183904, -2.7134743582266005, 1.441410009771842, 0.11903986075551604, 1.084842008014378, -0.8392733460738587, -2.2164595147582387, -0.6799380116148295, 1.3792942912587682, -1.310829994359564, 1.6243878563349263]}