{"generation": 93, "inputs": ["y", "yvel", "xpipe", "ypipe"], "outputs": ["jump"], "layers": [4, 4, 4, 4, 1], "activation": "sigmoid", "ticks": 838867, "weights": [-0.26426159450874, 0.49426916080373434, 2.139894763990053, 0.4179998358618917, -0.6094020064731096, 0.07286975889882201, 0.896855856128775, 0.6175303593741792, -1.0822669045253182, -0.13571056868291945, 0.6789785202601893, 0.2662932778718369, 0.7124010711496919, -0.03012758306168372, -0.6121171277129449, 0.6205020463490839, -0.5684189768884856, -0.8367089202931944, -1.3234997642476487, 0.9006625293824351, 2.44125306776999, 0.21277547159056642, 1.0288543264871333, 0.4716635071597101, 0.814311103404846, 0.13333389653744257, -0.5994690110785353, -0.07582165106613002, -0.8759096963742123, 0.14499745295738803, -0.17193093087088518, 1.4371405861786501, -0.24086049736785436, 1.3173532170660016, 1.1188854063452127, -0.18142340814503252, 0.6271170996261757, 0.1919109476522016, -0.0767934053091934, -1.0763145985820268, -1.027622094302093, 0.5926184077412863, 0.6773163153885762, 1.1410471796715058, 1.710992035880729, 0.4048337898392546, -0.8137049562778684, -1.0707137570986212, 1.0845686130098282, -1.064364094801005, -1.0041715379686014, -0.4852741994799229], "biases": [-0.2208256716387613, -0.012228392270344307, 1.2834725475641422, -2.0370396777498434, 1.492385429765559, -0.11240569085607263, 0.3658457164405176, -0.9024456992841896, -2.107257439406498, -1.0202634734298064, 1.5502778544829547, -1.4976917870365507, 1.5343112285689087]}