{"generation": 990, "inputs": ["y", "yvel", "xpipe", "ypipe"], "outputs": ["jump"], "layers": [4, 4, 4, 4, 1], "activation": "sigmoid", "ticks": 29123685, "weights": [-1.038836206609348, 0.17119878359801094, 2.1706378729753517, 0.26945912701948505, -0.6072910477928329, 0.007132365037667995, 0.9364649884826844, 0.10162126683318855, -0.9534336422075973, 0.005542165440324288, 0.9176477065010401, 0.5836809128573264, -0.2779476304311142, -0.13000638335488443, -0.8668868300436868, 0.6475842572640722, -0.33695609725227677, -0.9965106590419384, -1.6844754775343664, 1.1374251526268186, 2.623556297879434, 0.38182420158306063, 1.003737410129381, 0.12845703226592817, 1.0012914812376814, -0.269337853134921, -0.7665933838106798, 0.09732634008247558, -1.0018720957428158, 0.16961016226234962, -0.26177046857326675, 1.4364744103716722, -0.22913985880918886, 1.4815063231879142, 1.0759520148334876, -0.510438205500158, 0.33140227404772565, 0.37050559817778944, 0.13772424547134565, -1.1299902768854766, -1.1679526409600909, 0.37393790960229306, 0.8478291911694107, 1.0753491728573101, 1.9895861733020557, 0.2922610381805597, -0.7556222774666961, -1.087250858186701, 1.2084610283568473, -1.3113956369293176, -0.857282974675961, -0.7152952308755013], "biases": [-1.08549907321136, -0.45422866427124, 1.5846433069002734, -2.8268696849755144, 1.43159291325021, 0.16484311962297848, 1.1284512121025683, -0.8047370998149724, -2.2663129526197334, -0.6875713114755905, 1.3979130440842171, -1.3281986969612263, 1.6243878563349263]}