{"generation": 195, "inputs": ["y", "yvel", "ypipe"], "outputs": ["jump"], "layers": [3, 4, 4, 1], "activation": "sigmoid", "ticks": 5464842, "time": 200.5899579524994, "weights": [0.36679445010894224, 0.5158488310206075, -0.07942529149106511, -0.7269924975884244, -0.8544427911897534, 0.889423665953469, 0.6557440053741364, 0.32425539728626995, -0.9623302637666024, -0.3777856472191668, 0.09407702575720638, 1.0035895632846108, 0.06751196559452677, -0.1844100189252488, -0.5730508397726738, -0.14968044683209666, 0.5907663646705799, 0.600861499674943, 0.7725816387743852, 0.19804683787671742, 0.9214934252916225, -0.2228402503235274, -0.7564031906695943, -0.05936986118369475, -0.8169712712005983, 0.9375737087750806, 0.16400951882468554, -0.5367270019348824, 0.20290394687685673, -0.2124889687372487, -0.6892683213099774, 0.7499882811394515], "biases": [-0.16379533781488995, 0.6292557819275006, -0.1727693676738553, -0.1202362040770513, -0.23098515596167726, -0.3089683289660073, -0.30592738760399296, 0.0617966569904458, -0.024402773595547704]}