{"generation": 166, "inputs": ["y", "yvel", "ypipe"], "outputs": ["jump"], "layers": [3, 4, 4, 1], "activation": "sigmoid", "ticks": 3652939, "time": 131.81086802482605, "weights": [0.360026248343198, 0.5158488310206075, -0.07942529149106511, -0.7756516328770271, -0.7526884559007929, 0.8947543672192295, 0.6188693134790986, 0.3061953844733377, -0.9561064711211188, -0.38086661000714345, 0.09407702575720638, 1.0035895632846108, 0.0336136183866767, -0.1681838914908288, -0.5748460574516021, -0.09035567073602598, 0.6832793303151303, 0.6050773026992304, 0.7518717709375617, 0.16659867505337328, 0.9681812415109803, -0.20522147008845706, -0.7564031906695943, -0.10682506154413643, -0.8567264466621929, 0.9375737087750806, 0.1467851467770799, -0.522542084346373, 0.20290394687685673, -0.2124889687372487, -0.6892683213099774, 0.7339108326976418], "biases": [-0.0684456695556689, 0.6580531573899329, -0.2586995627894729, -0.21507857260105953, -0.27073767623314204, -0.28530593398186793, -0.2722358220315437, 0.06996356917875295, -0.01091892270743359]}