{"generation": 130, "inputs": ["y", "yvel", "ypipe"], "outputs": ["jump"], "layers": [3, 4, 4, 1], "activation": "sigmoid", "ticks": 1917572, "time": 69.39066314697266, "weights": [0.368818879465953, 0.5083012252754142, -0.050849021989284766, -0.7839695411759182, -0.7109965834156996, 0.8947543672192295, 0.5522195579689981, 0.3061953844733377, -0.9129946061467725, -0.360451529440571, 0.09639292790113799, 0.9629001363011727, -0.027052442275839986, -0.20928636910263634, -0.4853215571318504, -0.0893876056119243, 0.5719091786550732, 0.6050773026992304, 0.7898971761685809, 0.15600293576420474, 0.9964112761021953, -0.27013237116558303, -0.7064732742251995, -0.18186195357388038, -0.8567264466621929, 0.8238436741213979, 0.22611589944115792, -0.5214343956577862, 0.20290394687685673, -0.20874433508405765, -0.6196437530114725, 0.7339108326976418], "biases": [-0.05949395622119749, 0.6194162072272763, -0.22362187150707272, -0.20714437252362863, -0.2586332375850792, -0.09685990081378609, -0.18240199634470444, 0.01783791382679053, 0.010293917185637744]}