{"generation": 114, "inputs": ["y", "yvel", "ypipe"], "outputs": ["jump"], "layers": [3, 4, 4, 1], "activation": "sigmoid", "ticks": 1643875, "time": 59.281774282455444, "weights": [0.368818879465953, 0.5072271200121763, -0.050849021989284766, -0.7921922890992374, -0.6822737233446681, 0.8947543672192295, 0.5972493056428775, 0.26427484916992133, -0.9129946061467725, -0.360451529440571, 0.09639292790113799, 0.9629001363011727, 0.027559994585482306, -0.20928636910263634, -0.5315587221282311, -0.13250484801143755, 0.5719091786550732, 0.5940249187216831, 0.7336102118593515, 0.15136193760644917, 0.9964112761021953, -0.27013237116558303, -0.6991667933459423, -0.18186195357388038, -0.8339070360773805, 0.8552522624982929, 0.25048189225319817, -0.5214343956577862, 0.214681818361213, -0.20874433508405765, -0.6196437530114725, 0.7684850087367796], "biases": [-0.08211874208406471, 0.5422348967158285, -0.1478603673513867, -0.18000847354839178, -0.3076010198936884, -0.08716078705294798, -0.18240199634470444, 0.04899225076396737, 0.051973860179255205]}