{"generation": 142, "inputs": ["y", "yvel", "xpipe", "ypipe"], "outputs": ["jump"], "layers": [4, 4, 4, 4, 1], "activation": "sigmoid", "ticks": 1289497, "weights": [-0.2759524933108249, 0.4638868947215706, 2.101781983076214, 0.403944167043227, -0.6351588558546405, 0.10217139389392918, 0.9096346399893727, 0.6309771531689883, -1.1089778551602323, -0.13053791626983574, 0.6922768064243082, 0.3591133104606306, 0.7124010711496919, -0.09090064659593228, -0.6179203062011048, 0.7035777116469933, -0.5580021112218642, -1.0052999061901335, -1.2477080336620205, 0.9006625293824351, 2.470156591514406, 0.1541434202954473, 1.0081951688758943, 0.440380076546476, 0.814311103404846, 0.10254471347949234, -0.7041269545250876, -0.008510021248391876, -0.8622345166696644, 0.15606639618864857, -0.27328888213014124, 1.4608493827451015, -0.2192356555707336, 1.2762297605813349, 1.1273946599524967, -0.256199040666362, 0.6271170996261757, 0.24065951540930405, -0.09232033034966924, -1.1024440709950367, -1.0839604486236805, 0.5926184077412863, 0.6598542857067793, 1.0972233968379987, 1.7069870214209348, 0.44864007900595854, -0.7687927838438738, -1.095574479227795, 1.0099280544542981, -1.1052734281928542, -0.9755469547714175, -0.46997232468899525], "biases": [-0.3204482015377003, -0.044060220735754, 1.4837819993730639, -2.1600688845429894, 1.4464918204049622, 0.06450111913832837, 0.45133651460975843, -0.9128571587659846, -2.194110127315726, -0.9247518085779757, 1.6497609020888346, -1.561348295596362, 1.5801640204510645]}