{"generation": 1508, "inputs": ["y", "yvel", "ypipe"], "outputs": ["jump"], "layers": [3, 4, 4, 1], "activation": "sigmoid", "ticks": 94074217, "time": 4764.695378780365, "weights": [0.41505734360794655, 0.5074262790173542, -0.08950347363961351, -0.6400597036297688, -0.590215572745968, 0.7308404504737863, 0.6777177798766151, 0.3262020666748985, -1.2810873545281063, -0.3715241114974311, 0.09970958040961841, 1.4181514325936715, -0.041994677370426454, -0.6771563402145728, -0.559225204662616, 0.31329732330437743, 0.5243817171638221, 0.5162806470550207, 0.747727605850387, 0.14539823463911702, 1.0208453060778204, -0.33931641084527486, -0.6188836618382925, 0.32515883801487266, -0.9938224290418102, 0.9926458735519751, 0.11125829541048761, -0.35357605446977153, 0.14001553589764712, -0.4275685499097477, -0.8667788785805752, 0.8786587252091452], "biases": [-0.33513788309173814, 0.8921499829416497, -0.4597409655830088, -0.001844640689144813, 0.08476314045845001, -0.2988021816877848, -0.3751522106686581, 0.3054329442630768, -0.02661841758502545]}