{"generation": 1018, "inputs": ["y", "yvel", "xpipe", "ypipe"], "outputs": ["jump"], "layers": [4, 4, 4, 4, 1], "activation": "sigmoid", "ticks": 30603083, "weights": [-1.0229596241456687, 0.17119878359801094, 2.1235436930956513, 0.26945912701948505, -0.6288978502443865, 0.027072570070837264, 0.9364649884826844, 0.08995477352160448, -0.9534336422075973, -0.0075394382887945645, 0.9731303242059066, 0.6177063547786652, -0.23410253338334264, -0.13000638335488443, -0.8668868300436868, 0.6847401930842919, -0.27446192407536046, -0.9863863723288468, -1.681513790732041, 1.1374251526268186, 2.6439780451835486, 0.4317782978554435, 1.0148064318968182, 0.10547450755415733, 1.0012914812376814, -0.23360178668392173, -0.7976302350679759, 0.0789997428420032, -1.028204101687116, 0.1609018236287322, -0.22290721770728888, 1.356303828053426, -0.22913985880918886, 1.5082483403260756, 1.0759520148334876, -0.5140409060191875, 0.33140227404772565, 0.37050559817778944, 0.13772424547134565, -1.1233460534387674, -1.2073056293837732, 0.3755718058456138, 0.8561742194504869, 1.0210074088955083, 1.9895861733020557, 0.2858062132408611, -0.7556222774666961, -1.0817381148543619, 1.1578884678511816, -1.3015628116910887, -0.8605472586711436, -0.6961675761921111], "biases": [-0.9795321663009526, -0.4698762968684052, 1.6059711232301832, -2.7708314469902846, 1.467405683885087, 0.09845971175682385, 1.1578097558075, -0.694797501440146, -2.2969357135222093, -0.7467176313171411, 1.3891681554135957, -1.3491566058301085, 1.6243878563349263]}