{"generation": 149, "inputs": ["y", "yvel", "ypipe"], "outputs": ["jump"], "layers": [3, 4, 4, 1], "activation": "sigmoid", "ticks": 2817037, "time": 101.44724822044373, "weights": [0.368818879465953, 0.5158488310206075, -0.07942529149106511, -0.8154728985750077, -0.7485640172165093, 0.8947543672192295, 0.5562840840197295, 0.3061953844733377, -0.9561064711211188, -0.38086661000714345, 0.09639292790113799, 1.0035895632846108, -0.003839971128192954, -0.21003942003938705, -0.51330501133646, -0.08376826530905035, 0.6465829281216233, 0.6050773026992304, 0.7825145338555844, 0.16659867505337328, 1.0036462514524116, -0.24769330374140686, -0.7064732742251995, -0.1014104680532811, -0.8567264466621929, 0.8948229338013128, 0.15865379383901443, -0.5214343956577862, 0.20290394687685673, -0.20874433508405765, -0.6784890611131595, 0.7339108326976418], "biases": [-0.0880852484930949, 0.7315690694103638, -0.2172517400340898, -0.19988819905253663, -0.33009018857792655, -0.1365393329259985, -0.20901368119159464, 0.07213792614137951, -9.903966251635643e-05]}