{"generation": 147, "inputs": ["y", "yvel", "xpipe", "ypipe"], "outputs": ["jump"], "layers": [4, 4, 4, 4, 1], "activation": "sigmoid", "ticks": 1335497, "weights": [-0.2759524933108249, 0.4638868947215706, 2.101781983076214, 0.403944167043227, -0.6351588558546405, 0.12072938968641295, 0.9096346399893727, 0.6309771531689883, -1.1089778551602323, -0.13053791626983574, 0.7079097892435822, 0.3591133104606306, 0.7124010711496919, -0.09090064659593228, -0.6179203062011048, 0.7035777116469933, -0.5580021112218642, -1.0052999061901335, -1.2477080336620205, 0.9006625293824351, 2.470156591514406, 0.1541434202954473, 1.0282612140000977, 0.440380076546476, 0.814311103404846, 0.05711135536476236, -0.7699782974986271, -0.008510021248391876, -0.8622345166696644, 0.15606639618864857, -0.22335642667717148, 1.4608493827451015, -0.2192356555707336, 1.2762297605813349, 1.1273946599524967, -0.256199040666362, 0.5982013742557605, 0.24065951540930405, -0.09232033034966924, -1.1024440709950367, -1.0839604486236805, 0.5926184077412863, 0.6853154978744677, 1.0972233968379987, 1.7069870214209348, 0.44864007900595854, -0.7687927838438738, -1.095574479227795, 1.0099280544542981, -1.1052734281928542, -0.9755469547714175, -0.46997232468899525], "biases": [-0.3100857703005648, -0.044060220735754, 1.4668233488948974, -2.155933066344639, 1.4007496984563772, 0.07609104981837181, 0.37178538122793153, -0.9128571587659846, -2.194110127315726, -0.924886272016731, 1.6497609020888346, -1.561348295596362, 1.5801640204510645]}