{"generation": 1045, "inputs": ["y", "yvel", "ypipe"], "outputs": ["jump"], "layers": [3, 4, 4, 1], "activation": "sigmoid", "ticks": 50768442, "time": 3046.7024335861206, "weights": [0.4787282853088547, 0.511812704269499, -0.09329203130774158, -0.6272348501012327, -0.6137899459042746, 0.7494355134818924, 0.7254855003690561, 0.3651997764978011, -1.237617155153735, -0.36967031155478974, 0.10604826171837474, 1.272608042894061, -0.025928358713712393, -0.6023938384144593, -0.27110666607069733, 0.33125160665104675, 0.495025491570886, 0.4586233730914407, 0.7626643302590359, 0.14230150075166403, 1.0422104965682426, -0.44505041098198106, -0.7229364423785629, 0.2957833620217019, -0.9322928734860708, 1.0657923184229603, 0.11466554113970845, -0.49743289986715666, 0.2086482660391811, -0.3635325026470162, -0.7339786261415285, 0.8452837667453945], "biases": [-0.6218304190547473, 0.8003509513677219, -0.5952980087312183, 0.3362134464183823, -0.011097700902932673, -0.264484298787117, -0.43943017561620357, 0.19520008635509775, -0.08432722467166286]}