{"generation": 1002, "inputs": ["y", "yvel", "xpipe", "ypipe"], "outputs": ["jump"], "layers": [4, 4, 4, 4, 1], "activation": "sigmoid", "ticks": 29766138, "weights": [-1.0612222561251723, 0.17119878359801094, 2.1706378729753517, 0.26945912701948505, -0.6288978502443865, 0.007132365037667995, 0.9364649884826844, 0.09516913148968054, -0.9534336422075973, -0.0075394382887945645, 0.9430006647277963, 0.5836809128573264, -0.2779476304311142, -0.13000638335488443, -0.8668868300436868, 0.6915461178724263, -0.33695609725227677, -0.9965106590419384, -1.6844754775343664, 1.1374251526268186, 2.623556297879434, 0.4317782978554435, 1.003737410129381, 0.10547450755415733, 1.0012914812376814, -0.269337853134921, -0.7665933838106798, 0.09732634008247558, -1.0018720957428158, 0.14232553829313388, -0.2426708260147272, 1.4364744103716722, -0.22913985880918886, 1.4895484887553943, 1.0759520148334876, -0.4929114179714691, 0.33140227404772565, 0.37050559817778944, 0.13772424547134565, -1.127332754188736, -1.2073056293837732, 0.37393790960229306, 0.8561742194504869, 1.061203484722256, 1.9895861733020557, 0.27266337368542093, -0.7556222774666961, -1.0817381148543619, 1.1683035648358817, -1.3113956369293176, -0.8605472586711436, -0.7166678831444051], "biases": [-1.0406522197808827, -0.4686073732992854, 1.6108510492594952, -2.784263810708623, 1.4613523355928932, 0.12508563899982705, 1.1284512121025683, -0.7058084355723953, -2.3037791024458563, -0.717689311168217, 1.39453154561467, -1.3565363340223058, 1.6243878563349263]}