{"generation": 1055, "inputs": ["y", "yvel", "ypipe"], "outputs": ["jump"], "layers": [3, 4, 4, 1], "activation": "sigmoid", "ticks": 51642979, "time": 3079.2382016181946, "weights": [0.4409011000186331, 0.4978187886278536, -0.09329203130774158, -0.6185048640308896, -0.6137899459042746, 0.7494355134818924, 0.7254855003690561, 0.35769347606063695, -1.2508607684739794, -0.36967031155478974, 0.1128872699384778, 1.272608042894061, -0.025928358713712393, -0.6164235778810822, -0.27110666607069733, 0.3152566781425231, 0.4704858222915425, 0.4586233730914407, 0.7626643302590359, 0.14230150075166403, 1.0422104965682426, -0.44505041098198106, -0.7130957019630568, 0.30489842203613743, -0.954225481648087, 1.073067577637138, 0.11466554113970845, -0.4964722242808943, 0.2086482660391811, -0.3635325026470162, -0.7460525729814882, 0.8452837667453945], "biases": [-0.6357571727710094, 0.8283430155500541, -0.5788851117888926, 0.27062172497495707, -0.011097700902932673, -0.20507419049980014, -0.43943017561620357, 0.20757855791145316, -0.09633343560341553]}