{"generation": 161, "inputs": ["y", "yvel", "ypipe"], "outputs": ["jump"], "layers": [3, 4, 4, 1], "activation": "sigmoid", "ticks": 3350276, "time": 120.47029995918274, "weights": [0.360026248343198, 0.5158488310206075, -0.07942529149106511, -0.8154728985750077, -0.7485640172165093, 0.8947543672192295, 0.6188693134790986, 0.3061953844733377, -0.9561064711211188, -0.38086661000714345, 0.09639292790113799, 1.0035895632846108, 0.0336136183866767, -0.1681838914908288, -0.5748460574516021, -0.09035567073602598, 0.6832793303151303, 0.6050773026992304, 0.7825145338555844, 0.16659867505337328, 1.0036462514524116, -0.24769330374140686, -0.7564031906695943, -0.10682506154413643, -0.8567264466621929, 0.8948229338013128, 0.1467851467770799, -0.5214343956577862, 0.20290394687685673, -0.2124889687372487, -0.6892683213099774, 0.7339108326976418], "biases": [-0.06708891383318998, 0.686925124467586, -0.2586995627894729, -0.22556704793418125, -0.3047221938390346, -0.24223197834796215, -0.25449520067615483, 0.06326995549721956, -0.01091892270743359]}