{"generation": 119, "inputs": ["y", "yvel", "xpipe", "ypipe"], "outputs": ["jump"], "layers": [4, 4, 4, 4, 1], "activation": "sigmoid", "ticks": 1077931, "weights": [-0.26426159450874, 0.49426916080373434, 2.101781983076214, 0.403944167043227, -0.6094020064731096, 0.10217139389392918, 0.8673654928164752, 0.6203076774867619, -1.0822669045253182, -0.13053791626983574, 0.6790666328889366, 0.29346110756398214, 0.7124010711496919, -0.03012758306168372, -0.574190904965926, 0.7014886467394469, -0.601826258816907, -0.961129592807836, -1.2699686410055098, 0.9006625293824351, 2.4458965192077633, 0.11074220103768304, 1.0052742783400939, 0.4660530563357042, 0.814311103404846, 0.08792934743892351, -0.6768528529734258, -0.05880916542169415, -0.9269737264542045, 0.14499745295738803, -0.2144979383521219, 1.4441553582751987, -0.23377996159933045, 1.2762297605813349, 1.1425849865561553, -0.256199040666362, 0.6271170996261757, 0.24065951540930405, -0.12367517006770304, -1.1024440709950367, -1.027622094302093, 0.5926184077412863, 0.6973133622070372, 1.0972233968379987, 1.8265651067592026, 0.44864007900595854, -0.8011885159942649, -1.095574479227795, 1.0099280544542981, -1.1445241409527664, -0.9755469547714175, -0.4390948333059814], "biases": [-0.25016092902717807, -0.02096612897584887, 1.2901103974132953, -2.0537024520156373, 1.4225440046213953, -0.040515227972838776, 0.44573131223128587, -0.8854497243224368, -2.142670328549452, -0.9974681429926743, 1.6914294488638089, -1.5320873398904056, 1.5801640204510645]}