{"generation": 1070, "inputs": ["y", "yvel", "ypipe"], "outputs": ["jump"], "layers": [3, 4, 4, 1], "activation": "sigmoid", "ticks": 53230409, "time": 3140.2787296772003, "weights": [0.4409011000186331, 0.4978187886278536, -0.09329203130774158, -0.6185048640308896, -0.6137899459042746, 0.7142691936584586, 0.7473968144197728, 0.3901985225954539, -1.2419727208435494, -0.36967031155478974, 0.1128872699384778, 1.2893963544648026, -0.03679173903360225, -0.606272616392102, -0.27400602445531075, 0.3152566781425231, 0.45968422380059765, 0.4586233730914407, 0.7910174545152744, 0.14230150075166403, 1.0563537605378115, -0.44505041098198106, -0.7307099639521424, 0.29989660054292683, -0.9477790389755212, 1.073067577637138, 0.13758910541492064, -0.4964722242808943, 0.2086482660391811, -0.35975063790849215, -0.7460525729814882, 0.8452837667453945], "biases": [-0.6511456079900234, 0.8636882917639555, -0.5303484386889927, 0.27466336873422725, -0.0066507534307407076, -0.23125844593219105, -0.43904682644285314, 0.21877362328231947, -0.09692321245318344]}