{"generation": 153, "inputs": ["y", "yvel", "ypipe"], "outputs": ["jump"], "layers": [3, 4, 4, 1], "activation": "sigmoid", "ticks": 2980697, "time": 107.54559922218323, "weights": [0.3239099308209002, 0.5158488310206075, -0.07942529149106511, -0.8154728985750077, -0.7485640172165093, 0.8947543672192295, 0.6003364535431559, 0.3061953844733377, -0.9561064711211188, -0.38086661000714345, 0.09639292790113799, 1.0035895632846108, 0.0336136183866767, -0.21003942003938705, -0.51330501133646, -0.09035567073602598, 0.6832793303151303, 0.6050773026992304, 0.7825145338555844, 0.16659867505337328, 1.0036462514524116, -0.24769330374140686, -0.7064732742251995, -0.09591082280399689, -0.8567264466621929, 0.8948229338013128, 0.15865379383901443, -0.5214343956577862, 0.20290394687685673, -0.2124889687372487, -0.6784890611131595, 0.7339108326976418], "biases": [-0.04310875092118366, 0.7315690694103638, -0.2172517400340898, -0.19671292934091172, -0.3164860039167394, -0.21242631996113617, -0.20901368119159464, 0.06361172176242777, -9.903966251635643e-05]}