{"generation": 169, "inputs": ["y", "yvel", "xpipe", "ypipe"], "outputs": ["jump"], "layers": [4, 4, 4, 4, 1], "activation": "sigmoid", "ticks": 1537897, "weights": [-0.2521109825511998, 0.4638868947215706, 2.1677089506762206, 0.35702764289793737, -0.6351588558546405, 0.12072938968641295, 0.9280611011179045, 0.6396631567655773, -1.1271205680374328, -0.13053791626983574, 0.7079097892435822, 0.3591133104606306, 0.7928545940234812, -0.09090064659593228, -0.6168671269343121, 0.6712933507276586, -0.5580021112218642, -0.9932719788693752, -1.291598083335281, 0.949226873153733, 2.4867358700682223, 0.16233481112377304, 1.0159438499170237, 0.4034199827635985, 0.8066213200907333, 0.04228979044397633, -0.8113645359471956, -0.008510021248391876, -0.8311767433627475, 0.12103626700213173, -0.24442536080496274, 1.5206960005116714, -0.2008994174511865, 1.3601937174335974, 1.1273946599524967, -0.23095552068921868, 0.5982013742557605, 0.24065951540930405, -0.11678720836606954, -1.1004421992263964, -1.118279440314656, 0.5652267488402344, 0.705398497240404, 1.0224215930987581, 1.673509501494312, 0.44864007900595854, -0.7340707087988626, -1.1162099226225455, 1.0327015342761932, -1.1274736842454998, -0.9755469547714175, -0.46997232468899525], "biases": [-0.35026110649037107, -0.13500597706642875, 1.383363973471028, -2.095463069264282, 1.4568611122977688, 0.0903139201596326, 0.38438011729424976, -0.9599877537171473, -2.115530833820412, -0.9556359941230987, 1.632367293607, -1.644831264149048, 1.5801640204510645]}