{"generation": 176, "inputs": ["y", "yvel", "ypipe"], "outputs": ["jump"], "layers": [3, 4, 4, 1], "activation": "sigmoid", "ticks": 4241036, "time": 153.01509523391724, "weights": [0.360026248343198, 0.5158488310206075, -0.07942529149106511, -0.7756516328770271, -0.7883652078443548, 0.8947543672192295, 0.6236146990965735, 0.30946982085986, -0.9623302637666024, -0.3777856472191668, 0.09407702575720638, 1.0035895632846108, 0.0336136183866767, -0.17403759557802312, -0.5748460574516021, -0.13538011474181427, 0.5907663646705799, 0.6145856389678253, 0.7896814087696615, 0.16659867505337328, 0.9681812415109803, -0.25004735525090693, -0.7564031906695943, -0.061386583483357904, -0.8567264466621929, 0.9375737087750806, 0.16400951882468554, -0.5367270019348824, 0.20290394687685673, -0.2124889687372487, -0.6892683213099774, 0.7295333634831148], "biases": [-0.07346715545432164, 0.6191915247443128, -0.2850559927161109, -0.17047403968010566, -0.3102217223588621, -0.28518637619313936, -0.31070361593273466, 0.06996356917875295, -0.01091892270743359]}