{"generation": 1073, "inputs": ["y", "yvel", "ypipe"], "outputs": ["jump"], "layers": [3, 4, 4, 1], "activation": "sigmoid", "ticks": 53529807, "time": 3151.911857843399, "weights": [0.4409011000186331, 0.4978187886278536, -0.09329203130774158, -0.6185048640308896, -0.6137899459042746, 0.7142691936584586, 0.7427790604217784, 0.3901985225954539, -1.2558424747019914, -0.36967031155478974, 0.1128872699384778, 1.2973335284179388, -0.03679173903360225, -0.606272616392102, -0.28661317822386145, 0.3152566781425231, 0.45968422380059765, 0.4586233730914407, 0.7910174545152744, 0.12573261388555806, 1.0563537605378115, -0.44505041098198106, -0.7307099639521424, 0.29989660054292683, -0.9477790389755212, 1.058430401509825, 0.13758910541492064, -0.4964722242808943, 0.2086482660391811, -0.35975063790849215, -0.7460525729814882, 0.8452837667453945], "biases": [-0.6511456079900234, 0.885415054527215, -0.5345906050749708, 0.27466336873422725, -0.008099662903327703, -0.23125844593219105, -0.43192768283410277, 0.21877362328231947, -0.09692321245318344]}