{"generation": 133, "inputs": ["y", "yvel", "xpipe", "ypipe"], "outputs": ["jump"], "layers": [4, 4, 4, 4, 1], "activation": "sigmoid", "ticks": 1206697, "weights": [-0.2759524933108249, 0.4974050400443929, 2.101781983076214, 0.403944167043227, -0.6094020064731096, 0.10217139389392918, 0.9096346399893727, 0.6491709985812296, -1.1089778551602323, -0.13053791626983574, 0.6790666328889366, 0.29346110756398214, 0.7124010711496919, -0.050945256946000876, -0.5755395753995455, 0.7014886467394469, -0.5819402721542617, -0.961129592807836, -1.2477080336620205, 0.9006625293824351, 2.5083012332123795, 0.14893579026819267, 1.0052742783400939, 0.440380076546476, 0.814311103404846, 0.08792934743892351, -0.7041269545250876, -0.008510021248391876, -0.8833384101549092, 0.15606639618864857, -0.25107832917640316, 1.497787257120598, -0.2192356555707336, 1.2762297605813349, 1.1273946599524967, -0.256199040666362, 0.6271170996261757, 0.24065951540930405, -0.09232033034966924, -1.1024440709950367, -1.0839604486236805, 0.5926184077412863, 0.6598542857067793, 1.0972233968379987, 1.7551082664053523, 0.44864007900595854, -0.7687927838438738, -1.095574479227795, 1.0099280544542981, -1.1517269320340313, -0.9755469547714175, -0.42135621015496993], "biases": [-0.29319408914575384, -0.044060220735754, 1.474078961580744, -2.0633542836621106, 1.443460529715943, -0.047997600193644956, 0.4743032443584349, -0.906085201219024, -2.1869019662099647, -0.9247518085779757, 1.6399083988054202, -1.53836800614548, 1.5801640204510645]}