{"generation": 102, "inputs": ["y", "yvel", "ypipe"], "outputs": ["jump"], "layers": [3, 4, 4, 1], "activation": "sigmoid", "ticks": 1401146, "time": 50.30233931541443, "weights": [0.34871249032382307, 0.5072271200121763, -0.050849021989284766, -0.8585727116393174, -0.7460214934843457, 0.8947543672192295, 0.5608417127867241, 0.26427484916992133, -0.9129946061467725, -0.360451529440571, 0.05689658152371391, 0.9629001363011727, 0.027559994585482306, -0.20928636910263634, -0.5072427341819268, -0.13250484801143755, 0.617481628427032, 0.5940249187216831, 0.7336102118593515, 0.1545393830566518, 0.9964112761021953, -0.27013237116558303, -0.684253222009126, -0.18186195357388038, -0.792944938902248, 0.8618906015484827, 0.2874906993014183, -0.48930977731947806, 0.2150327154856865, -0.1896575512984233, -0.6665550460349383, 0.7993449877687478], "biases": [-0.06846932941662204, 0.5230651009915543, -0.09010762992114166, -0.23556128999828543, -0.31143286574097157, 0.005895931432166605, -0.14571781249802132, -0.028638802658134614, 0.051973860179255205]}