{"generation": 189, "inputs": ["y", "yvel", "ypipe"], "outputs": ["jump"], "layers": [3, 4, 4, 1], "activation": "sigmoid", "ticks": 5101443, "time": 187.0544662475586, "weights": [0.3482961214613605, 0.5158488310206075, -0.07942529149106511, -0.7269924975884244, -0.8676265442594742, 0.8947543672192295, 0.6236146990965735, 0.30946982085986, -0.9623302637666024, -0.3777856472191668, 0.09407702575720638, 1.0035895632846108, 0.04449711110550382, -0.1844100189252488, -0.5476919225356068, -0.13538011474181427, 0.5907663646705799, 0.600861499674943, 0.7960598138856292, 0.19804683787671742, 0.9214934252916225, -0.26027697943659495, -0.7564031906695943, -0.05936986118369475, -0.8169712712005983, 0.9375737087750806, 0.16400951882468554, -0.5367270019348824, 0.20290394687685673, -0.2124889687372487, -0.6892683213099774, 0.7499882811394515], "biases": [-0.13325552555303635, 0.6290540120865754, -0.15208434513053984, -0.15284918153342875, -0.23098515596167726, -0.2831356998371663, -0.31070361593273466, 0.048081507460958045, -0.024402773595547704]}