{"generation": 123, "inputs": ["y", "yvel", "ypipe"], "outputs": ["jump"], "layers": [3, 4, 4, 1], "activation": "sigmoid", "ticks": 1793016, "time": 64.81054019927979, "weights": [0.368818879465953, 0.5072271200121763, -0.050849021989284766, -0.7921922890992374, -0.7109965834156996, 0.8947543672192295, 0.5972493056428775, 0.26427484916992133, -0.9129946061467725, -0.360451529440571, 0.09639292790113799, 0.9629001363011727, -0.027052442275839986, -0.20928636910263634, -0.4853215571318504, -0.08829782782067537, 0.5719091786550732, 0.6151983788601959, 0.7830189457956819, 0.15600293576420474, 0.9964112761021953, -0.27013237116558303, -0.7064732742251995, -0.18186195357388038, -0.8691386459747688, 0.8552522624982929, 0.22611589944115792, -0.5214343956577862, 0.214681818361213, -0.20874433508405765, -0.6196437530114725, 0.7339108326976418], "biases": [-0.05949395622119749, 0.5554641895520674, -0.18118296086178579, -0.15084324941506994, -0.2720717323073478, -0.04021175870421624, -0.18240199634470444, 0.01783791382679053, 0.010293917185637744]}