{"generation": 1089, "inputs": ["y", "yvel", "ypipe"], "outputs": ["jump"], "layers": [3, 4, 4, 1], "activation": "sigmoid", "ticks": 55102114, "time": 3209.8137679100037, "weights": [0.42800108630616795, 0.48996059398918, -0.09174490284324836, -0.6185048640308896, -0.6137899459042746, 0.7142691936584586, 0.7427790604217784, 0.36627645344142135, -1.2804954126319823, -0.3664605418561401, 0.1128872699384778, 1.341357183859356, -0.056699205958409736, -0.6121354438713649, -0.28661317822386145, 0.3152566781425231, 0.4442029206967503, 0.4582182648307056, 0.7721957331570076, 0.1559945761564345, 1.0605480839475758, -0.44505041098198106, -0.7307099639521424, 0.28939896222241135, -0.9526316696975822, 1.0598947885738474, 0.15928974891150963, -0.4964722242808943, 0.2086482660391811, -0.35975063790849215, -0.7375069395856326, 0.8452837667453945], "biases": [-0.6744387137045889, 0.9271429118531752, -0.5204122993733794, 0.2697718829001772, -0.010143288672555734, -0.20093026551198373, -0.42066224253956025, 0.23354105166971947, -0.09184400214896826]}