{"generation": 114, "inputs": ["y", "yvel", "xpipe", "ypipe"], "outputs": ["jump"], "layers": [4, 4, 4, 4, 1], "activation": "sigmoid", "ticks": 1031999, "weights": [-0.26426159450874, 0.49426916080373434, 2.101781983076214, 0.42062640745314084, -0.6094020064731096, 0.10217139389392918, 0.8673654928164752, 0.608500630426036, -1.0822669045253182, -0.13053791626983574, 0.6789785202601893, 0.29346110756398214, 0.7124010711496919, -0.03012758306168372, -0.574190904965926, 0.6672884496953572, -0.5684189768884856, -0.961129592807836, -1.313479150642575, 0.9006625293824351, 2.462463860976855, 0.14884868728166564, 1.0288543264871333, 0.4660530563357042, 0.814311103404846, 0.08792934743892351, -0.6654480998867884, -0.05880916542169415, -0.9269737264542045, 0.14499745295738803, -0.2144979383521219, 1.4441553582751987, -0.23377996159933045, 1.2762297605813349, 1.1425849865561553, -0.256199040666362, 0.6271170996261757, 0.24065951540930405, -0.12367517006770304, -1.1024440709950367, -1.027622094302093, 0.5926184077412863, 0.6973133622070372, 1.067099771054425, 1.8265651067592026, 0.44864007900595854, -0.8011885159942649, -1.1049535989623445, 1.044676030440048, -1.1445241409527664, -0.9755469547714175, -0.4390948333059814], "biases": [-0.25016092902717807, -0.04637846624192926, 1.2901103974132953, -1.9758541494972335, 1.4225440046213953, -0.040515227972838776, 0.44573131223128587, -0.8786653838734222, -2.142670328549452, -1.0686685969736112, 1.666917789736239, -1.5626505065325826, 1.5224793062183382]}