{"generation": 185, "inputs": ["y", "yvel", "ypipe"], "outputs": ["jump"], "layers": [3, 4, 4, 1], "activation": "sigmoid", "ticks": 4876170, "time": 177.04472303390503, "weights": [0.3808247072817419, 0.5158488310206075, -0.07942529149106511, -0.7269924975884244, -0.8676265442594742, 0.8947543672192295, 0.6236146990965735, 0.30946982085986, -0.9623302637666024, -0.3777856472191668, 0.09407702575720638, 1.0035895632846108, 0.04449711110550382, -0.1844100189252488, -0.5476919225356068, -0.13538011474181427, 0.5907663646705799, 0.600861499674943, 0.7896814087696615, 0.20789921265145, 0.9681812415109803, -0.25004735525090693, -0.7564031906695943, -0.061386583483357904, -0.8169712712005983, 0.9375737087750806, 0.16400951882468554, -0.5367270019348824, 0.20290394687685673, -0.2124889687372487, -0.6892683213099774, 0.7499882811394515], "biases": [-0.12032258550033867, 0.609779092948431, -0.15208434513053984, -0.17047403968010566, -0.26375473027186064, -0.28185590741220273, -0.31070361593273466, 0.048081507460958045, -0.024402773595547704]}