{"generation": 158, "inputs": ["y", "yvel", "xpipe", "ypipe"], "outputs": ["jump"], "layers": [4, 4, 4, 4, 1], "activation": "sigmoid", "ticks": 1436697, "weights": [-0.24670474686000665, 0.4638868947215706, 2.1296805346661283, 0.35702764289793737, -0.6351588558546405, 0.12072938968641295, 0.9096346399893727, 0.6396631567655773, -1.1271205680374328, -0.13053791626983574, 0.7079097892435822, 0.3591133104606306, 0.7465744554825393, -0.09090064659593228, -0.5732424174564177, 0.7188331079210933, -0.5580021112218642, -1.0052999061901335, -1.291598083335281, 0.9006625293824351, 2.5074140697092218, 0.16233481112377304, 1.0136225994473507, 0.440380076546476, 0.8066213200907333, 0.020247046810064083, -0.7742685947250953, -0.008510021248391876, -0.8363096183809761, 0.12103626700213173, -0.24442536080496274, 1.49372283639519, -0.2192356555707336, 1.336503706117183, 1.1273946599524967, -0.256199040666362, 0.5982013742557605, 0.24065951540930405, -0.09232033034966924, -1.1004421992263964, -1.0839604486236805, 0.5922845434769325, 0.6853154978744677, 1.059553890976306, 1.7069870214209348, 0.44864007900595854, -0.7739104183424306, -1.1162099226225455, 1.0099280544542981, -1.1274736842454998, -0.9755469547714175, -0.46997232468899525], "biases": [-0.30684879098210155, -0.08108451354372057, 1.4197777702791008, -2.1527034356651056, 1.4568611122977688, 0.12936828728502467, 0.4032444788372561, -0.9128571587659846, -2.1339639090414333, -0.9785848845337238, 1.6506227964776072, -1.5591853921724121, 1.5801640204510645]}