{"generation": 138, "inputs": ["y", "yvel", "ypipe"], "outputs": ["jump"], "layers": [3, 4, 4, 1], "activation": "sigmoid", "ticks": 2217513, "time": 79.05355405807495, "weights": [0.368818879465953, 0.5083012252754142, -0.07942529149106511, -0.7839695411759182, -0.7485640172165093, 0.8947543672192295, 0.536377684409579, 0.3061953844733377, -0.9129946061467725, -0.38086661000714345, 0.09639292790113799, 1.0046520901425762, -0.03415231639096109, -0.20928636910263634, -0.502556037754828, -0.0893876056119243, 0.5919144177050936, 0.6050773026992304, 0.7825145338555844, 0.15600293576420474, 0.9964112761021953, -0.24769330374140686, -0.7064732742251995, -0.08641370580024646, -0.8567264466621929, 0.8238436741213979, 0.19310223575559635, -0.5214343956577862, 0.20290394687685673, -0.20874433508405765, -0.6646995980014876, 0.7339108326976418], "biases": [-0.10411010119133207, 0.6535838890090557, -0.2172517400340898, -0.25247341723604694, -0.28577646539641893, -0.07754883981104232, -0.18240199634470444, 0.05373991966914682, -9.903966251635643e-05]}