{"generation": 164, "inputs": ["y", "yvel", "xpipe", "ypipe"], "outputs": ["jump"], "layers": [4, 4, 4, 4, 1], "activation": "sigmoid", "ticks": 1491897, "weights": [-0.2521109825511998, 0.4638868947215706, 2.1296805346661283, 0.35702764289793737, -0.6351588558546405, 0.12072938968641295, 0.9158597549210533, 0.6396631567655773, -1.1271205680374328, -0.13053791626983574, 0.7079097892435822, 0.3591133104606306, 0.7465744554825393, -0.09090064659593228, -0.5928053591809285, 0.6712933507276586, -0.5580021112218642, -0.9932719788693752, -1.291598083335281, 0.949226873153733, 2.5074140697092218, 0.16233481112377304, 1.0159438499170237, 0.440380076546476, 0.8066213200907333, 0.04228979044397633, -0.8113645359471956, -0.008510021248391876, -0.8363096183809761, 0.12103626700213173, -0.24442536080496274, 1.5206960005116714, -0.2008994174511865, 1.3601937174335974, 1.1273946599524967, -0.256199040666362, 0.5982013742557605, 0.24065951540930405, -0.11678720836606954, -1.1004421992263964, -1.118279440314656, 0.5922845434769325, 0.705398497240404, 1.059553890976306, 1.7069870214209348, 0.44864007900595854, -0.7739104183424306, -1.1162099226225455, 1.0099280544542981, -1.1274736842454998, -0.9755469547714175, -0.46997232468899525], "biases": [-0.35026110649037107, -0.08715278151885937, 1.4197777702791008, -2.095463069264282, 1.4568611122977688, 0.062008145103318334, 0.4032444788372561, -0.9128571587659846, -2.115530833820412, -0.9032557798355105, 1.632367293607, -1.622635926970277, 1.5801640204510645]}