{"generation": 1083, "inputs": ["y", "yvel", "ypipe"], "outputs": ["jump"], "layers": [3, 4, 4, 1], "activation": "sigmoid", "ticks": 54426298, "time": 3186.6319217681885, "weights": [0.42800108630616795, 0.48996059398918, -0.09174490284324836, -0.6185048640308896, -0.6137899459042746, 0.7142691936584586, 0.7427790604217784, 0.3901985225954539, -1.2804954126319823, -0.3664605418561401, 0.1128872699384778, 1.3220208017585398, -0.03660402424449703, -0.6121354438713649, -0.28661317822386145, 0.3152566781425231, 0.45968422380059765, 0.4567065296864674, 0.7910174545152744, 0.12573261388555806, 1.0563537605378115, -0.44505041098198106, -0.7307099639521424, 0.28939896222241135, -0.9526316696975822, 1.0598947885738474, 0.14614993185140204, -0.4964722242808943, 0.2086482660391811, -0.35975063790849215, -0.7375069395856326, 0.8452837667453945], "biases": [-0.6742940202670732, 0.9271429118531752, -0.5439471180305558, 0.27466336873422725, -0.010143288672555734, -0.2168304116191493, -0.43192768283410277, 0.21877362328231947, -0.09692321245318344]}