{"generation": 270, "inputs": ["y", "yvel", "ypipe"], "outputs": ["jump"], "layers": [3, 4, 4, 1], "activation": "sigmoid", "ticks": 8056600, "time": 1201.051582813263, "weights": [0.2491478481500351, 0.5060813310862461, -0.07942529149106511, -0.7083272678974551, -0.8353669861209896, 0.8405672190756421, 0.6197000375019572, 0.27365287991918597, -0.9784442959886894, -0.3786538514567435, 0.1028859796313045, 0.965045138459982, 0.1253068354682849, -0.18951058257707293, -0.6337739514661827, 0.09653884794992723, 0.552072505132468, 0.5998771914996573, 0.8012142803576664, 0.20618882987297246, 1.0172830373080084, -0.3640286152194462, -0.775852573053998, -0.044231469308756266, -0.8182593354290116, 0.964122831174666, 0.1314629445356429, -0.5036301883092799, 0.19161056091169612, -0.2124889687372487, -0.7387792459256545, 0.7663020583987145], "biases": [-0.14378969729720406, 0.9086689758443063, -0.11244119262446597, 0.002903746408459848, -0.40410067402355376, -0.405705731097046, -0.25258606365148495, -0.18613539844664648, 0.006145285118398389]}