{"generation": 256, "inputs": ["y", "yvel", "ypipe"], "outputs": ["jump"], "layers": [3, 4, 4, 1], "activation": "sigmoid", "ticks": 7596523, "time": 1183.541719675064, "weights": [0.2567915214366815, 0.5060813310862461, -0.07942529149106511, -0.7444545450111523, -0.8353669861209896, 0.8257496665880908, 0.5830682429150228, 0.32099790891433616, -0.9545776623264577, -0.3786538514567435, 0.10301086196201487, 0.9889694348198597, 0.12482507823922298, -0.14714346164543415, -0.5841841666229336, 0.09653884794992723, 0.552072505132468, 0.5998771914996573, 0.8082820864604957, 0.20618882987297246, 1.0172830373080084, -0.3640286152194462, -0.7476262690615756, -0.044231469308756266, -0.8182593354290116, 0.964122831174666, 0.1314629445356429, -0.5036301883092799, 0.16843220315134963, -0.2124889687372487, -0.7088383736260537, 0.7663020583987145], "biases": [-0.13355870508338233, 0.8749894143539895, -0.07329239451021408, -0.013321619813228252, -0.4025298022965618, -0.40446210427422613, -0.27440300350765373, -0.182806306900023, 0.006145285118398389]}