{"generation": 232, "inputs": ["y", "yvel", "ypipe"], "outputs": ["jump"], "layers": [3, 4, 4, 1], "activation": "sigmoid", "ticks": 7077717, "time": 1163.4086730480194, "weights": [0.27188902124948383, 0.5060813310862461, -0.07942529149106511, -0.7712633902522671, -0.8959050763601772, 0.8525242049346223, 0.6090966893972386, 0.32099790891433616, -0.9726170806275285, -0.39851938709015894, 0.09407702575720638, 0.9527012825208698, 0.08750128979276879, -0.14714346164543415, -0.5969346890747705, -0.0032337672800192563, 0.5779251247383829, 0.5953035409804035, 0.8082820864604957, 0.1734555931994724, 0.9256960922950015, -0.33548462034178284, -0.749688485897005, -0.044231469308756266, -0.8169712712005983, 0.9485057614051605, 0.09268862698166383, -0.5367270019348824, 0.1626978691774201, -0.2124889687372487, -0.7088383736260537, 0.7663020583987145], "biases": [-0.15047429777570104, 0.7232082789571351, -0.04255358651452537, -0.028505103462325085, -0.41948646076447244, -0.3314431049287586, -0.3185184354083114, -0.1445715732939034, 0.006586973586491593]}