{"generation": 262, "inputs": ["y", "yvel", "xpipe", "ypipe"], "outputs": ["jump"], "layers": [4, 4, 4, 4, 1], "activation": "sigmoid", "ticks": 2393350, "weights": [-0.24262335828867276, 0.42589454157512957, 2.182613327374624, 0.3340985886867552, -0.6268462758684445, 0.16235005259409177, 0.8499059464592453, 0.6403314943560133, -1.106571317861341, -0.12266264119101651, 0.7377599833995517, 0.2152788628819268, 0.7783615785330772, -0.0959786815544044, -0.5402202844723285, 0.6973756359385931, -0.529523934949552, -1.0112112460188942, -1.3662152472730613, 1.0893199456582778, 2.6337704480087822, 0.2651960363198857, 1.1148959184804965, 0.43646939802923757, 0.820292955766752, 0.014056326973083032, -0.8272658116312166, 0.07346866376381792, -0.8741863001303156, 0.13491913893350363, -0.28547205914422713, 1.493747822778526, -0.30318005920514196, 1.3472796437127543, 1.2564609668305955, -0.21468385477048677, 0.5690878676919903, 0.20948722420653978, -0.1293447892753799, -1.0215616453104948, -1.155520958811752, 0.4585515227840965, 0.6952717345007933, 1.0427103742928547, 1.7022984000173191, 0.38655607894484123, -0.7766802799920101, -1.142668563263832, 0.9464775996404037, -1.1714330350708249, -0.9755469547714175, -0.5761529383842497], "biases": [-0.5056825710904547, -0.1306526917614615, 1.377231048108987, -2.0205681319804274, 1.3601673990006746, -0.08360955321439759, 0.6372937525556454, -1.1772177560015662, -2.0665657536577156, -0.9115637325544943, 1.5298000657681448, -1.7547870281273439, 1.6339943104101449]}