{"generation": 247, "inputs": ["y", "yvel", "xpipe", "ypipe"], "outputs": ["jump"], "layers": [4, 4, 4, 4, 1], "activation": "sigmoid", "ticks": 2255350, "weights": [-0.24262335828867276, 0.41678515920181136, 2.1499432035091637, 0.33713452245631353, -0.6302796304525808, 0.11360933821454058, 0.8574815495350817, 0.6403314943560133, -1.061545865221545, -0.12266264119101651, 0.7502671692318128, 0.25206011232443226, 0.7783615785330772, -0.0959786815544044, -0.5852600804076417, 0.6973756359385931, -0.5062170810713771, -1.0304422524238583, -1.3437474022086124, 1.0893199456582778, 2.6080611243330623, 0.19180344491300388, 1.1515783214922573, 0.3995240867496273, 0.8379005667434465, 0.08069120853834424, -0.8272658116312166, 0.031449168266493056, -0.8741863001303156, 0.13491913893350363, -0.24089025268832337, 1.493747822778526, -0.25925024461194834, 1.380915941603614, 1.2512045365368283, -0.2633292130855973, 0.6266347992032142, 0.20948722420653978, -0.1293447892753799, -1.0215616453104948, -1.1672800700180026, 0.5180060360238659, 0.6952717345007933, 1.0427103742928547, 1.7022984000173191, 0.4174206282613051, -0.748177658910314, -1.142668563263832, 0.9464775996404037, -1.1714330350708249, -0.9755469547714175, -0.5761529383842497], "biases": [-0.5481658323053541, -0.1410378176398807, 1.3861481763603747, -2.066045151348037, 1.4121467314471667, -0.060102742650071275, 0.6880586132446871, -1.1227407795080928, -2.051101311039398, -0.9715195533481497, 1.4422133104194916, -1.7295350045596822, 1.605351149790841]}