{"generation": 236, "inputs": ["y", "yvel", "ypipe"], "outputs": ["jump"], "layers": [3, 4, 4, 1], "activation": "sigmoid", "ticks": 7151798, "time": 1165.8468480110168, "weights": [0.27188902124948383, 0.5060813310862461, -0.07942529149106511, -0.7712633902522671, -0.9436543309554803, 0.8525242049346223, 0.6090966893972386, 0.32099790891433616, -0.951998336500654, -0.39851938709015894, 0.09407702575720638, 0.9527012825208698, 0.12482507823922298, -0.14714346164543415, -0.5969346890747705, -0.0032337672800192563, 0.5779251247383829, 0.612587967487364, 0.8082820864604957, 0.1734555931994724, 0.943423174178085, -0.3640286152194462, -0.749688485897005, -0.044231469308756266, -0.794345961565083, 0.9485057614051605, 0.09268862698166383, -0.5036301883092799, 0.1626978691774201, -0.2124889687372487, -0.7088383736260537, 0.7663020583987145], "biases": [-0.15928577832950253, 0.764283910782456, -0.05577065316100023, -0.028505103462325085, -0.41948646076447244, -0.3240887388471391, -0.2865439011025954, -0.1445715732939034, 0.006145285118398389]}