{"generation": 274, "inputs": ["y", "yvel", "xpipe", "ypipe"], "outputs": ["jump"], "layers": [4, 4, 4, 4, 1], "activation": "sigmoid", "ticks": 2503750, "weights": [-0.2910121373571136, 0.3616729497471344, 2.2695137975162236, 0.3340985886867552, -0.6268462758684445, 0.14232169638873526, 0.8499059464592453, 0.5961825926084303, -1.106571317861341, -0.07614803088919928, 0.7731237079192651, 0.2040920344599746, 0.7783615785330772, -0.0959786815544044, -0.5402202844723285, 0.6973756359385931, -0.5262055095007161, -0.9733642605104157, -1.3662152472730613, 1.0893199456582778, 2.5858229877850936, 0.2651960363198857, 1.1148959184804965, 0.43646939802923757, 0.820292955766752, 0.014056326973083032, -0.8450170485347387, 0.07346866376381792, -0.8741863001303156, 0.13491913893350363, -0.28547205914422713, 1.525463493881291, -0.2570093232832868, 1.3480690824230006, 1.2970069641517283, -0.2437157703967116, 0.5690878676919903, 0.20948722420653978, -0.1293447892753799, -1.0215616453104948, -1.155520958811752, 0.39650771007836816, 0.7045325508859748, 1.0427103742928547, 1.7525853573519306, 0.38655607894484123, -0.7766802799920101, -1.1519930656822868, 0.9573126126205417, -1.2187017599754244, -0.9755469547714175, -0.5481279153671661], "biases": [-0.4573734209150586, -0.16926187151220135, 1.406248789267978, -1.9571568420929415, 1.3696032679324404, -0.08360955321439759, 0.5959617069461869, -1.2186477070335406, -2.0917383782894787, -0.928283664825062, 1.5550768455650206, -1.7686820214148975, 1.6740864093102803]}