{"generation": 26, "inputs": ["y", "yvel", "xpipe", "ypipe"], "outputs": ["jump"], "layers": [4, 4, 4, 4, 1], "activation": "sigmoid", "ticks": 233033, "weights": [-0.313095386198732, 0.5047532984037667, 2.0547278169566576, 0.5013471229031635, -0.5961972423624615, -0.028022153235000707, 0.9061784338973081, 0.6615709925812162, -1.061646980845095, -0.20067310286226317, 0.5674793356190091, 0.2364141913109777, 0.8773503853860397, -0.030706844019817242, -0.5789538760649102, 0.6772893284378688, -0.5632817253543575, -0.9082196740805393, -1.3180951539605315, 0.9156151147905396, 2.402074399828431, 0.2935954067373189, 1.1464533504302203, 0.5435687560044727, 0.8142486635048455, 0.13366311739859105, -0.6272015901735266, -0.12369961843886433, -0.8853440745353166, 0.13645415318348836, -0.09453913237681036, 1.5121698992484895, -0.3282407021222631, 1.2532392093403042, 1.0990416939368801, -0.17075389521916937, 0.6589675454549481, 0.17196120817641508, -0.1324823088371643, -1.0621848456080725, -0.9935239244113088, 0.7126530424814588, 0.6605278949640009, 1.1346599799536792, 1.6537160817766288, 0.43623766502224604, -0.7774617396001084, -1.101813528089377, 1.1466367308527277, -1.051908611389092, -1.0041715379686014, -0.40461019830180817], "biases": [-0.24762345919549406, 0.2307249192932416, 1.2457950314681354, -2.1343464784223363, 1.5181004123314117, 0.02356603276592488, 0.40561530975311566, -0.735061894855296, -2.2218874213753956, -0.8477586741217111, 1.4980050686457476, -1.4064008815050348, 1.462865283877655]}