{"generation": 224, "inputs": ["y", "yvel", "ypipe"], "outputs": ["jump"], "layers": [3, 4, 4, 1], "activation": "sigmoid", "ticks": 6925307, "time": 1156.7848649024963, "weights": [0.30926323587539567, 0.5060813310862461, -0.07942529149106511, -0.7269924975884244, -0.8959050763601772, 0.8525242049346223, 0.6090966893972386, 0.3265093647280324, -0.9726170806275285, -0.39941960849988084, 0.09407702575720638, 0.9382852986312289, 0.08750128979276879, -0.14714346164543415, -0.6011826985212178, -0.0519234772108961, 0.5793284998408679, 0.6246603641765273, 0.8082820864604957, 0.1734555931994724, 0.9587328498482262, -0.2938454018858616, -0.749688485897005, -0.044231469308756266, -0.8169712712005983, 0.9375737087750806, 0.1286415113887341, -0.5367270019348824, 0.1626978691774201, -0.2124889687372487, -0.6892683213099774, 0.7663020583987145], "biases": [-0.1105797924791589, 0.6856923916672648, -0.0922261174516014, -0.040555310622399164, -0.2648101308272706, -0.3314431049287586, -0.31083395220663607, -0.16145901367983173, 0.006586973586491593]}