{"generation": 206, "inputs": ["y", "yvel", "ypipe"], "outputs": ["jump"], "layers": [3, 4, 4, 1], "activation": "sigmoid", "ticks": 6064637, "time": 224.035658121109, "weights": [0.3497411557864257, 0.5060813310862461, -0.07942529149106511, -0.7269924975884244, -0.8544427911897534, 0.8786645707814389, 0.6090966893972386, 0.32425539728626995, -0.9288220687409681, -0.3777856472191668, 0.09407702575720638, 1.0035895632846108, 0.06751196559452677, -0.1746149769140703, -0.5456186884783096, -0.0979991732120237, 0.5907663646705799, 0.600861499674943, 0.8003668901824588, 0.19804683787671742, 0.9587328498482262, -0.2784213713916263, -0.7564031906695943, -0.05936986118369475, -0.8169712712005983, 0.9375737087750806, 0.1286415113887341, -0.5367270019348824, 0.1626978691774201, -0.2124889687372487, -0.6892683213099774, 0.7488551532545905], "biases": [-0.0637025025180462, 0.6272756783225149, -0.14362419657010533, -0.1202362040770513, -0.249246277534127, -0.3089683289660073, -0.3469892707542701, -0.06486022741911152, 0.0020934114240421103]}