{"generation": 253, "inputs": ["y", "yvel", "ypipe"], "outputs": ["jump"], "layers": [3, 4, 4, 1], "activation": "sigmoid", "ticks": 7501807, "time": 1180.0511128902435, "weights": [0.2567915214366815, 0.5060813310862461, -0.07942529149106511, -0.7444545450111523, -0.8353669861209896, 0.8257496665880908, 0.6090966893972386, 0.32099790891433616, -0.9545776623264577, -0.3786538514567435, 0.10301086196201487, 0.9495805849214924, 0.12482507823922298, -0.14714346164543415, -0.5873694514188392, 0.09653884794992723, 0.552072505132468, 0.5998771914996573, 0.8082820864604957, 0.1734555931994724, 1.0172830373080084, -0.3640286152194462, -0.7476262690615756, -0.044231469308756266, -0.8182593354290116, 0.964122831174666, 0.1314629445356429, -0.5036301883092799, 0.1626978691774201, -0.2124889687372487, -0.7088383736260537, 0.7663020583987145], "biases": [-0.12754869801552968, 0.8387326126487779, -0.07329239451021408, 0.018277730391953944, -0.4025298022965618, -0.42783465811853755, -0.27440300350765373, -0.16940143623827827, 0.006145285118398389]}