{"generation": 232, "inputs": ["y", "yvel", "xpipe", "ypipe"], "outputs": ["jump"], "layers": [4, 4, 4, 4, 1], "activation": "sigmoid", "ticks": 2117497, "weights": [-0.24262335828867276, 0.4084818004828281, 2.1677089506762206, 0.33526246755711686, -0.5681956590754181, 0.1255106549259468, 0.8272913263457676, 0.6403314943560133, -1.0693532620267419, -0.12266264119101651, 0.7502671692318128, 0.2822740434802992, 0.7783615785330772, -0.09090064659593228, -0.5613115282527716, 0.7076738137394447, -0.4662477089056094, -1.0346517297947058, -1.3183231179444468, 1.0228722828942258, 2.6080611243330623, 0.19180344491300388, 1.114686932737865, 0.40594815194978373, 0.8367552375941356, 0.08069120853834424, -0.8272658116312166, 0.031449168266493056, -0.8343616649091038, 0.13491913893350363, -0.2155310587115556, 1.493747822778526, -0.2587215698872823, 1.369162408968736, 1.2179006370693277, -0.2176462363070887, 0.6266347992032142, 0.1872469291798956, -0.1293447892753799, -1.0215616453104948, -1.1240315095672135, 0.5180060360238659, 0.6952717345007933, 1.0427103742928547, 1.7022984000173191, 0.3807164489877478, -0.748177658910314, -1.117041914950697, 0.9817830484220945, -1.1714330350708249, -0.9755469547714175, -0.5761529383842497], "biases": [-0.4959078286256951, -0.15122104039007528, 1.3750547450753623, -2.0844685449881952, 1.3787357745821784, 0.07592479879636357, 0.7687428147985919, -1.0255462598369065, -2.0144095275260434, -0.9713272465746994, 1.519977354771093, -1.6413680751721607, 1.5732529825255874]}