{"generation": 287, "inputs": ["y", "yvel", "ypipe"], "outputs": ["jump"], "layers": [3, 4, 4, 1], "activation": "sigmoid", "ticks": 8650558, "time": 1221.9883708953857, "weights": [0.2491478481500351, 0.4927758090054519, -0.07942529149106511, -0.7226000198435903, -0.8062637006184572, 0.8736841666155648, 0.645078138866959, 0.24861698910278965, -1.0033290207165417, -0.3786538514567435, 0.10338844082114514, 0.965045138459982, 0.1253068354682849, -0.2654462883399335, -0.5528388136232881, 0.10476085316586342, 0.5768682896210212, 0.5753135299197103, 0.8431882463969884, 0.16774479149879196, 0.9825563841802241, -0.3775595487271231, -0.775852573053998, -0.044231469308756266, -0.8271408649694849, 0.9624395708805209, 0.1314629445356429, -0.5036301883092799, 0.1891549341474473, -0.2124889687372487, -0.7725871145050618, 0.7663020583987145], "biases": [-0.20491281807437328, 0.8995015668131895, -0.11906221013882357, 0.037904924980414846, -0.40986781246343457, -0.4192195693780362, -0.27164950286167044, -0.13105059072307707, 0.006145285118398389]}