{"generation": 277, "inputs": ["y", "yvel", "ypipe"], "outputs": ["jump"], "layers": [3, 4, 4, 1], "activation": "sigmoid", "ticks": 8285698, "time": 1209.6376059055328, "weights": [0.2491478481500351, 0.4927758090054519, -0.07942529149106511, -0.7226000198435903, -0.8062637006184572, 0.8736841666155648, 0.6197000375019572, 0.24861698910278965, -0.9784442959886894, -0.3786538514567435, 0.1028859796313045, 0.965045138459982, 0.1253068354682849, -0.18951058257707293, -0.5995131126253647, 0.09653884794992723, 0.552072505132468, 0.5998771914996573, 0.8012142803576664, 0.16774479149879196, 0.9825563841802241, -0.3628843726413528, -0.775852573053998, -0.044231469308756266, -0.8182593354290116, 0.964122831174666, 0.1314629445356429, -0.5036301883092799, 0.19161056091169612, -0.2124889687372487, -0.7725871145050618, 0.7663020583987145], "biases": [-0.15850664964604333, 0.9381733895217422, -0.14740664692375127, 0.026888425856351983, -0.40410067402355376, -0.44721211292971097, -0.27071834726494004, -0.13801696643713487, 0.006145285118398389]}