{"generation": 248, "inputs": ["y", "yvel", "ypipe"], "outputs": ["jump"], "layers": [3, 4, 4, 1], "activation": "sigmoid", "ticks": 7398508, "time": 1176.2834708690643, "weights": [0.2567915214366815, 0.5060813310862461, -0.07942529149106511, -0.7678207177195621, -0.8353669861209896, 0.8617746633193211, 0.6090966893972386, 0.32099790891433616, -0.9545776623264577, -0.39851938709015894, 0.10301086196201487, 0.9527012825208698, 0.12482507823922298, -0.14714346164543415, -0.5873694514188392, 0.09653884794992723, 0.5779251247383829, 0.612587967487364, 0.8082820864604957, 0.1734555931994724, 0.9515495999585043, -0.3640286152194462, -0.749688485897005, -0.044231469308756266, -0.8182593354290116, 0.964122831174666, 0.1314629445356429, -0.5036301883092799, 0.1626978691774201, -0.2124889687372487, -0.7088383736260537, 0.7663020583987145], "biases": [-0.12846000239628355, 0.7828597752571216, -0.11619746754179994, 0.018277730391953944, -0.4348186105553589, -0.42783465811853755, -0.2865439011025954, -0.18261450660348783, 0.006145285118398389]}