{"generation": 228, "inputs": ["y", "yvel", "xpipe", "ypipe"], "outputs": ["jump"], "layers": [4, 4, 4, 4, 1], "activation": "sigmoid", "ticks": 2080697, "weights": [-0.24262335828867276, 0.408102390189807, 2.1677089506762206, 0.33526246755711686, -0.5681956590754181, 0.1255106549259468, 0.8571996084253147, 0.6521671985073962, -1.0693532620267419, -0.12266264119101651, 0.7502671692318128, 0.3059164109189308, 0.7783615785330772, -0.09090064659593228, -0.5613115282527716, 0.7076738137394447, -0.4662477089056094, -1.0346517297947058, -1.3183231179444468, 1.02945648850617, 2.6080611243330623, 0.19180344491300388, 1.124876678043289, 0.40594815194978373, 0.8367552375941356, 0.04228979044397633, -0.8130245663544619, 0.05004321963616866, -0.8343616649091038, 0.13491913893350363, -0.2155310587115556, 1.4908396567795485, -0.2587215698872823, 1.369162408968736, 1.2179006370693277, -0.2176462363070887, 0.6266347992032142, 0.1872469291798956, -0.17796339843045672, -1.0215616453104948, -1.1240315095672135, 0.5180060360238659, 0.6952717345007933, 1.0427103742928547, 1.7022984000173191, 0.3807164489877478, -0.748177658910314, -1.117041914950697, 0.9817830484220945, -1.1274736842454998, -0.9755469547714175, -0.5761529383842497], "biases": [-0.4765423758530435, -0.15122104039007528, 1.3788577514569518, -2.0937428378319836, 1.4713362027337327, 0.07592479879636357, 0.7319630863019032, -0.9760079386260294, -2.0146776574214065, -0.9713272465746994, 1.5585045700979412, -1.6272688550908414, 1.5732529825255874]}