{"generation": 294, "inputs": ["y", "yvel", "ypipe"], "outputs": ["jump"], "layers": [3, 4, 4, 1], "activation": "sigmoid", "ticks": 8841833, "time": 1229.59619474411, "weights": [0.29586795140956507, 0.4927758090054519, -0.09071866881080337, -0.7226000198435903, -0.8062637006184572, 0.8736841666155648, 0.645078138866959, 0.24861698910278965, -1.0247183344386257, -0.3786538514567435, 0.10338844082114514, 0.965045138459982, 0.107001765250113, -0.2654462883399335, -0.5818027145476792, 0.10476085316586342, 0.5768682896210212, 0.5753135299197103, 0.8431882463969884, 0.09185524428050279, 0.9825563841802241, -0.3644438256826396, -0.775852573053998, -0.044231469308756266, -0.8271408649694849, 0.9624395708805209, 0.101555294483027, -0.5036301883092799, 0.1891549341474473, -0.2124889687372487, -0.7725871145050618, 0.7648260421904006], "biases": [-0.20491281807437328, 0.8906217989420713, -0.1799073439235855, 0.033012958998882236, -0.38972830364095895, -0.4688443531551268, -0.27510824628507907, -0.12813502621717981, 0.006145285118398389]}