{"generation": 299, "inputs": ["y", "yvel", "ypipe"], "outputs": ["jump"], "layers": [3, 4, 4, 1], "activation": "sigmoid", "ticks": 9012445, "time": 1236.1470198631287, "weights": [0.27770566428390475, 0.4927758090054519, -0.09071866881080337, -0.7226000198435903, -0.8062637006184572, 0.8736841666155648, 0.645078138866959, 0.24861698910278965, -1.0247183344386257, -0.3786538514567435, 0.10338844082114514, 0.965045138459982, 0.107001765250113, -0.2654462883399335, -0.5456320959609805, 0.10476085316586342, 0.5768682896210212, 0.5753135299197103, 0.8431882463969884, 0.1105039695608047, 1.0163257511882482, -0.3644438256826396, -0.775852573053998, -0.044231469308756266, -0.8642129144792611, 0.9624395708805209, 0.13585921911369542, -0.5036301883092799, 0.1891549341474473, -0.2124889687372487, -0.7725871145050618, 0.7648260421904006], "biases": [-0.18496125450832468, 0.8906217989420713, -0.21819933335835395, 0.033012958998882236, -0.4282962610615602, -0.4688443531551268, -0.30037471812080435, -0.12813502621717981, 0.006145285118398389]}