{"generation": 282, "inputs": ["y", "yvel", "ypipe"], "outputs": ["jump"], "layers": [3, 4, 4, 1], "activation": "sigmoid", "ticks": 8459974, "time": 1215.4481558799744, "weights": [0.2491478481500351, 0.4927758090054519, -0.07942529149106511, -0.7226000198435903, -0.8062637006184572, 0.8736841666155648, 0.6197000375019572, 0.24861698910278965, -1.0033290207165417, -0.3786538514567435, 0.1028859796313045, 0.965045138459982, 0.1253068354682849, -0.2654462883399335, -0.5995131126253647, 0.10476085316586342, 0.552072505132468, 0.5998771914996573, 0.8012142803576664, 0.16774479149879196, 0.9825563841802241, -0.3775595487271231, -0.775852573053998, -0.044231469308756266, -0.8182593354290116, 0.964122831174666, 0.1314629445356429, -0.5036301883092799, 0.1891549341474473, -0.2124889687372487, -0.7725871145050618, 0.7663020583987145], "biases": [-0.18585794541902312, 0.8995015668131895, -0.11906221013882357, 0.026888425856351983, -0.41923476051665276, -0.44721211292971097, -0.27071834726494004, -0.1286600199044387, 0.006145285118398389]}