{"generation": 289, "inputs": ["y", "yvel", "xpipe", "ypipe"], "outputs": ["jump"], "layers": [4, 4, 4, 4, 1], "activation": "sigmoid", "ticks": 2641750, "weights": [-0.2910121373571136, 0.34209823903525316, 2.2714902241600936, 0.33250449357484396, -0.6268462758684445, 0.11528251878370054, 0.8499059464592453, 0.5961825926084303, -1.106571317861341, -0.07217742663467394, 0.8939434228119928, 0.26912546014950045, 0.8018908505249024, -0.0959786815544044, -0.5402202844723285, 0.7418291597114005, -0.5262055095007161, -0.9549455793894431, -1.3662152472730613, 1.1319050352491464, 2.5606660243739316, 0.2651960363198857, 1.1148959184804965, 0.43646939802923757, 0.820292955766752, 0.03908157719102647, -0.8450170485347387, 0.1023462071714747, -0.8741863001303156, 0.1671794796361003, -0.26603553181498735, 1.525463493881291, -0.2570093232832868, 1.3493277631759653, 1.2970069641517283, -0.2437157703967116, 0.5807638896180745, 0.23308008670016953, -0.1293447892753799, -0.9841545520700395, -1.1657708238794688, 0.40469809533302764, 0.7382308018553969, 1.0331501125926004, 1.7525853573519306, 0.38655607894484123, -0.7766802799920101, -1.147561109919081, 0.9549488769003968, -1.2187017599754244, -0.9755469547714175, -0.4810747163169361], "biases": [-0.38332704213568247, -0.1481594572078807, 1.4592496134590114, -2.058310993144478, 1.3680477669060578, -0.13297504121171355, 0.4910840957895093, -1.2856626113452014, -2.1040874116323467, -0.9025517873169343, 1.5697552496588867, -1.790237779502127, 1.6740864093102803]}