{"generation": 394, "inputs": ["y", "yvel", "ypipe"], "outputs": ["jump"], "layers": [3, 4, 4, 1], "activation": "sigmoid", "ticks": 13498639, "time": 1584.2752227783203, "weights": [0.27325608354367653, 0.4975290363675162, -0.1025097853092822, -0.6273233081874029, -0.6940772331248201, 0.6801860047562819, 0.5893037382565617, 0.2040589621096936, -1.0047925037661407, -0.3660610336932057, 0.10338844082114514, 1.0246313424949562, 0.07939346746567624, -0.31525987644386483, -0.5992256144805501, 0.2981626976089084, 0.641511026069558, 0.4338022043202453, 0.803186861111341, 0.12717862350779738, 1.0225638178284808, -0.4238839852983452, -0.8856221567396337, -0.04048788341730525, -0.8854608609265815, 1.0406688265989588, 0.08200015835689224, -0.5494945091823594, 0.18498562850797876, -0.3050740143195844, -0.8103460490440237, 0.846121233949305], "biases": [-0.17053851775661497, 0.6901478737926136, -0.19802299659634365, 0.1082842391700825, -0.3161228926835749, -0.44887806092852334, -0.3093539710380801, -0.072062493413459, 0.03597104687966123]}