{"generation": 365, "inputs": ["y", "yvel", "ypipe"], "outputs": ["jump"], "layers": [3, 4, 4, 1], "activation": "sigmoid", "ticks": 12034245, "time": 1345.934473991394, "weights": [0.2960286783609826, 0.49060295773455537, -0.1025097853092822, -0.6718144745505871, -0.6940772331248201, 0.8122202146705029, 0.5893037382565617, 0.2040589621096936, -0.9363716962340022, -0.3660610336932057, 0.10338844082114514, 1.0246313424949562, 0.12517526883631766, -0.24756246694178494, -0.6255512696678496, 0.2658561930109954, 0.641511026069558, 0.4478891738831416, 0.7972381464952449, 0.15550111759945956, 1.0180002181226309, -0.4238839852983452, -0.7915498944036983, -0.038827457045436685, -0.9168883441401412, 0.9799553091886237, 0.1094241357185794, -0.5494945091823594, 0.18498562850797876, -0.2507490437315369, -0.7842410541505995, 0.846121233949305], "biases": [-0.20382308566041707, 0.7607941760796745, -0.25378630456055495, 0.07753654712941932, -0.31021066738904335, -0.4596361527216049, -0.2911260081910313, -0.10414461301900033, 0.006633701747503967]}