{"generation": 329, "inputs": ["y", "yvel", "xpipe", "ypipe"], "outputs": ["jump"], "layers": [4, 4, 4, 4, 1], "activation": "sigmoid", "ticks": 3009750, "weights": [-0.3287500329378388, 0.31962627776738306, 2.3471963212782745, 0.3149074926824561, -0.604029568032946, 0.11528251878370054, 0.8670687102540506, 0.5585979406365489, -1.106571317861341, -0.07217742663467394, 0.9100136611242072, 0.3123016898196915, 0.778360769258993, -0.0959786815544044, -0.5869836055240227, 0.7601138001598708, -0.5607804742235927, -0.968761888689184, -1.3554235001418444, 1.1462012244816582, 2.549214985663885, 0.2651960363198857, 1.133424212943629, 0.3715245202195707, 0.7877651313880447, 0.09828631498612685, -0.8914321353643331, 0.14159094943169837, -0.822212072917314, 0.14645174819038836, -0.26603553181498735, 1.5430700900252827, -0.17404245537417948, 1.3625966839095656, 1.24289667867088, -0.16975010263816165, 0.541934313871165, 0.19481694195531496, -0.08363233557479646, -1.0252505986881495, -1.113196637988886, 0.4267100358072557, 0.8005367268366866, 1.125045264463909, 1.7901192778159611, 0.34475011718466736, -0.8790613023983256, -1.147561109919081, 0.9322962458107753, -1.2317672563748607, -0.9755469547714175, -0.4775659811345668], "biases": [-0.42872200424115225, -0.12861661874998728, 1.565210528143273, -2.267625714128884, 1.25076912236121, -0.05464806056377662, 0.46120211737538763, -1.3445225035621327, -2.1462605924793112, -0.8266256414762561, 1.6158971900906276, -1.7119996146464058, 1.6856838253416173]}