{"generation": 390, "inputs": ["y", "yvel", "xpipe", "ypipe"], "outputs": ["jump"], "layers": [4, 4, 4, 4, 1], "activation": "sigmoid", "ticks": 3570950, "weights": [-0.34107550528751923, 0.30855567574240117, 2.3862598018508017, 0.29399921463804035, -0.67411124741465, 0.003715297857948722, 0.8480456145072374, 0.5590829834484469, -1.106571317861341, -0.03793609875370411, 0.8376745845110737, 0.368751210920557, 0.6218058526366019, -0.1356020975498457, -0.6735724568779626, 0.7319137871331033, -0.5926363538344868, -0.9754459108636119, -1.2831916176504166, 1.136196292549805, 2.5054251477576406, 0.3453572984037357, 1.1598800552295052, 0.32410030675265195, 0.8262970776813059, 0.006661383114194903, -0.872266541938202, 0.16713304282880803, -0.8725401073437326, 0.20358057040829086, -0.16038902228563226, 1.5186056233145964, -0.15555204724867844, 1.3579105864638346, 1.3166999023820025, -0.20820512870518507, 0.6046196128960547, 0.20135183433553105, -0.011022347376753908, -1.0046700576242933, -1.0898652756235236, 0.38832206348966003, 0.8206950053746873, 1.0835774248977805, 1.8659660372256768, 0.3682226122260905, -0.9153031747992136, -1.1625213005021453, 1.0095923209949296, -1.2317672563748607, -0.9755469547714175, -0.590718609225833], "biases": [-0.46758536256846167, -0.18946108359226238, 1.4514795945612005, -2.2260015962458977, 1.4572774469682968, -0.06088384247568787, 0.5281520482426417, -1.3801310356799448, -1.9810684055163166, -0.8234849293618502, 1.8081469856967674, -1.5982208078786488, 1.6784119406480598]}