{"generation": 314, "inputs": ["y", "yvel", "ypipe"], "outputs": ["jump"], "layers": [3, 4, 4, 1], "activation": "sigmoid", "ticks": 9604004, "time": 1257.3959138393402, "weights": [0.27770566428390475, 0.4816485808783923, -0.09071866881080337, -0.7226000198435903, -0.8015203726338664, 0.8473162217618443, 0.645078138866959, 0.24861698910278965, -0.9591071184879991, -0.3660610336932057, 0.10338844082114514, 0.964698289759742, 0.1304943014203048, -0.25142302858840165, -0.5689682924136283, 0.15130757780299514, 0.538410232528298, 0.5285441396524367, 0.8250547949822813, 0.12311946137896679, 1.0163257511882482, -0.3644438256826396, -0.775852573053998, -0.044231469308756266, -0.8642129144792611, 1.016659003770701, 0.11564935510564286, -0.5191249051993738, 0.1891549341474473, -0.2507490437315369, -0.7415520393831615, 0.8122392128542837], "biases": [-0.09917782660141009, 0.8570007957278146, -0.21126593948550093, -0.006674182181203171, -0.39229619711858094, -0.4998723034935218, -0.22339771693527677, -0.082127799674927, 0.006145285118398389]}