{"generation": 371, "inputs": ["y", "yvel", "ypipe"], "outputs": ["jump"], "layers": [3, 4, 4, 1], "activation": "sigmoid", "ticks": 12368047, "time": 1532.9443638324738, "weights": [0.2960286783609826, 0.49060295773455537, -0.1025097853092822, -0.6718144745505871, -0.6940772331248201, 0.8122202146705029, 0.5893037382565617, 0.2040589621096936, -0.9595718508183515, -0.3660610336932057, 0.10338844082114514, 1.0246313424949562, 0.12517526883631766, -0.29124022908421365, -0.6255512696678496, 0.2386015921193418, 0.641511026069558, 0.4478891738831416, 0.7986942589506907, 0.15550111759945956, 1.0304053386898502, -0.4238839852983452, -0.7915498944036983, -0.026585722073357854, -0.8863782885977219, 1.0157544132375076, 0.1110040694328646, -0.5494945091823594, 0.18498562850797876, -0.2507490437315369, -0.758985056341843, 0.846121233949305], "biases": [-0.20382308566041707, 0.7607941760796745, -0.27043712753553173, 0.0675541775011489, -0.3380424939644001, -0.4553248060345181, -0.2911260081910313, -0.10414461301900033, 0.006633701747503967]}