{"generation": 322, "inputs": ["y", "yvel", "ypipe"], "outputs": ["jump"], "layers": [3, 4, 4, 1], "activation": "sigmoid", "ticks": 10000595, "time": 1270.5127999782562, "weights": [0.29704034732714707, 0.479573827749318, -0.09071866881080337, -0.7226000198435903, -0.8164975386188528, 0.8542293214554447, 0.6716616213290074, 0.2034660930391225, -0.9167203008431832, -0.3660610336932057, 0.10338844082114514, 0.964698289759742, 0.1304943014203048, -0.25142302858840165, -0.5689682924136283, 0.18715156173316058, 0.5672279855259984, 0.48434505117738164, 0.8250547949822813, 0.12311946137896679, 1.0125853793325221, -0.3644438256826396, -0.775852573053998, -0.044231469308756266, -0.8310669366885192, 0.990971688605166, 0.11564935510564286, -0.5191249051993738, 0.1891549341474473, -0.2507490437315369, -0.7415520393831615, 0.8122392128542837], "biases": [-0.06008134306612934, 0.8795201550693402, -0.18995140149425443, 0.02256114365592803, -0.39723096241531725, -0.5818225664359663, -0.24081658323304023, -0.12215928741446572, 0.006145285118398389]}