{"generation": 383, "inputs": ["y", "yvel", "ypipe"], "outputs": ["jump"], "layers": [3, 4, 4, 1], "activation": "sigmoid", "ticks": 12974172, "time": 1560.0979278087616, "weights": [0.27325608354367653, 0.48969237166191315, -0.1025097853092822, -0.6273233081874029, -0.6940772331248201, 0.6801860047562819, 0.5893037382565617, 0.2040589621096936, -0.98434142521931, -0.3660610336932057, 0.10338844082114514, 1.0246313424949562, 0.12517526883631766, -0.31525987644386483, -0.6255512696678496, 0.2981626976089084, 0.641511026069558, 0.47048047429649326, 0.803186861111341, 0.12281494420574404, 1.0304053386898502, -0.4238839852983452, -0.7915498944036983, -0.035050571494371796, -0.885854001712777, 1.0157544132375076, 0.1239644803739643, -0.5494945091823594, 0.18498562850797876, -0.2507490437315369, -0.8199149172189208, 0.846121233949305], "biases": [-0.204208655340516, 0.7310076027306491, -0.24432876120395355, 0.1267380620604756, -0.3549304077282937, -0.4134623741169402, -0.27273158504631223, -0.013402226881697649, 0.006633701747503967]}