{"generation": 39, "inputs": ["y", "yvel", "xpipe", "ypipe"], "outputs": ["jump"], "layers": [4, 4, 4, 4, 1], "activation": "sigmoid", "ticks": 349105, "weights": [-0.313095386198732, 0.5047532984037667, 2.0547278169566576, 0.4962945410812198, -0.6065301663606103, 0.010066634785723158, 0.9061784338973081, 0.6151026876617154, -1.061646980845095, -0.15475654083731438, 0.5918779563561081, 0.21580477397882455, 0.8111233101993646, -0.04586900361775968, -0.5608482799213709, 0.6484636069333484, -0.5632817253543575, -0.8686256085729608, -1.3234997642476487, 0.9003651032415952, 2.3999814706167526, 0.2935954067373189, 1.0633739950948085, 0.4984210192874653, 0.8220239346822746, 0.12070605351873073, -0.6451339644004799, -0.1028969377232765, -0.8853440745353166, 0.13645415318348836, -0.12706627156495642, 1.5121698992484895, -0.3282407021222631, 1.2532392093403042, 1.0990416939368801, -0.13458740327303093, 0.6589675454549481, 0.1932633827078153, -0.1324823088371643, -1.0621848456080725, -1.0030152379710173, 0.7126530424814588, 0.6894261770251737, 1.1403930259919546, 1.6928492020144983, 0.43623766502224604, -0.7774617396001084, -1.070662361185965, 1.1466367308527277, -1.0863057809751295, -1.0041715379686014, -0.4435171864779228], "biases": [-0.24248744665212935, 0.12749746807278217, 1.2457950314681354, -2.080279484036761, 1.4329124997493488, -0.02353410070315306, 0.352108266170049, -0.6487523138579998, -2.2392538418330306, -0.815200905292772, 1.5194650718759024, -1.4043399993981875, 1.506409007567852]}