{"generation": 324, "inputs": ["y", "yvel", "ypipe"], "outputs": ["jump"], "layers": [3, 4, 4, 1], "activation": "sigmoid", "ticks": 10104804, "time": 1274.477924823761, "weights": [0.29704034732714707, 0.479573827749318, -0.09071866881080337, -0.6940198047100641, -0.8164975386188528, 0.8542293214554447, 0.6716616213290074, 0.2034660930391225, -0.9167203008431832, -0.3660610336932057, 0.10338844082114514, 1.0041042985696902, 0.1304943014203048, -0.25142302858840165, -0.5689682924136283, 0.18715156173316058, 0.5672279855259984, 0.48434505117738164, 0.8250547949822813, 0.15778519661413484, 1.0125853793325221, -0.3644438256826396, -0.775852573053998, -0.044231469308756266, -0.8488942485735614, 0.990971688605166, 0.11564935510564286, -0.5191249051993738, 0.1891549341474473, -0.2507490437315369, -0.7415520393831615, 0.8122392128542837], "biases": [-0.06008134306612934, 0.9264365512671746, -0.19012297840513304, 0.02256114365592803, -0.36846269015851085, -0.5818225664359663, -0.24081658323304023, -0.12215928741446572, 0.006145285118398389]}