{"generation": 36, "inputs": ["y", "yvel", "xpipe", "ypipe"], "outputs": ["jump"], "layers": [4, 4, 4, 4, 1], "activation": "sigmoid", "ticks": 322534, "weights": [-0.313095386198732, 0.5047532984037667, 2.0547278169566576, 0.4962945410812198, -0.6065301663606103, 0.010066634785723158, 0.9061784338973081, 0.6151026876617154, -1.061646980845095, -0.15475654083731438, 0.5918779563561081, 0.21580477397882455, 0.8554254056651978, -0.04586900361775968, -0.5462352104609547, 0.6484636069333484, -0.5632817253543575, -0.8686256085729608, -1.3671362731374488, 0.9003651032415952, 2.3999814706167526, 0.2935954067373189, 1.1001719407955337, 0.5435687560044727, 0.8220239346822746, 0.12070605351873073, -0.6429646594867693, -0.1028969377232765, -0.8853440745353166, 0.13645415318348836, -0.09453913237681036, 1.5121698992484895, -0.3282407021222631, 1.2532392093403042, 1.0990416939368801, -0.13458740327303093, 0.6589675454549481, 0.19717966280682087, -0.1324823088371643, -1.0621848456080725, -1.0030152379710173, 0.7126530424814588, 0.6894261770251737, 1.1346599799536792, 1.6928492020144983, 0.43623766502224604, -0.7774617396001084, -1.070662361185965, 1.1466367308527277, -1.0863057809751295, -1.0041715379686014, -0.4435171864779228], "biases": [-0.23731531459356292, 0.16004075048338057, 1.2457950314681354, -2.080279484036761, 1.4555699873721488, 0.007584749145990303, 0.3786585463929792, -0.7000319232367985, -2.2392538418330306, -0.815200905292772, 1.4841017517231587, -1.4043399993981875, 1.5046096278053502]}