{"generation": 361, "inputs": ["y", "yvel", "ypipe"], "outputs": ["jump"], "layers": [3, 4, 4, 1], "activation": "sigmoid", "ticks": 11841127, "time": 1339.0478839874268, "weights": [0.27652087210413395, 0.49060295773455537, -0.1025097853092822, -0.6718144745505871, -0.7223483529423671, 0.8122202146705029, 0.5893037382565617, 0.2040589621096936, -0.9363716962340022, -0.3660610336932057, 0.10338844082114514, 1.0246313424949562, 0.12517526883631766, -0.25142302858840165, -0.6255512696678496, 0.2658561930109954, 0.641511026069558, 0.4478891738831416, 0.7972381464952449, 0.15550111759945956, 1.0180002181226309, -0.4238839852983452, -0.7915498944036983, -0.05390436896977034, -0.895680572206096, 0.9799553091886237, 0.1094241357185794, -0.5494945091823594, 0.18498562850797876, -0.2507490437315369, -0.7842410541505995, 0.8122392128542837], "biases": [-0.20382308566041707, 0.7970813268957845, -0.25378630456055495, 0.07753654712941932, -0.3581542465051299, -0.4588711704386792, -0.2911260081910313, -0.10414461301900033, 0.018221933080961213]}