{"generation": 309, "inputs": ["y", "yvel", "xpipe", "ypipe"], "outputs": ["jump"], "layers": [4, 4, 4, 4, 1], "activation": "sigmoid", "ticks": 2825750, "weights": [-0.26984868321823346, 0.34209823903525316, 2.3174001352318685, 0.3048130003984042, -0.6126498583589308, 0.11528251878370054, 0.8670687102540506, 0.5886908635345847, -1.106571317861341, -0.07217742663467394, 0.9100136611242072, 0.25683640322741413, 0.8018908505249024, -0.0959786815544044, -0.5869836055240227, 0.7248403397484211, -0.538561953068763, -0.9355226915346744, -1.3662152472730613, 1.1666916811091756, 2.5126206203258685, 0.2651960363198857, 1.0929983326974466, 0.3715245202195707, 0.820292955766752, 0.09828631498612685, -0.8529900500558512, 0.08874512199816238, -0.8668418271596398, 0.1520791965459153, -0.26603553181498735, 1.5358666458118855, -0.22132990790411763, 1.3625966839095656, 1.2801638262338568, -0.2243970869614148, 0.541934313871165, 0.148302613139008, -0.11381666756214713, -0.938570588118313, -1.1377761477238402, 0.4267100358072557, 0.7772647574199217, 1.0331501125926004, 1.7901192778159611, 0.38655607894484123, -0.8142549790170942, -1.147561109919081, 0.9549488769003968, -1.2317672563748607, -0.9755469547714175, -0.5058499335339891], "biases": [-0.4659686608221035, -0.14514774443645495, 1.4334109103670545, -2.1413246942144553, 1.25076912236121, -0.12810668317246743, 0.5213351604552318, -1.3535974608903854, -2.1160760457463756, -0.8780584465023226, 1.5728798066641652, -1.7957869445525716, 1.6878301169204746]}