{"generation": 351, "inputs": ["y", "yvel", "xpipe", "ypipe"], "outputs": ["jump"], "layers": [4, 4, 4, 4, 1], "activation": "sigmoid", "ticks": 3212150, "weights": [-0.34441325406302487, 0.31962627776738306, 2.35051641982079, 0.2883140154437189, -0.6009644533081121, 0.09902548942068519, 0.8480456145072374, 0.5517922143004819, -1.106571317861341, -0.07217742663467394, 0.878852630790576, 0.2983019661135923, 0.7598165703286167, -0.0959786815544044, -0.6343403403988207, 0.7783319872965335, -0.5926363538344868, -0.9622231351437006, -1.3554235001418444, 1.1009707353504325, 2.5765992201113748, 0.2651960363198857, 1.128752124089579, 0.3715245202195707, 0.835700290999752, 0.0483629175606475, -0.8382642009657694, 0.14159094943169837, -0.8253181701519472, 0.20358057040829086, -0.26758560444238993, 1.506059176188862, -0.18674966281572702, 1.350662500414086, 1.2537197511383442, -0.17550637951289644, 0.5849563689390735, 0.1880097203537635, -0.08363233557479646, -1.0252505986881495, -1.1373430342960973, 0.38832206348966003, 0.8005367268366866, 1.125045264463909, 1.7901192778159611, 0.377785416820887, -0.8731200221768254, -1.1044582412997817, 0.9703177943879842, -1.2317672563748607, -0.9755469547714175, -0.5320373004510076], "biases": [-0.47415727436051136, -0.11326928888088271, 1.4983279602252115, -2.296348948474281, 1.335948215879388, -0.09456459700916539, 0.4824958348917475, -1.268409942547807, -2.044561227611269, -0.7846344095480395, 1.7382238022080037, -1.6597974913649547, 1.6856838253416173]}