{"generation": 396, "inputs": ["y", "yvel", "ypipe"], "outputs": ["jump"], "layers": [3, 4, 4, 1], "activation": "sigmoid", "ticks": 13613686, "time": 1589.708744764328, "weights": [0.27325608354367653, 0.4975290363675162, -0.1025097853092822, -0.6273233081874029, -0.6940772331248201, 0.6801860047562819, 0.582643132456206, 0.18442662573297325, -1.0047925037661407, -0.3660610336932057, 0.10338844082114514, 1.0246313424949562, 0.07939346746567624, -0.31525987644386483, -0.5992256144805501, 0.2981626976089084, 0.641511026069558, 0.4338022043202453, 0.803186861111341, 0.12717862350779738, 1.055329292463793, -0.4238839852983452, -0.8381844852923814, -0.04048788341730525, -0.8854608609265815, 1.0406688265989588, 0.08200015835689224, -0.5494945091823594, 0.18498562850797876, -0.3050740143195844, -0.8103460490440237, 0.846121233949305], "biases": [-0.2144294102148489, 0.6901478737926136, -0.21385105174783828, 0.09770118382183178, -0.3161228926835749, -0.44887806092852334, -0.3093539710380801, -0.072062493413459, 0.03597104687966123]}