{"generation": 302, "inputs": ["y", "yvel", "xpipe", "ypipe"], "outputs": ["jump"], "layers": [4, 4, 4, 4, 1], "activation": "sigmoid", "ticks": 2761350, "weights": [-0.2910121373571136, 0.34209823903525316, 2.310132509843272, 0.3048130003984042, -0.6268462758684445, 0.11528251878370054, 0.8670687102540506, 0.5961825926084303, -1.106571317861341, -0.07217742663467394, 0.8939434228119928, 0.25683640322741413, 0.8018908505249024, -0.0959786815544044, -0.5869836055240227, 0.7248403397484211, -0.5285386536887706, -0.9355226915346744, -1.3662152472730613, 1.1666916811091756, 2.5606660243739316, 0.2651960363198857, 1.1148959184804965, 0.3715245202195707, 0.820292955766752, 0.08840192054241913, -0.8226715215390856, 0.08874512199816238, -0.8668418271596398, 0.1671794796361003, -0.26603553181498735, 1.5358666458118855, -0.22132990790411763, 1.3408220711001984, 1.2970069641517283, -0.2243970869614148, 0.5901911719947242, 0.18755054039509933, -0.11381666756214713, -0.938570588118313, -1.1657708238794688, 0.4267100358072557, 0.8011900751899337, 1.0331501125926004, 1.7901192778159611, 0.38655607894484123, -0.8142549790170942, -1.147561109919081, 0.9549488769003968, -1.2538512653497678, -0.9755469547714175, -0.4818710362628165], "biases": [-0.4009950459838748, -0.0995314501215277, 1.4225297985655125, -2.081735869367175, 1.309450347116708, -0.12654088950448134, 0.48473998036607746, -1.2869747030456316, -2.0928086805400303, -0.8780584465023226, 1.5728798066641652, -1.7777755919267242, 1.6878301169204746]}