{"generation": 335, "inputs": ["y", "yvel", "ypipe"], "outputs": ["jump"], "layers": [3, 4, 4, 1], "activation": "sigmoid", "ticks": 10538700, "time": 1291.6536328792572, "weights": [0.27652087210413395, 0.479573827749318, -0.09071866881080337, -0.6940198047100641, -0.8099774002272778, 0.8542293214554447, 0.6377581829182026, 0.2034660930391225, -0.9172588669620976, -0.3660610336932057, 0.10338844082114514, 1.035008194860417, 0.09230432611540192, -0.25142302858840165, -0.6147397494412236, 0.19951876835049587, 0.5672279855259984, 0.4939782835794197, 0.8250547949822813, 0.15778519661413484, 1.0125853793325221, -0.4238839852983452, -0.775852573053998, -0.05390436896977034, -0.8706768853839411, 0.990971688605166, 0.11564935510564286, -0.48091593639341484, 0.1891549341474473, -0.2507490437315369, -0.7741660650747366, 0.8122392128542837], "biases": [-0.10636200146989142, 0.9117382440925742, -0.16180953597618214, 0.10233532182774951, -0.3580726417060003, -0.5150167382973843, -0.2385838721842091, -0.11107780389765354, 0.006145285118398389]}