{"generation": 340, "inputs": ["y", "yvel", "ypipe"], "outputs": ["jump"], "layers": [3, 4, 4, 1], "activation": "sigmoid", "ticks": 10751389, "time": 1299.2199358940125, "weights": [0.27652087210413395, 0.479573827749318, -0.09071866881080337, -0.6940198047100641, -0.8260644725210535, 0.8122202146705029, 0.6377581829182026, 0.2034660930391225, -0.9172588669620976, -0.3660610336932057, 0.10338844082114514, 0.9975676786600152, 0.09230432611540192, -0.25142302858840165, -0.6317585694612257, 0.19951876835049587, 0.6155255779902525, 0.4939782835794197, 0.7989966069530486, 0.15778519661413484, 1.0125853793325221, -0.4238839852983452, -0.7856845945598908, -0.05390436896977034, -0.895680572206096, 0.9799553091886237, 0.1094241357185794, -0.48091593639341484, 0.1891549341474473, -0.2507490437315369, -0.7741660650747366, 0.8122392128542837], "biases": [-0.10712477103696225, 0.8785026341687876, -0.16924139569597874, 0.03257184755955238, -0.3580726417060003, -0.5150167382973843, -0.21589974467456063, -0.11107780389765354, 0.010014703529781562]}