{"generation": 305, "inputs": ["y", "yvel", "ypipe"], "outputs": ["jump"], "layers": [3, 4, 4, 1], "activation": "sigmoid", "ticks": 9243831, "time": 1243.815672636032, "weights": [0.27770566428390475, 0.4927758090054519, -0.09071866881080337, -0.7226000198435903, -0.8062637006184572, 0.8736841666155648, 0.645078138866959, 0.24861698910278965, -0.998830400294068, -0.3786538514567435, 0.10338844082114514, 0.965045138459982, 0.107001765250113, -0.25142302858840165, -0.5456320959609805, 0.15130757780299514, 0.5768682896210212, 0.5629230963518541, 0.799527047214482, 0.07571208709235139, 1.0163257511882482, -0.3644438256826396, -0.775852573053998, -0.044231469308756266, -0.8642129144792611, 1.0006756095941665, 0.11988782259083303, -0.5036301883092799, 0.1891549341474473, -0.2507490437315369, -0.7350254514615252, 0.8122392128542837], "biases": [-0.18496125450832468, 0.8855397153763912, -0.20139294479847072, -0.04282044359742529, -0.4282962610615602, -0.4994001356565856, -0.2567241745522784, -0.10049730254221695, 0.006145285118398389]}