{"generation": 388, "inputs": ["y", "yvel", "ypipe"], "outputs": ["jump"], "layers": [3, 4, 4, 1], "activation": "sigmoid", "ticks": 13183599, "time": 1571.4339258670807, "weights": [0.27325608354367653, 0.4928366984533507, -0.1025097853092822, -0.6273233081874029, -0.6940772331248201, 0.6801860047562819, 0.5893037382565617, 0.2040589621096936, -1.0047925037661407, -0.3660610336932057, 0.10338844082114514, 1.0246313424949562, 0.12517526883631766, -0.31525987644386483, -0.6255512696678496, 0.2981626976089084, 0.641511026069558, 0.4452753539737683, 0.803186861111341, 0.12717862350779738, 1.0304053386898502, -0.4238839852983452, -0.8209802587284074, -0.024427785295370916, -0.885854001712777, 1.0406688265989588, 0.1239644803739643, -0.5494945091823594, 0.18498562850797876, -0.25642716507341784, -0.8103460490440237, 0.846121233949305], "biases": [-0.18357699565319055, 0.7310076027306491, -0.24007481733869254, 0.1082842391700825, -0.3549304077282937, -0.4134623741169402, -0.27273158504631223, -0.03903316769339904, 0.024197104964701482]}