{"generation": 352, "inputs": ["y", "yvel", "ypipe"], "outputs": ["jump"], "layers": [3, 4, 4, 1], "activation": "sigmoid", "ticks": 11314196, "time": 1319.890086889267, "weights": [0.27652087210413395, 0.49060295773455537, -0.09071866881080337, -0.6718144745505871, -0.7223483529423671, 0.8122202146705029, 0.6377581829182026, 0.2034660930391225, -0.9172588669620976, -0.3660610336932057, 0.10338844082114514, 0.9875783591674162, 0.09230432611540192, -0.25142302858840165, -0.6317585694612257, 0.2658561930109954, 0.6155255779902525, 0.4478891738831416, 0.8157087665180635, 0.18834375399585107, 0.9920678684683952, -0.4238839852983452, -0.8158145537120483, -0.05390436896977034, -0.895680572206096, 0.9799553091886237, 0.1094241357185794, -0.534416020812555, 0.18498562850797876, -0.2507490437315369, -0.7741660650747366, 0.8122392128542837], "biases": [-0.12747103422572026, 0.8335325932048105, -0.25378630456055495, 0.12453620111954505, -0.3581542465051299, -0.4905920361515772, -0.2498637203185503, -0.11107780389765354, 0.018221933080961213]}