{"generation": 301, "inputs": ["y", "yvel", "ypipe"], "outputs": ["jump"], "layers": [3, 4, 4, 1], "activation": "sigmoid", "ticks": 9090008, "time": 1238.845181941986, "weights": [0.27770566428390475, 0.4927758090054519, -0.09071866881080337, -0.7226000198435903, -0.8062637006184572, 0.8736841666155648, 0.645078138866959, 0.24861698910278965, -1.0247183344386257, -0.3786538514567435, 0.10338844082114514, 0.965045138459982, 0.107001765250113, -0.2654462883399335, -0.5456320959609805, 0.10476085316586342, 0.5768682896210212, 0.5629230963518541, 0.8431882463969884, 0.1105039695608047, 1.0163257511882482, -0.3644438256826396, -0.775852573053998, -0.044231469308756266, -0.8642129144792611, 1.0006756095941665, 0.13585921911369542, -0.5036301883092799, 0.1891549341474473, -0.2124889687372487, -0.7843821776753006, 0.8122392128542837], "biases": [-0.18496125450832468, 0.8906217989420713, -0.19627316827717572, 0.006869407806855108, -0.4282962610615602, -0.4688443531551268, -0.25332883691892005, -0.15299180059917253, 0.006145285118398389]}