{"generation": 331, "inputs": ["y", "yvel", "ypipe"], "outputs": ["jump"], "layers": [3, 4, 4, 1], "activation": "sigmoid", "ticks": 10384424, "time": 1286.0689978599548, "weights": [0.27652087210413395, 0.479573827749318, -0.09071866881080337, -0.6940198047100641, -0.8142182195919111, 0.8542293214554447, 0.6384350933125258, 0.2034660930391225, -0.9167203008431832, -0.3660610336932057, 0.10338844082114514, 1.035008194860417, 0.09230432611540192, -0.25142302858840165, -0.5689682924136283, 0.18715156173316058, 0.5672279855259984, 0.4939782835794197, 0.8250547949822813, 0.15778519661413484, 1.0125853793325221, -0.4238839852983452, -0.775852573053998, -0.044231469308756266, -0.8706768853839411, 0.990971688605166, 0.11564935510564286, -0.5151788241314867, 0.1891549341474473, -0.2507490437315369, -0.7741660650747366, 0.8122392128542837], "biases": [-0.07403330971221625, 0.938034667176988, -0.11993668217910246, 0.06641302065220941, -0.3210536946307162, -0.5292273062539183, -0.2430070286217582, -0.10047551814374227, 0.006145285118398389]}