{"generation": 311, "inputs": ["y", "yvel", "ypipe"], "outputs": ["jump"], "layers": [3, 4, 4, 1], "activation": "sigmoid", "ticks": 9485721, "time": 1252.3516080379486, "weights": [0.27770566428390475, 0.4816485808783923, -0.09071866881080337, -0.7226000198435903, -0.8015203726338664, 0.8473162217618443, 0.645078138866959, 0.24861698910278965, -0.998830400294068, -0.3660610336932057, 0.10338844082114514, 0.964698289759742, 0.107001765250113, -0.25142302858840165, -0.5689682924136283, 0.15130757780299514, 0.5768682896210212, 0.5629230963518541, 0.8250547949822813, 0.12311946137896679, 1.0163257511882482, -0.3644438256826396, -0.775852573053998, -0.044231469308756266, -0.8642129144792611, 1.0006756095941665, 0.11988782259083303, -0.5191249051993738, 0.1891549341474473, -0.2507490437315369, -0.7415520393831615, 0.8122392128542837], "biases": [-0.09917782660141009, 0.8570007957278146, -0.21982837296655044, -0.04282044359742529, -0.37888929974643837, -0.4998723034935218, -0.2623067291869429, -0.08935802491134975, 0.006145285118398389]}