{"generation": 378, "inputs": ["y", "yvel", "ypipe"], "outputs": ["jump"], "layers": [3, 4, 4, 1], "activation": "sigmoid", "ticks": 12731575, "time": 1549.9556407928467, "weights": [0.27325608354367653, 0.49060295773455537, -0.1025097853092822, -0.6718144745505871, -0.6940772331248201, 0.7303299090461495, 0.5893037382565617, 0.2040589621096936, -0.98434142521931, -0.3660610336932057, 0.10338844082114514, 1.0246313424949562, 0.12517526883631766, -0.29124022908421365, -0.6255512696678496, 0.2981626976089084, 0.641511026069558, 0.47048047429649326, 0.803186861111341, 0.15550111759945956, 1.0304053386898502, -0.4238839852983452, -0.7915498944036983, -0.02682137768781573, -0.885854001712777, 1.0157544132375076, 0.1239644803739643, -0.5494945091823594, 0.18498562850797876, -0.2507490437315369, -0.7946327599958212, 0.846121233949305], "biases": [-0.204208655340516, 0.7660133231457043, -0.2617052137145022, 0.08244676772833269, -0.3468426858315855, -0.4553248060345181, -0.27273158504631223, -0.05453297436792559, 0.006633701747503967]}