{"generation": 324, "inputs": ["y", "yvel", "xpipe", "ypipe"], "outputs": ["jump"], "layers": [4, 4, 4, 4, 1], "activation": "sigmoid", "ticks": 2963750, "weights": [-0.28362757240141334, 0.31962627776738306, 2.3471963212782745, 0.3149074926824561, -0.604029568032946, 0.11528251878370054, 0.8670687102540506, 0.5585979406365489, -1.106571317861341, -0.07217742663467394, 0.9100136611242072, 0.2885621943209914, 0.8018908505249024, -0.0959786815544044, -0.5869836055240227, 0.7226607313430091, -0.5607804742235927, -0.968761888689184, -1.3662152472730613, 1.1752893196855885, 2.549214985663885, 0.2651960363198857, 1.133424212943629, 0.3715245202195707, 0.8314637672298715, 0.09828631498612685, -0.8459049076533491, 0.14159094943169837, -0.822212072917314, 0.14645174819038836, -0.26603553181498735, 1.5430700900252827, -0.21804288595660704, 1.3625966839095656, 1.2801638262338568, -0.21430425565736827, 0.541934313871165, 0.19481694195531496, -0.12157653405305241, -1.0252505986881495, -1.113196637988886, 0.4267100358072557, 0.7772647574199217, 1.125045264463909, 1.7901192778159611, 0.36204571829902954, -0.8310864718046408, -1.147561109919081, 0.9322962458107753, -1.2317672563748607, -0.9755469547714175, -0.4775659811345668], "biases": [-0.4384318340140784, -0.11067496360012335, 1.5761731990811796, -2.224421733571986, 1.25076912236121, -0.03221366170224972, 0.46120211737538763, -1.3653999443540579, -2.122222058231264, -0.7989368174318792, 1.5916787731191977, -1.7119996146464058, 1.6856838253416173]}