{"generation": 375, "inputs": ["y", "yvel", "ypipe"], "outputs": ["jump"], "layers": [3, 4, 4, 1], "activation": "sigmoid", "ticks": 12577130, "time": 1542.198353767395, "weights": [0.2960286783609826, 0.49060295773455537, -0.1025097853092822, -0.6718144745505871, -0.6940772331248201, 0.7699476865338662, 0.5893037382565617, 0.2040589621096936, -0.98434142521931, -0.3660610336932057, 0.10338844082114514, 1.0246313424949562, 0.12517526883631766, -0.29124022908421365, -0.6255512696678496, 0.2386015921193418, 0.641511026069558, 0.4478891738831416, 0.803186861111341, 0.15550111759945956, 1.0304053386898502, -0.4238839852983452, -0.7915498944036983, -0.02682137768781573, -0.8863782885977219, 1.0157544132375076, 0.1239644803739643, -0.5494945091823594, 0.18498562850797876, -0.2507490437315369, -0.7946327599958212, 0.846121233949305], "biases": [-0.2170950832280378, 0.7756233504253541, -0.27043712753553173, 0.09961124171745339, -0.3380424939644001, -0.4553248060345181, -0.27273158504631223, -0.07650857851153497, 0.006633701747503967]}