{"generation": 370, "inputs": ["y", "yvel", "xpipe", "ypipe"], "outputs": ["jump"], "layers": [4, 4, 4, 4, 1], "activation": "sigmoid", "ticks": 3386950, "weights": [-0.321788871342285, 0.31962627776738306, 2.356983851120813, 0.2883140154437189, -0.6192401305847377, 0.02498593342284117, 0.8480456145072374, 0.5517922143004819, -1.106571317861341, -0.07217742663467394, 0.878852630790576, 0.32717789405585845, 0.6559586355464149, -0.0959786815544044, -0.6500788476633442, 0.7783319872965335, -0.5926363538344868, -0.9754459108636119, -1.314689354288814, 1.1009707353504325, 2.5322400561570584, 0.31380198796362113, 1.1396802434261473, 0.3715245202195707, 0.835700290999752, 0.006661383114194903, -0.8104990518400007, 0.14586178861994298, -0.8725401073437326, 0.20358057040829086, -0.16038902228563226, 1.5416302182555373, -0.17467615132218778, 1.3579105864638346, 1.3125987489646265, -0.17550637951289644, 0.5840400638996144, 0.1880097203537635, -0.08363233557479646, -1.0155737126667805, -1.1508270672284295, 0.38832206348966003, 0.8258701013859526, 1.125045264463909, 1.7901192778159611, 0.3682226122260905, -0.9099071426191365, -1.1525630329846905, 1.0095923209949296, -1.2317672563748607, -0.9755469547714175, -0.5563167812951748], "biases": [-0.500100425888967, -0.12390807693873016, 1.3994068892925933, -2.2570162100953657, 1.3162805002523439, -0.16842185656881992, 0.520443451971347, -1.3704789691599013, -2.0370321347018825, -0.7983637820438437, 1.7711711894914652, -1.681325548753984, 1.6980144145538343]}