{"generation": 488, "inputs": ["y", "yvel", "ypipe"], "outputs": ["jump"], "layers": [3, 4, 4, 1], "activation": "sigmoid", "ticks": 17721899, "time": 1789.1197469234467, "weights": [0.27380380451051306, 0.4975290363675162, -0.1025097853092822, -0.621505764147282, -0.7816792259621844, 0.7290709397073789, 0.6038715072874065, 0.32982222220806184, -0.9995470934665323, -0.3657836854827079, 0.10338844082114514, 1.0830546902611118, 0.020134869826392128, -0.39970084691845537, -0.45964861922217215, 0.36227341907348376, 0.6662792528771802, 0.4619602026822184, 0.7639337938982402, 0.08892380550813511, 1.1566699539885243, -0.345936349046859, -0.7855352503051292, -0.06534895982348657, -0.9584416304653693, 1.1371414571667449, 0.010872295039868337, -0.5258133142237995, 0.19399363888751364, -0.2563909379176822, -0.828094880792039, 0.8700788773985008], "biases": [-0.2447645631386277, 0.59842322114006, -0.3916221223113211, 0.24890624145364515, -0.025977203451163014, -0.4659883676601364, -0.2338347693989463, -0.06761880785939449, 0.0026824506449696067]}