{"generation": 436, "inputs": ["y", "yvel", "ypipe"], "outputs": ["jump"], "layers": [3, 4, 4, 1], "activation": "sigmoid", "ticks": 15429725, "time": 1676.877846956253, "weights": [0.3505273897294651, 0.4975290363675162, -0.1025097853092822, -0.6407349577028553, -0.8278816411658177, 0.6732087974932679, 0.6102956764565604, 0.2879439134749696, -0.9995470934665323, -0.3657836854827079, 0.10338844082114514, 1.0183718618847701, 0.10259158871388124, -0.3927685986439994, -0.5971076387980779, 0.36881145162410806, 0.6731901656889917, 0.4687120320999574, 0.8109169220164444, 0.06513482909403802, 1.1112357550826832, -0.4445575117726604, -0.8843778513826481, -0.04048788341730525, -0.9164907334316122, 1.1311628785085357, 0.040295305938484426, -0.5672202400081748, 0.18498562850797876, -0.2806418393052683, -0.8301090450904087, 0.8410049912289825], "biases": [-0.2886874318388865, 0.7033357020653674, -0.28826693287957217, 0.20873669016312457, -0.09341448935879468, -0.3896419552515881, -0.2225753481422656, -0.04497223001796481, 0.035994539154783005]}