{"generation": 460, "inputs": ["y", "yvel", "ypipe"], "outputs": ["jump"], "layers": [3, 4, 4, 1], "activation": "sigmoid", "ticks": 16418018, "time": 1726.0794348716736, "weights": [0.22360072639225329, 0.4975290363675162, -0.1025097853092822, -0.6107900035730931, -0.8278816411658177, 0.699171678089711, 0.5978770218117514, 0.31524786844316377, -0.9995470934665323, -0.3657836854827079, 0.10338844082114514, 1.0438942847615402, 0.07079379766831631, -0.38119895007382926, -0.5585586292659622, 0.3334177303828326, 0.7273418637802899, 0.4103824944413184, 0.7955319052086177, 0.06513482909403802, 1.1470574733474759, -0.39347964882332975, -0.8425107093237987, -0.04048788341730525, -0.9584416304653693, 1.1473629953303588, 0.025559302172583384, -0.5199471897296793, 0.20475571651360505, -0.2563909379176822, -0.8429437633083907, 0.8410049912289825], "biases": [-0.2756304376947041, 0.6939839945982293, -0.40406189736764386, 0.1660750985364239, -0.026105395593050976, -0.456797382810624, -0.1866577601659123, -0.00021915862052020174, 0.0026824506449696067]}