{"generation": 475, "inputs": ["y", "yvel", "ypipe"], "outputs": ["jump"], "layers": [3, 4, 4, 1], "activation": "sigmoid", "ticks": 17110171, "time": 1759.5103299617767, "weights": [0.27380380451051306, 0.4975290363675162, -0.1025097853092822, -0.6165894485958532, -0.8203270306111328, 0.699171678089711, 0.6418167385841903, 0.3568753761569311, -0.9995470934665323, -0.3657836854827079, 0.10338844082114514, 1.0438942847615402, 0.05249277120673028, -0.3696449117147967, -0.4634463843198092, 0.36227341907348376, 0.6804614715373397, 0.4103824944413184, 0.7955319052086177, 0.06513482909403802, 1.1470574733474759, -0.3605072105206199, -0.8110834306531426, -0.06534895982348657, -0.9584416304653693, 1.1371414571667449, 0.010872295039868337, -0.5258133142237995, 0.22629127085985457, -0.2563909379176822, -0.828094880792039, 0.8700788773985008], "biases": [-0.27814999539443214, 0.626724622619367, -0.39164329018807864, 0.19501587955450142, -0.020395769024759237, -0.48644208458611665, -0.1530872524636511, -0.11192591936849834, 0.0026824506449696067]}