{"generation": 446, "inputs": ["y", "yvel", "ypipe"], "outputs": ["jump"], "layers": [3, 4, 4, 1], "activation": "sigmoid", "ticks": 15777897, "time": 1695.2262918949127, "weights": [0.36373676337672767, 0.4975290363675162, -0.1025097853092822, -0.6407349577028553, -0.8278816411658177, 0.6577482515881119, 0.6102956764565604, 0.31524786844316377, -0.9995470934665323, -0.3657836854827079, 0.10338844082114514, 1.0183718618847701, 0.10259158871388124, -0.3927685986439994, -0.5955982336620522, 0.3334177303828326, 0.7204282683126679, 0.46112692541015937, 0.8109169220164444, 0.06513482909403802, 1.1472274405900948, -0.4065773422425953, -0.8843778513826481, -0.04048788341730525, -0.9164907334316122, 1.1473629953303588, 0.025559302172583384, -0.5199471897296793, 0.18498562850797876, -0.2563909379176822, -0.8454502164540196, 0.8410049912289825], "biases": [-0.24300382985163385, 0.7033357020653674, -0.33409836914928037, 0.20412818041343245, -0.09341448935879468, -0.47696919473668786, -0.19488820912031946, -0.04497223001796481, 0.0024788057582777034]}