{"generation": 402, "inputs": ["y", "yvel", "ypipe"], "outputs": ["jump"], "layers": [3, 4, 4, 1], "activation": "sigmoid", "ticks": 13893179, "time": 1603.050253868103, "weights": [0.27325608354367653, 0.4975290363675162, -0.1025097853092822, -0.6273233081874029, -0.7405064139068874, 0.6869834388856385, 0.582643132456206, 0.18442662573297325, -1.0047925037661407, -0.3660610336932057, 0.10338844082114514, 1.0454886161770873, 0.10598011940633636, -0.31525987644386483, -0.6173098244154528, 0.2981626976089084, 0.641511026069558, 0.4338022043202453, 0.8011970610986214, 0.12717862350779738, 1.0773035117322236, -0.4238839852983452, -0.8381844852923814, -0.04048788341730525, -0.8854608609265815, 1.038513512631758, 0.08200015835689224, -0.5494945091823594, 0.18498562850797876, -0.3050740143195844, -0.8025021233891503, 0.846121233949305], "biases": [-0.2144294102148489, 0.6243661101573627, -0.21385105174783828, 0.09754987071596503, -0.25772439739846204, -0.45291410158699746, -0.3093539710380801, -0.072062493413459, 0.03597104687966123]}