{"generation": 481, "inputs": ["y", "yvel", "xpipe", "ypipe"], "outputs": ["jump"], "layers": [4, 4, 4, 4, 1], "activation": "sigmoid", "ticks": 4455361, "weights": [-0.6484086553864641, 0.23526720359100717, 2.3260635500894837, 0.26807039756409395, -0.6348411497693364, -0.005827810120624742, 0.7929538252788725, 0.5126187300222157, -1.1321667712069425, -0.007661368865117802, 0.8413384823344227, 0.3564062561685488, 0.40867711912020677, -0.13756544537432305, -0.7667572468165778, 0.8015689990338735, -0.4476165642686733, -0.9550118638578429, -1.3261318389500607, 1.1684166062036576, 2.5163987452405485, 0.2763076030377953, 1.214162018764392, 0.28875441574525745, 0.8178664438493329, 0.0015603341250523053, -0.908262096282772, 0.1317814559707863, -0.8558822785119822, 0.19835778077824825, -0.1717941100800644, 1.4630185787963867, -0.13782707857491014, 1.4052270955034933, 1.2688742594890063, -0.20391185329775177, 0.607475943396633, 0.30698275333821334, -0.1259525633105205, -1.0292745611490048, -1.173851553656225, 0.39201186450638703, 0.835040970869811, 1.0501268132343877, 1.840094864217359, 0.38974462251534436, -0.9339510021944132, -1.115414512271224, 1.0511200166180705, -1.3125909840599252, -0.8646944894124146, -0.6164091119116314], "biases": [-0.4285728072307049, -0.3120371918965715, 1.5091650686010347, -2.235265821444404, 1.6785016114904374, 0.05823966984487508, 0.6156534467490294, -1.3458719920402302, -1.943221308763285, -0.8589732739365097, 1.723114054163942, -1.738181653609128, 1.6440885753759502]}