{"generation": 420, "inputs": ["y", "yvel", "ypipe"], "outputs": ["jump"], "layers": [3, 4, 4, 1], "activation": "sigmoid", "ticks": 14656521, "time": 1638.1871299743652, "weights": [0.2674999550699621, 0.4975290363675162, -0.1025097853092822, -0.5882523919378211, -0.7405064139068874, 0.6678998208776371, 0.6102956764565604, 0.2288641509966453, -1.0073594690542456, -0.3660610336932057, 0.10338844082114514, 1.0183718618847701, 0.12512264030091833, -0.38111822509098464, -0.5788448016348631, 0.2981626976089084, 0.6731901656889917, 0.4687120320999574, 0.8011970610986214, 0.09678629473908595, 1.0773035117322236, -0.4238839852983452, -0.8843778513826481, -0.04048788341730525, -0.8734843657563458, 1.097673172117958, 0.040295305938484426, -0.546307074510586, 0.18498562850797876, -0.3050740143195844, -0.8301090450904087, 0.8410049912289825], "biases": [-0.2886874318388865, 0.6673376832255487, -0.29858704809568914, 0.11420687738141103, -0.14702209336858296, -0.4952421682917655, -0.24582095332801113, -0.054748460130398184, 0.04092133597789668]}