{"generation": 478, "inputs": ["y", "yvel", "ypipe"], "outputs": ["jump"], "layers": [3, 4, 4, 1], "activation": "sigmoid", "ticks": 17244594, "time": 1765.7225849628448, "weights": [0.27380380451051306, 0.4975290363675162, -0.1025097853092822, -0.6165894485958532, -0.7816792259621844, 0.699171678089711, 0.6418167385841903, 0.3568753761569311, -0.9995470934665323, -0.3657836854827079, 0.10338844082114514, 1.0540238425981465, 0.05249277120673028, -0.3696449117147967, -0.4634463843198092, 0.36227341907348376, 0.6804614715373397, 0.44237882168053966, 0.7639337938982402, 0.04232923702984069, 1.1566699539885243, -0.3605072105206199, -0.8110834306531426, -0.06534895982348657, -0.9584416304653693, 1.1371414571667449, 0.010872295039868337, -0.5258133142237995, 0.22629127085985457, -0.2563909379176822, -0.828094880792039, 0.8700788773985008], "biases": [-0.27814999539443214, 0.5884695866692526, -0.39164329018807864, 0.29494121813669805, -0.020395769024759237, -0.4636248029518972, -0.1530872524636511, -0.11192591936849834, 0.0026824506449696067]}