{"generation": 411, "inputs": ["y", "yvel", "ypipe"], "outputs": ["jump"], "layers": [3, 4, 4, 1], "activation": "sigmoid", "ticks": 14291821, "time": 1622.3684227466583, "weights": [0.27325608354367653, 0.4975290363675162, -0.1025097853092822, -0.6273233081874029, -0.7405064139068874, 0.6869834388856385, 0.5779523623321474, 0.2308885405411872, -1.0005747403683092, -0.3660610336932057, 0.10338844082114514, 1.0454886161770873, 0.12512264030091833, -0.3626685953454518, -0.5788448016348631, 0.2981626976089084, 0.6731901656889917, 0.4338022043202453, 0.8011970610986214, 0.12717862350779738, 1.0773035117322236, -0.4238839852983452, -0.8843778513826481, -0.04048788341730525, -0.8854608609265815, 1.0810871110256755, 0.08839864473461895, -0.546307074510586, 0.18498562850797876, -0.3050740143195844, -0.8301090450904087, 0.846121233949305], "biases": [-0.2886874318388865, 0.6384333622306211, -0.2641411502330759, 0.0893007073917953, -0.220636669214451, -0.4952421682917655, -0.31911762319610515, -0.072062493413459, 0.04092133597789668]}