{"generation": 495, "inputs": ["y", "yvel", "xpipe", "ypipe"], "outputs": ["jump"], "layers": [4, 4, 4, 4, 1], "activation": "sigmoid", "ticks": 4605322, "weights": [-0.6795617730169785, 0.23526720359100717, 2.2761142553602376, 0.2460589741274308, -0.6348411497693364, -0.005827810120624742, 0.7929538252788725, 0.5126187300222157, -1.1321667712069425, -0.007661368865117802, 0.8054851473680071, 0.38273417065269855, 0.40513839889763914, -0.13756544537432305, -0.7534381861849059, 0.7773864314983451, -0.392329159677959, -0.9550118638578429, -1.3648120573203502, 1.2256409063975673, 2.5279254071160966, 0.27626960849557375, 1.1700297690641395, 0.25561909428117935, 0.8001314303895486, 0.02546020340331203, -0.8546670588438136, 0.1048933384628631, -0.9043599228765712, 0.19835778077824825, -0.18362673781962852, 1.4630185787963867, -0.10774703091701626, 1.4052270955034933, 1.2876936390999272, -0.19338879838382406, 0.6254362006658433, 0.30698275333821334, -0.1259525633105205, -0.9710502982383182, -1.173851553656225, 0.39201186450638703, 0.8231150728017022, 1.0501268132343877, 1.840094864217359, 0.439217540297878, -0.9663327259812834, -1.115414512271224, 1.0511200166180705, -1.3125909840599252, -0.9102482206520799, -0.6442651065597083], "biases": [-0.29598253396686564, -0.3455751433773557, 1.5534512533018634, -2.24291352824244, 1.6639230863710484, 0.13430177070108396, 0.6560217439211029, -1.3278512122685557, -1.9636378008428945, -0.8184099955507536, 1.6156864727963625, -1.7195854699106334, 1.705241142074716]}