{"generation": 432, "inputs": ["y", "yvel", "xpipe", "ypipe"], "outputs": ["jump"], "layers": [4, 4, 4, 4, 1], "activation": "sigmoid", "ticks": 3962376, "weights": [-0.4499725561522593, 0.280623456361366, 2.344015225728983, 0.31022531661660246, -0.67411124741465, -0.10886741560592741, 0.8863434505236487, 0.5243232442332663, -1.1828364680404952, -0.03793609875370411, 0.7958686814567977, 0.33146752931865386, 0.5424476198046763, -0.14494383574943123, -0.7220295177429558, 0.8145379760203219, -0.4826962251594694, -0.994199584123727, -1.2985460166386005, 1.1809244686629998, 2.5146494006167064, 0.3422068194396907, 1.2317422577784511, 0.27496360371439993, 0.8262970776813059, 0.021429867274649912, -0.9043680591570662, 0.17095189498544014, -0.9564668640467978, 0.16853823174203114, -0.1717941100800644, 1.501850283101123, -0.16928289517268472, 1.3878742056737112, 1.2637496960186465, -0.23018940720412823, 0.6045692410391371, 0.2976554243785375, -0.015904504698649437, -1.0240788507253238, -1.0977520614308716, 0.4199000445328201, 0.8173739652391253, 1.0501268132343877, 1.7953712025917072, 0.40499552918389486, -0.8943769308016579, -1.1022571591961345, 1.0704075086581435, -1.3125909840599252, -0.8716655939738415, -0.6280912114487541], "biases": [-0.520214380054452, -0.20944219642274997, 1.5664279071051976, -2.2112599724350863, 1.4840948414462432, -0.05845725699344234, 0.6234097423641228, -1.4772944383567397, -1.9124486793226858, -0.86305778708936, 1.8703331211063718, -1.610202248572438, 1.5862727204968832]}