{"generation": 464, "inputs": ["y", "yvel", "ypipe"], "outputs": ["jump"], "layers": [3, 4, 4, 1], "activation": "sigmoid", "ticks": 16607487, "time": 1735.0707559585571, "weights": [0.22360072639225329, 0.4975290363675162, -0.1025097853092822, -0.6107900035730931, -0.8278816411658177, 0.699171678089711, 0.5978770218117514, 0.3568753761569311, -0.9995470934665323, -0.3657836854827079, 0.10338844082114514, 1.0438942847615402, 0.07079379766831631, -0.38119895007382926, -0.5299752933755659, 0.3334177303828326, 0.7273418637802899, 0.4103824944413184, 0.7955319052086177, 0.06513482909403802, 1.1470574733474759, -0.3691852297991372, -0.8425107093237987, -0.04048788341730525, -0.9584416304653693, 1.1473629953303588, 0.010872295039868337, -0.5199471897296793, 0.2068609957540729, -0.2563909379176822, -0.8429437633083907, 0.8700788773985008], "biases": [-0.2756304376947041, 0.6939839945982293, -0.40406189736764386, 0.1660750985364239, -0.0003405549069724033, -0.456797382810624, -0.17504448379499404, -0.047698512459372164, 0.0026824506449696067]}