{"generation": 429, "inputs": ["y", "yvel", "ypipe"], "outputs": ["jump"], "layers": [3, 4, 4, 1], "activation": "sigmoid", "ticks": 15111646, "time": 1661.7563927173615, "weights": [0.30333853630768515, 0.4975290363675162, -0.1025097853092822, -0.6268337842421781, -0.8190280490064498, 0.6678998208776371, 0.6102956764565604, 0.2879439134749696, -0.9995470934665323, -0.3660610336932057, 0.10338844082114514, 1.0183718618847701, 0.10259158871388124, -0.38111822509098464, -0.5788448016348631, 0.36881145162410806, 0.6731901656889917, 0.4687120320999574, 0.8109169220164444, 0.06513482909403802, 1.0773035117322236, -0.4238839852983452, -0.8843778513826481, -0.04048788341730525, -0.9298988292138376, 1.1311628785085357, 0.040295305938484426, -0.546307074510586, 0.18498562850797876, -0.3050740143195844, -0.8301090450904087, 0.8410049912289825], "biases": [-0.2886874318388865, 0.6673376832255487, -0.29458819399342456, 0.14116458201368082, -0.06488567404480967, -0.47080205091318, -0.21616018720856264, -0.06979650369178049, 0.04092133597789668]}