{"generation": 481, "inputs": ["y", "yvel", "ypipe"], "outputs": ["jump"], "layers": [3, 4, 4, 1], "activation": "sigmoid", "ticks": 17382873, "time": 1771.963268995285, "weights": [0.27380380451051306, 0.4975290363675162, -0.1025097853092822, -0.6324991328761264, -0.7816792259621844, 0.699171678089711, 0.6038715072874065, 0.3568753761569311, -0.9995470934665323, -0.3657836854827079, 0.10338844082114514, 1.0540238425981465, 0.05249277120673028, -0.3696449117147967, -0.4634463843198092, 0.36227341907348376, 0.7129765820132004, 0.4619602026822184, 0.7639337938982402, 0.08892380550813511, 1.1566699539885243, -0.35704545425524825, -0.8110834306531426, -0.06534895982348657, -0.9584416304653693, 1.1371414571667449, 0.010872295039868337, -0.5258133142237995, 0.22629127085985457, -0.2563909379176822, -0.828094880792039, 0.8700788773985008], "biases": [-0.27814999539443214, 0.5884695866692526, -0.35765437211733997, 0.3168342224420923, -0.0428225755949911, -0.4659883676601364, -0.1530872524636511, -0.06761880785939449, 0.0026824506449696067]}