{"generation": 491, "inputs": ["y", "yvel", "ypipe"], "outputs": ["jump"], "layers": [3, 4, 4, 1], "activation": "sigmoid", "ticks": 17858226, "time": 1795.61661195755, "weights": [0.2514447519642768, 0.4975290363675162, -0.1025097853092822, -0.5720573140645463, -0.7816792259621844, 0.7290709397073789, 0.6038715072874065, 0.32982222220806184, -1.0273847979825699, -0.3657836854827079, 0.10338844082114514, 1.0830546902611118, 0.020134869826392128, -0.39970084691845537, -0.45964861922217215, 0.36227341907348376, 0.6473748082116498, 0.4619602026822184, 0.7639337938982402, 0.08435183369605703, 1.1566699539885243, -0.345936349046859, -0.7855352503051292, -0.06534895982348657, -0.9584416304653693, 1.1371414571667449, -0.006841952131578047, -0.5258133142237995, 0.19399363888751364, -0.2563909379176822, -0.828094880792039, 0.8700788773985008], "biases": [-0.21913006158230808, 0.552799772790178, -0.35595196628492454, 0.24890624145364515, -0.003193658652979839, -0.46413360289630307, -0.2338347693989463, -0.11205510238225733, 0.0026824506449696067]}