{"generation": 407, "inputs": ["y", "yvel", "xpipe", "ypipe"], "outputs": ["jump"], "layers": [4, 4, 4, 4, 1], "activation": "sigmoid", "ticks": 3727350, "weights": [-0.34107550528751923, 0.30855567574240117, 2.3862598018508017, 0.31022531661660246, -0.67411124741465, -0.07302930324725339, 0.8407958608637119, 0.5181622926240771, -1.106571317861341, -0.03793609875370411, 0.8382997868575331, 0.368751210920557, 0.5424476198046763, -0.14494383574943123, -0.6965461898098215, 0.7319137871331033, -0.561579186887069, -1.0185775527619048, -1.2831916176504166, 1.136196292549805, 2.5054251477576406, 0.3811957817811165, 1.2317422577784511, 0.32410030675265195, 0.8262970776813059, 0.006661383114194903, -0.9043680591570662, 0.24501625656987308, -0.8725401073437326, 0.15388434686164637, -0.19020724476252454, 1.5186056233145964, -0.15555204724867844, 1.3579105864638346, 1.31232849381029, -0.21976601254122774, 0.5860830039644641, 0.25958767902117585, -0.011022347376753908, -1.0046700576242933, -1.0898652756235236, 0.38832206348966003, 0.8173739652391253, 1.0501268132343877, 1.8178485692174877, 0.3682226122260905, -0.9082133968751454, -1.1220950410458093, 1.0704075086581435, -1.2317672563748607, -0.939977645064909, -0.6280912114487541], "biases": [-0.519967436296538, -0.2360456258321936, 1.4668093976162921, -2.3034246497672903, 1.5459418669478686, -0.10150984401661475, 0.6347432316579418, -1.4581804199990531, -1.9810684055163166, -0.8397375934043545, 1.8444369583096363, -1.5335445774717524, 1.6333408257709303]}