{"generation": 490, "inputs": ["y", "yvel", "xpipe", "ypipe"], "outputs": ["jump"], "layers": [4, 4, 4, 4, 1], "activation": "sigmoid", "ticks": 4550675, "weights": [-0.6795617730169785, 0.23526720359100717, 2.3260635500894837, 0.2460589741274308, -0.6348411497693364, -0.005827810120624742, 0.7929538252788725, 0.5126187300222157, -1.1321667712069425, -0.007661368865117802, 0.8054851473680071, 0.38273417065269855, 0.40513839889763914, -0.13756544537432305, -0.7308172394508323, 0.8015689990338735, -0.392329159677959, -0.9550118638578429, -1.3261318389500607, 1.1788781814052334, 2.5163987452405485, 0.27626960849557375, 1.214162018764392, 0.25561909428117935, 0.8001314303895486, 0.0015603341250523053, -0.8546670588438136, 0.10504600702576476, -0.9043599228765712, 0.19835778077824825, -0.1717941100800644, 1.4630185787963867, -0.10774703091701626, 1.4052270955034933, 1.2876936390999272, -0.20391185329775177, 0.6254362006658433, 0.30698275333821334, -0.1259525633105205, -0.9994856778181802, -1.173851553656225, 0.39201186450638703, 0.8231150728017022, 1.0501268132343877, 1.840094864217359, 0.439217540297878, -0.9663327259812834, -1.115414512271224, 1.0511200166180705, -1.3125909840599252, -0.8646944894124146, -0.6442651065597083], "biases": [-0.29598253396686564, -0.3455751433773557, 1.5534512533018634, -2.2450782098659436, 1.708608153925118, 0.10209995639758018, 0.679209657101243, -1.3635518665081576, -1.9853338902007993, -0.8653012420122972, 1.6528677620845997, -1.7476465611788246, 1.6440885753759502]}