{"generation": 406, "inputs": ["y", "yvel", "ypipe"], "outputs": ["jump"], "layers": [3, 4, 4, 1], "activation": "sigmoid", "ticks": 14069000, "time": 1611.0886268615723, "weights": [0.27325608354367653, 0.4975290363675162, -0.1025097853092822, -0.6273233081874029, -0.7405064139068874, 0.6869834388856385, 0.5779523623321474, 0.18442662573297325, -1.0047925037661407, -0.3660610336932057, 0.10338844082114514, 1.0454886161770873, 0.11158851259878934, -0.3626685953454518, -0.5788448016348631, 0.2981626976089084, 0.641511026069558, 0.4338022043202453, 0.8011970610986214, 0.12717862350779738, 1.0773035117322236, -0.4238839852983452, -0.8381844852923814, -0.04048788341730525, -0.8854608609265815, 1.038513512631758, 0.08839864473461895, -0.5316073702904099, 0.18498562850797876, -0.3050740143195844, -0.8301090450904087, 0.846121233949305], "biases": [-0.28428618643469905, 0.6243661101573627, -0.2340153652080401, 0.04858276780502642, -0.220636669214451, -0.45291410158699746, -0.31911762319610515, -0.072062493413459, 0.03597104687966123]}