{"generation": 454, "inputs": ["y", "yvel", "xpipe", "ypipe"], "outputs": ["jump"], "layers": [4, 4, 4, 4, 1], "activation": "sigmoid", "ticks": 4181860, "weights": [-0.5770900522774426, 0.2789340729361177, 2.3095908402331835, 0.31022531661660246, -0.67411124741465, -0.0251891585978428, 0.8405276093328523, 0.5015881554785306, -1.1828364680404952, -0.03793609875370411, 0.8247216836502935, 0.33146752931865386, 0.5239808312008208, -0.14494383574943123, -0.7667572468165778, 0.7265278531739074, -0.4476165642686733, -0.9550118638578429, -1.3058648335565737, 1.1708119053243269, 2.4915180168966193, 0.38546474880815823, 1.1841105891760484, 0.30134671058945767, 0.8225767824710812, 0.02686762727464776, -0.908262096282772, 0.14539101027488843, -0.9015538093782514, 0.16853823174203114, -0.1717941100800644, 1.45755465743519, -0.11197259292255116, 1.4052270955034933, 1.2637496960186465, -0.15728426413304292, 0.5631206857187682, 0.2976554243785375, -0.10542866859232417, -1.0240788507253238, -1.144220758542662, 0.37391806304590486, 0.8805348935942066, 1.0501268132343877, 1.7953712025917072, 0.4374136882997493, -0.8943769308016579, -1.1318912740624136, 1.0511200166180705, -1.3125909840599252, -0.8587561080646726, -0.6242789354609053], "biases": [-0.490684394583628, -0.2928418265639302, 1.556761380823388, -2.2561718287282266, 1.5189898997263032, -0.05161335904614596, 0.6942153917138951, -1.523461339264419, -1.9039806058962652, -0.8181497317105539, 1.7948157049949522, -1.6329215374473296, 1.6183719539153278]}