{"generation": 508, "inputs": ["y", "yvel", "xpipe", "ypipe"], "outputs": ["jump"], "layers": [4, 4, 4, 4, 1], "activation": "sigmoid", "ticks": 4753156, "weights": [-0.6769584995487847, 0.23526720359100717, 2.2761142553602376, 0.290032684651616, -0.6443075619952252, 0.0007084871849485494, 0.83327020477242, 0.5126187300222157, -1.1726205531813607, -0.007661368865117802, 0.8054851473680071, 0.397091438957008, 0.2863382525001541, -0.13756544537432305, -0.7143782508954603, 0.7681286071097772, -0.4119325982372169, -0.9550118638578429, -1.3342920938721106, 1.2256409063975673, 2.5279254071160966, 0.24595751260259197, 1.1700297690641395, 0.25561909428117935, 0.8496387674111396, 0.02546020340331203, -0.8546670588438136, 0.06594501385976874, -0.9043599228765712, 0.19835778077824825, -0.21394141333253744, 1.4520052726798531, -0.10774703091701626, 1.4052270955034933, 1.2876936390999272, -0.19338879838382406, 0.6440833379393316, 0.30698275333821334, -0.1259525633105205, -1.013738922440623, -1.2113568927192029, 0.39201186450638703, 0.8716249406790822, 1.0501268132343877, 1.8690425004905, 0.4056880428409855, -0.9391343233513959, -1.1557422405826236, 1.0932063205800928, -1.2827481662505436, -0.9102482206520799, -0.6442651065597083], "biases": [-0.3172841362105233, -0.2855584699771476, 1.5534512533018634, -2.2189884502115174, 1.5761763862929885, 0.1508904864610734, 0.6781570101644481, -1.3190094077580716, -1.9953079613977271, -0.7073667993938969, 1.624602654392561, -1.63062773253755, 1.705241142074716]}