{"generation": 572, "inputs": ["y", "yvel", "xpipe", "ypipe"], "outputs": ["jump"], "layers": [4, 4, 4, 4, 1], "activation": "sigmoid", "ticks": 5568548, "weights": [-0.8046663322476165, 0.20452868031623186, 2.3137955194026962, 0.3129899991918483, -0.6694513890508005, 0.003699204655662005, 0.8999006127985039, 0.4413496502266341, -1.098311414923998, -0.007661368865117802, 0.8337512764189738, 0.39587232577863096, 0.11042474864491295, -0.13756544537432305, -0.6993980095423327, 0.7785302980885471, -0.32596541633766457, -0.9870697016655159, -1.4076338318581274, 1.2872549592510534, 2.6802647148080903, 0.2970095414272819, 1.2382087928908463, 0.16814943740484747, 0.9223828504891429, 0.01266462869899506, -0.9026404239954742, 0.12285867597144329, -0.9043599228765712, 0.10377650691570742, -0.10507662993969019, 1.3434032145714347, -0.05231522414347553, 1.4308379563125058, 1.2129443058693663, -0.29220069585064384, 0.5817682029684534, 0.36720779919516777, -0.04557636707270072, -1.105841813623884, -1.2307907436926058, 0.29886145866968605, 0.9011088398339772, 1.0744924670766007, 1.8871722671195572, 0.462478335934693, -0.8432965629526064, -1.1824434174702434, 1.0444231594971785, -1.291669785862539, -0.8563746893944959, -0.6697531402590811], "biases": [-0.2994536871546633, -0.3295343298337324, 1.5707161225460082, -2.3295694044883635, 1.575048732485791, 0.24723427480014154, 0.716154922751215, -1.2263122492071206, -2.07741734930228, -0.6096566046700869, 1.482936968996519, -1.7093181135408289, 1.6525595699789517]}