{"generation": 52, "inputs": ["y", "yvel", "ypipe"], "outputs": ["jump"], "layers": [3, 4, 4, 1], "activation": "sigmoid", "ticks": 629519, "time": 21.918837070465088, "weights": [0.28588739720736794, 0.5501129309453999, -0.03733273057145417, -0.7642439948057671, -0.7320199366154277, 0.9069989195339498, 0.5193181633713118, 0.29764023653927746, -0.8898520321166168, -0.3358547839342006, 0.06949668885728183, 0.963720487207127, 0.07142428079350993, -0.22607487919379554, -0.4747607823411596, -0.14467138768380547, 0.7076969954553839, 0.5637030123728695, 0.6934663224912235, 0.21798351801266092, 0.9388930526740735, -0.2823088252837601, -0.7367634054977573, -0.1606141912982368, -0.7745996559278557, 0.8856622478215799, 0.2525656587956356, -0.48930977731947806, 0.20002185426671315, -0.1896575512984233, -0.6895816885553124, 0.7645039076382742], "biases": [0.22103839239318554, 0.339131258368767, -0.007226682496156794, -0.1761076630260185, -0.07195229539457641, 0.01152502742226107, -0.06314350773300777, -0.10290377642155282, 0.07895344064847672]}