{"generation": 576, "inputs": ["y", "yvel", "xpipe", "ypipe"], "outputs": ["jump"], "layers": [4, 4, 4, 4, 1], "activation": "sigmoid", "ticks": 5623003, "weights": [-0.8046663322476165, 0.20452868031623186, 2.3137955194026962, 0.3129899991918483, -0.6694513890508005, -0.01895969439720675, 0.8999006127985039, 0.4413496502266341, -1.073880073424328, -0.007661368865117802, 0.8337512764189738, 0.41204417227809825, 0.07193914120454205, -0.13756544537432305, -0.6993980095423327, 0.7785302980885471, -0.32596541633766457, -0.9870697016655159, -1.43008466932312, 1.2872549592510534, 2.648713678919533, 0.2970095414272819, 1.2382087928908463, 0.16814943740484747, 0.9576400232711706, 0.01266462869899506, -0.9026404239954742, 0.12285867597144329, -0.9018767912933295, 0.10377650691570742, -0.07665428605223867, 1.3434032145714347, -0.07244788647250608, 1.4308379563125058, 1.2129443058693663, -0.29220069585064384, 0.5817682029684534, 0.36720779919516777, -0.04557636707270072, -1.105841813623884, -1.2307907436926058, 0.29886145866968605, 0.9011088398339772, 1.0702447843520577, 1.8871722671195572, 0.462478335934693, -0.8432965629526064, -1.1824434174702434, 1.0444231594971785, -1.291669785862539, -0.8563746893944959, -0.6697531402590811], "biases": [-0.316997854625631, -0.3295343298337324, 1.536730460950427, -2.3295694044883635, 1.5899972073253819, 0.199610696716527, 0.7019173149869817, -1.2263122492071206, -2.029544422745333, -0.6096566046700869, 1.4956966105964282, -1.7208430097445797, 1.6462472051021344]}