{"generation": 58, "inputs": ["y", "yvel", "xpipe", "ypipe"], "outputs": ["jump"], "layers": [4, 4, 4, 4, 1], "activation": "sigmoid", "ticks": 517516, "weights": [-0.25996243540031916, 0.5047532984037667, 2.135428894095987, 0.4962945410812198, -0.6104042113517083, 0.010066634785723158, 0.906780283775864, 0.5869495818600745, -1.0385641528476315, -0.15475654083731438, 0.6194818595150263, 0.1893591154329463, 0.7371728023507569, -0.006155917401415849, -0.5400753190657376, 0.6484636069333484, -0.5684189768884856, -0.8301459603905936, -1.3234997642476487, 0.9059976857653489, 2.3625440946583516, 0.2935954067373189, 1.0419148549829158, 0.4984210192874653, 0.8434970899767045, 0.12070605351873073, -0.6451339644004799, -0.06261980589850046, -0.915912750262888, 0.13645415318348836, -0.12706627156495642, 1.4996191528020189, -0.2801116005216464, 1.272975899518445, 1.0990416939368801, -0.13802995947111943, 0.6271170996261757, 0.1919109476522016, -0.1324823088371643, -1.0763145985820268, -1.0030152379710173, 0.6680716457983704, 0.6577692332786528, 1.1403930259919546, 1.6865585824468832, 0.4231117713941804, -0.7774617396001084, -1.1160833219463333, 1.0845686130098282, -1.0863057809751295, -1.0041715379686014, -0.4587510025651354], "biases": [-0.33503672656170846, 0.07379316486538413, 1.2496260839178883, -2.09001884150525, 1.5125018848910352, -0.1704927766919292, 0.352108266170049, -0.820370533889882, -2.240022502129368, -0.9363091298149908, 1.4706121416502815, -1.5147112316835243, 1.494515400314095]}