{"generation": 55, "inputs": ["y", "yvel", "ypipe"], "outputs": ["jump"], "layers": [3, 4, 4, 1], "activation": "sigmoid", "ticks": 672061, "time": 23.421163082122803, "weights": [0.28588739720736794, 0.5501129309453999, -0.03733273057145417, -0.8042170569348197, -0.7320199366154277, 0.9069989195339498, 0.5193181633713118, 0.29764023653927746, -0.8898520321166168, -0.3358547839342006, 0.06949668885728183, 0.9750670910856042, 0.07142428079350993, -0.22607487919379554, -0.4747607823411596, -0.09720788855326262, 0.6696913846719073, 0.5637030123728695, 0.6934663224912235, 0.21798351801266092, 0.9388930526740735, -0.2823088252837601, -0.7367634054977573, -0.1606141912982368, -0.8245519470395525, 0.8856622478215799, 0.2525656587956356, -0.48930977731947806, 0.20002185426671315, -0.1896575512984233, -0.6895816885553124, 0.7645039076382742], "biases": [0.22103839239318554, 0.339131258368767, -0.017160402938788337, -0.1749967194838935, -0.11147071914478415, 0.01152502742226107, -0.09392385239556096, -0.10290377642155282, 0.07120481174389964]}