{"generation": 526, "inputs": ["y", "yvel", "xpipe", "ypipe"], "outputs": ["jump"], "layers": [4, 4, 4, 4, 1], "activation": "sigmoid", "ticks": 4979146, "weights": [-0.7192909260152404, 0.20304906663406688, 2.2761142553602376, 0.2853414083092841, -0.6115945227361439, 0.0007084871849485494, 0.8368813482464057, 0.5126187300222157, -1.216485033809262, -0.007661368865117802, 0.8427706820162628, 0.4393259993796209, 0.2346497897959722, -0.13756544537432305, -0.7143782508954603, 0.734100028421805, -0.43817854962679603, -0.9552189482034065, -1.3493923496119975, 1.2331247600215218, 2.5596620011134705, 0.27882576739923665, 1.193528376674235, 0.22215225900121627, 0.8710490162380674, -0.043471355038397226, -0.9026404239954742, 0.0943237282627393, -0.9043599228765712, 0.15463561161169767, -0.17638404700965427, 1.4520052726798531, -0.10774703091701626, 1.3795362440430874, 1.2810177560469809, -0.23355503362728225, 0.6395481483768404, 0.3969284690740349, -0.10680118466780288, -1.033236589883507, -1.2113568927192029, 0.3657614199626951, 0.8716249406790822, 1.0501268132343877, 1.8950720585170675, 0.4363577559491681, -0.9192605985232835, -1.1824434174702434, 1.0932063205800928, -1.3264301281886164, -0.879242979814723, -0.6442651065597083], "biases": [-0.14775995157669927, -0.3707646187641956, 1.6248233025648686, -2.2476225321008765, 1.5721415794491953, 0.20321252654350758, 0.7113508257024606, -1.2056153395138176, -1.9838994185937606, -0.6996051626843236, 1.5305575719401476, -1.6891275322807315, 1.6280849431073428]}