{"generation": 59, "inputs": ["y", "yvel", "ypipe"], "outputs": ["jump"], "layers": [3, 4, 4, 1], "activation": "sigmoid", "ticks": 727247, "time": 25.550440073013306, "weights": [0.28588739720736794, 0.5501129309453999, -0.07249129670333629, -0.8042170569348197, -0.7320199366154277, 0.9069989195339498, 0.5193181633713118, 0.30833236271105835, -0.9031735919244314, -0.3295148182231454, 0.06949668885728183, 0.9750670910856042, 0.07142428079350993, -0.22607487919379554, -0.4747607823411596, -0.09720788855326262, 0.6696913846719073, 0.5637030123728695, 0.6934663224912235, 0.21798351801266092, 0.9291725959862354, -0.2823088252837601, -0.7367634054977573, -0.18186195357388038, -0.8245519470395525, 0.8513495793398808, 0.2525656587956356, -0.48930977731947806, 0.20002185426671315, -0.1896575512984233, -0.6895816885553124, 0.7928076328151589], "biases": [0.22103839239318554, 0.3666725367791046, -0.01838574874762728, -0.1749967194838935, -0.11147071914478415, 0.013274307863473268, -0.12622285785966478, -0.06767718271946732, 0.07120481174389964]}