{"generation": 591, "inputs": ["y", "yvel", "xpipe", "ypipe"], "outputs": ["jump"], "layers": [4, 4, 4, 4, 1], "activation": "sigmoid", "ticks": 5823587, "weights": [-0.8046663322476165, 0.20452868031623186, 2.3441396609639313, 0.3455867580300743, -0.6234620084855943, -0.05822894698255392, 0.9403412258938415, 0.43168796483566657, -0.9455443780342506, -0.007661368865117802, 0.8733869286611163, 0.443881269392234, 0.054107709376897434, -0.13756544537432305, -0.7203061008185019, 0.7285549417857109, -0.32596541633766457, -0.963820762213748, -1.43008466932312, 1.2872549592510534, 2.610684693481256, 0.3252934171926624, 1.2621778383126097, 0.16814943740484747, 0.9576400232711706, -0.020870952269308823, -0.9026404239954742, 0.07841107024634628, -0.8984839674272719, 0.10260156636842675, -0.0486205039212636, 1.3434032145714347, -0.11179502821454185, 1.453713379968663, 1.2129443058693663, -0.29220069585064384, 0.5227881250129893, 0.40430476166992246, -0.04557636707270072, -1.1257222452431637, -1.2666754083619323, 0.3209192511473896, 0.9011088398339772, 1.0599273046335846, 1.8871722671195572, 0.41209149255014293, -0.8429505380883631, -1.1824434174702434, 1.0444231594971785, -1.291669785862539, -0.8563746893944959, -0.697257237225335], "biases": [-0.3616869922225729, -0.38792456102354045, 1.4650422813833393, -2.451844559884877, 1.540748498132042, 0.29833712720530015, 0.7347161361969187, -1.2361677789290264, -2.029544422745333, -0.5643281733378455, 1.5449096205776327, -1.6772104845327307, 1.6821204425803487]}