{"generation": 681, "inputs": ["y", "yvel", "xpipe", "ypipe"], "outputs": ["jump"], "layers": [4, 4, 4, 4, 1], "activation": "sigmoid", "ticks": 7770356, "weights": [-1.0773161542191168, 0.17617614142047672, 2.3189108826847087, 0.34502355789228945, -0.5132777532512076, -0.11633446904856426, 0.8812082922314888, 0.38362756787101526, -0.9910206076432747, -0.007661368865117802, 0.8130418182206293, 0.4857068708735369, -0.013851827364161063, -0.1297458407814159, -0.7733176118412552, 0.7142307950520703, -0.32444752965545454, -1.02324111940231, -1.4730932798031575, 1.3066636199578685, 2.580623061022037, 0.3770304246249845, 1.261410799379248, 0.1906845835292175, 0.8814212677481118, -0.05173619030312204, -0.8367523605618494, 0.046566217630559945, -0.9376296286383073, 0.11781624193074147, -0.1097437016644937, 1.3497428251506984, -0.198340770700188, 1.5366103349434146, 1.246174648554466, -0.3475978685868246, 0.44849529204101607, 0.4930050832820636, -0.0336237596469546, -1.1756121711299272, -1.3687809750557172, 0.3047279701734903, 0.8548167916623919, 0.9954446161250854, 2.0421657150668255, 0.3827178832350078, -0.939761459030734, -1.099934109796094, 1.0761905108852718, -1.2773959291125143, -0.8828052560957371, -0.6557062718897022], "biases": [-0.40408615021610095, -0.4259319858498904, 1.4816222307070759, -2.455327628577691, 1.735789586859885, 0.17218307195897636, 0.6775307910806581, -1.0981912663762121, -2.1089692570562986, -0.6813239436695178, 1.6862864279064294, -1.656672449698449, 1.673141283081929]}