{"generation": 637, "inputs": ["y", "yvel", "xpipe", "ypipe"], "outputs": ["jump"], "layers": [4, 4, 4, 4, 1], "activation": "sigmoid", "ticks": 6664660, "weights": [-0.9631677778731619, 0.17617614142047672, 2.330877114067763, 0.32117758233631116, -0.5745568740150588, -0.13485971815415768, 0.894390366114398, 0.4347909807122703, -1.0313778063762546, -0.007661368865117802, 0.8482578637057362, 0.5013949193555922, -0.03777013622484228, -0.1417061836579155, -0.660109988817731, 0.7142307950520703, -0.3422666799976615, -1.0410758460607916, -1.4322554671224748, 1.2872549592510534, 2.53504402064885, 0.3527320118849973, 1.2559347696021343, 0.10896960588692492, 0.9363437835769624, -0.023275440915969288, -0.8474185264503287, 0.11157935831020069, -0.932404305871743, 0.09680131028231079, -0.060370949025389586, 1.3434032145714347, -0.15908131814506932, 1.4734484647380626, 1.2408228265921775, -0.33552093412321116, 0.49289788255959033, 0.4446430356525834, -0.04557636707270072, -1.0793251710733751, -1.3633382327496286, 0.3342102160205248, 0.8708886196927076, 1.03686282061707, 1.9814343778874497, 0.3822604757039978, -0.844726259142789, -1.1081917469966105, 1.0644536267380345, -1.2773959291125143, -0.8828052560957371, -0.6550023568928509], "biases": [-0.4051319566548915, -0.3990939921258045, 1.5097292934419253, -2.530304132524687, 1.6852051170267743, 0.2871297661640687, 0.7534710838729806, -1.1290910247527226, -2.1051886023368063, -0.7326489131123842, 1.5888816561255688, -1.6869076572609807, 1.6299767050364933]}