{"generation": 69, "inputs": ["y", "yvel", "ypipe"], "outputs": ["jump"], "layers": [3, 4, 4, 1], "activation": "sigmoid", "ticks": 863148, "time": 30.58422827720642, "weights": [0.2773049071640988, 0.5501129309453999, -0.046271546529468494, -0.7888599553509377, -0.7320199366154277, 0.9031478505979984, 0.5193181633713118, 0.283844988805603, -0.9129946061467725, -0.3295148182231454, 0.08352383695419927, 0.9750670910856042, 0.07142428079350993, -0.1825912968768125, -0.4747607823411596, -0.11522134715002191, 0.6265921496498323, 0.5637030123728695, 0.6934663224912235, 0.19492912841417004, 0.9834049837731923, -0.2823088252837601, -0.7367634054977573, -0.18186195357388038, -0.792944938902248, 0.8513495793398808, 0.2750648822323381, -0.48930977731947806, 0.20003383878170597, -0.1896575512984233, -0.6665550460349383, 0.7928076328151589], "biases": [0.1416547967349003, 0.32751297678071445, -0.0807466678356985, -0.26081947066833566, -0.14652718269015308, -0.01634227247419976, -0.10527178652026159, -0.08083025210181313, 0.06926160927972096]}