{"generation": 67, "inputs": ["y", "yvel", "xpipe", "ypipe"], "outputs": ["jump"], "layers": [4, 4, 4, 4, 1], "activation": "sigmoid", "ticks": 599804, "weights": [-0.25996243540031916, 0.5047532984037667, 2.135428894095987, 0.45644144693095257, -0.5951676035830236, 0.0460482663727857, 0.906780283775864, 0.6042745846571812, -1.0385641528476315, -0.15475654083731438, 0.6194818595150263, 0.2633108103436709, 0.7371728023507569, -0.006155917401415849, -0.572178169370425, 0.6110792741587047, -0.5684189768884856, -0.8301459603905936, -1.3234997642476487, 0.9006625293824351, 2.3625440946583516, 0.2608976692807661, 1.0297918452615316, 0.4838481719225628, 0.8520117577645949, 0.13333389653744257, -0.6451339644004799, -0.06261980589850046, -0.8695080425202466, 0.13645415318348836, -0.19317949494853043, 1.4996191528020189, -0.2801116005216464, 1.272975899518445, 1.0990416939368801, -0.15283925921113437, 0.6271170996261757, 0.1919109476522016, -0.12007656202364549, -1.0763145985820268, -1.0030152379710173, 0.6149588220211463, 0.630475136209063, 1.1728088584637213, 1.710992035880729, 0.4231117713941804, -0.7774617396001084, -1.1160833219463333, 1.0845686130098282, -1.064364094801005, -1.0041715379686014, -0.4587510025651354], "biases": [-0.2528399692168344, 0.06786714787662572, 1.2672827172272736, -2.098172862389763, 1.4665531047010685, -0.17395049721374262, 0.3117665357503485, -0.820370533889882, -2.176786108162279, -0.9436317167629382, 1.510349857325565, -1.5150153783385172, 1.494515400314095]}