{"generation": 61, "inputs": ["y", "yvel", "ypipe"], "outputs": ["jump"], "layers": [3, 4, 4, 1], "activation": "sigmoid", "ticks": 753478, "time": 26.48791217803955, "weights": [0.28588739720736794, 0.5501129309453999, -0.046271546529468494, -0.8042170569348197, -0.7320199366154277, 0.9069989195339498, 0.5193181633713118, 0.283844988805603, -0.9031735919244314, -0.3295148182231454, 0.08352383695419927, 0.9750670910856042, 0.07142428079350993, -0.21958173318850502, -0.4747607823411596, -0.09720788855326262, 0.6696913846719073, 0.5637030123728695, 0.6934663224912235, 0.21798351801266092, 0.9291725959862354, -0.2823088252837601, -0.7367634054977573, -0.18186195357388038, -0.8245519470395525, 0.8513495793398808, 0.2525656587956356, -0.48930977731947806, 0.20002185426671315, -0.1896575512984233, -0.6895816885553124, 0.7928076328151589], "biases": [0.22103839239318554, 0.32751297678071445, -0.01838574874762728, -0.1749967194838935, -0.14652718269015308, 0.03445206603534484, -0.12622285785966478, -0.06767718271946732, 0.07120481174389964]}