{"generation": 624, "inputs": ["y", "yvel", "xpipe", "ypipe"], "outputs": ["jump"], "layers": [4, 4, 4, 4, 1], "activation": "sigmoid", "ticks": 6323533, "weights": [-0.9186230323326837, 0.17617614142047672, 2.330877114067763, 0.35878948528938764, -0.5745568740150588, -0.15219032888980671, 0.894390366114398, 0.47947927259852907, -1.0313778063762546, -0.007661368865117802, 0.8482578637057362, 0.5013949193555922, -0.010007498851037477, -0.1417061836579155, -0.6812210829839809, 0.7551150496851209, -0.32596541633766457, -1.011536723898546, -1.4322554671224748, 1.2872549592510534, 2.610684693481256, 0.3527320118849973, 1.2559347696021343, 0.10896960588692492, 0.9363437835769624, -0.020870952269308823, -0.8658522867155355, 0.07954127505315878, -0.9560453645559418, 0.1255792932383023, -0.0486205039212636, 1.3434032145714347, -0.1609255321522747, 1.4734484647380626, 1.2408228265921775, -0.3056767795190161, 0.49289788255959033, 0.4446430356525834, -0.04557636707270072, -1.0438114836690433, -1.3162978801887206, 0.31985334607474525, 0.8947646000580584, 1.046882423505165, 1.970256635354137, 0.3822604757039978, -0.8373949072298823, -1.1581045610072527, 1.0644536267380345, -1.2773959291125143, -0.8828052560957371, -0.6750874800234753], "biases": [-0.3151424675144012, -0.3866749145426039, 1.5010766039105496, -2.4812878204461373, 1.5874223451015699, 0.30383695847682335, 0.7583520959948186, -1.113531534562931, -2.082680953499449, -0.7164788877446504, 1.6853330020546178, -1.6936743820460451, 1.6423977220610773]}