{"generation": 698, "inputs": ["y", "yvel", "ypipe"], "outputs": ["jump"], "layers": [3, 4, 4, 1], "activation": "sigmoid", "ticks": 28286313, "time": 2219.785883665085, "weights": [0.2920023772163417, 0.5034682467037035, -0.09640241499022718, -0.5838373233882626, -0.734351887091736, 0.7004774284291706, 0.7063605801992785, 0.4585228126075286, -1.130277758778897, -0.3723429676609771, 0.10773152998127754, 1.1699261304193491, -0.040392618948767965, -0.5297768055356578, -0.27973150530625884, 0.3893474920316727, 0.516012508306885, 0.48435275608453254, 0.6440230740453808, 0.07826670377584816, 1.164838778820393, -0.44333457730427706, -0.6954685429096561, 0.11338469494440714, -0.9057435152426085, 1.2342045930294436, 0.014021129603397683, -0.5982763112801823, 0.2144256480226981, -0.2549267859194981, -0.8069219389965754, 0.8390925776057486], "biases": [-0.5014147363811319, 0.441397107123011, -0.4337101452990407, 0.2832730788906097, 0.27808444519219094, -0.4335336501444215, -0.17167759026261442, -0.006994535311092294, -0.03372794289200544]}