{"generation": 641, "inputs": ["y", "yvel", "xpipe", "ypipe"], "outputs": ["jump"], "layers": [4, 4, 4, 4, 1], "activation": "sigmoid", "ticks": 6764622, "weights": [-0.9631677778731619, 0.17617614142047672, 2.312449730201288, 0.32117758233631116, -0.5298949936611809, -0.13485971815415768, 0.894390366114398, 0.4347909807122703, -1.0313778063762546, -0.007661368865117802, 0.8482578637057362, 0.5013949193555922, -0.03777013622484228, -0.1417061836579155, -0.7065223062190038, 0.7142307950520703, -0.3422666799976615, -1.0410758460607916, -1.4322554671224748, 1.2872549592510534, 2.570328416524188, 0.39144234926030724, 1.2438458685697693, 0.13295996616639524, 0.9363437835769624, -0.023275440915969288, -0.8474185264503287, 0.11157935831020069, -0.9519653765899144, 0.09680131028231079, -0.060370949025389586, 1.3182429940607536, -0.1927573379765749, 1.4734484647380626, 1.2408228265921775, -0.33552093412321116, 0.49289788255959033, 0.4446430356525834, -0.04557636707270072, -1.0793251710733751, -1.3633382327496286, 0.3342102160205248, 0.8708886196927076, 1.0167068226795895, 1.9814343778874497, 0.3822604757039978, -0.844726259142789, -1.1081917469966105, 1.0644536267380345, -1.2773959291125143, -0.8828052560957371, -0.6338973867125982], "biases": [-0.4126722120310765, -0.3831260156995466, 1.4686207504855275, -2.530304132524687, 1.696622317007096, 0.27554575979887364, 0.7348166371415966, -1.1290910247527226, -2.0662387700064033, -0.7223000391056491, 1.6054048791464541, -1.672725808508511, 1.6299767050364933]}