{"generation": 695, "inputs": ["y", "yvel", "ypipe"], "outputs": ["jump"], "layers": [3, 4, 4, 1], "activation": "sigmoid", "ticks": 28150110, "time": 2215.3258228302, "weights": [0.2920023772163417, 0.5034682467037035, -0.09640241499022718, -0.5838373233882626, -0.734351887091736, 0.7004774284291706, 0.7063605801992785, 0.4585228126075286, -1.130277758778897, -0.3723429676609771, 0.10773152998127754, 1.1319696936065478, -0.040392618948767965, -0.5650285230326377, -0.27973150530625884, 0.3893474920316727, 0.516012508306885, 0.4827983126075172, 0.6440230740453808, 0.07826670377584816, 1.164838778820393, -0.44333457730427706, -0.6954685429096561, 0.06940980793737994, -0.9057435152426085, 1.2342045930294436, 0.014021129603397683, -0.5982763112801823, 0.2144256480226981, -0.2549267859194981, -0.8069219389965754, 0.8390925776057486], "biases": [-0.5238542501557464, 0.481930888380859, -0.4176912229705865, 0.2832730788906097, 0.27808444519219094, -0.4646090125770064, -0.18276968216564138, -0.006994535311092294, -0.034479225387965565]}