{"generation": 645, "inputs": ["y", "yvel", "xpipe", "ypipe"], "outputs": ["jump"], "layers": [4, 4, 4, 4, 1], "activation": "sigmoid", "ticks": 6872725, "weights": [-0.9631677778731619, 0.17617614142047672, 2.316202731335204, 0.32117758233631116, -0.5298949936611809, -0.13485971815415768, 0.894390366114398, 0.4347909807122703, -1.0313778063762546, -0.007661368865117802, 0.8482578637057362, 0.5013949193555922, -0.03777013622484228, -0.1417061836579155, -0.7173932503100535, 0.7142307950520703, -0.3422666799976615, -1.0410758460607916, -1.4198771780817208, 1.2872549592510534, 2.570328416524188, 0.39144234926030724, 1.2438458685697693, 0.13295996616639524, 0.9363437835769624, -0.023275440915969288, -0.8474185264503287, 0.11157935831020069, -0.9606242344264841, 0.09680131028231079, -0.10515913295808951, 1.3497428251506984, -0.1927573379765749, 1.4734484647380626, 1.2408228265921775, -0.33552093412321116, 0.49289788255959033, 0.4446430356525834, -0.04557636707270072, -1.0793251710733751, -1.3903742345497732, 0.3342102160205248, 0.8708886196927076, 1.0167068226795895, 1.9814343778874497, 0.3822604757039978, -0.844726259142789, -1.1081917469966105, 1.0644536267380345, -1.2773959291125143, -0.8828052560957371, -0.6609186720967267], "biases": [-0.4126722120310765, -0.39919361902395484, 1.4286200719505722, -2.5403731941764973, 1.7393716518939295, 0.27554575979887364, 0.7163482924095913, -1.1601140465196684, -2.0662387700064033, -0.7192176484503386, 1.6054048791464541, -1.6440796439792975, 1.6299767050364933]}