{"generation": 674, "inputs": ["y", "yvel", "xpipe", "ypipe"], "outputs": ["jump"], "layers": [4, 4, 4, 4, 1], "activation": "sigmoid", "ticks": 7589095, "weights": [-1.045494851060461, 0.17617614142047672, 2.3189108826847087, 0.34502355789228945, -0.5221189263213314, -0.11633446904856426, 0.8812082922314888, 0.43330013156571856, -1.0347856196495626, -0.007661368865117802, 0.8130418182206293, 0.4857068708735369, -0.013851827364161063, -0.1297458407814159, -0.7733176118412552, 0.7142307950520703, -0.32444752965545454, -1.02324111940231, -1.4730932798031575, 1.2855832684103272, 2.580623061022037, 0.3770304246249845, 1.261410799379248, 0.1743477338546392, 0.919876047914067, -0.05173619030312204, -0.8367523605618494, 0.09492487955031265, -0.9376296286383073, 0.09680131028231079, -0.1097437016644937, 1.3497428251506984, -0.198340770700188, 1.5366103349434146, 1.2408228265921775, -0.3475978685868246, 0.49289788255959033, 0.5006587706362912, -0.04873360398619727, -1.1518522713198927, -1.3687809750557172, 0.3047279701734903, 0.8430287114414411, 0.9954446161250854, 2.0421657150668255, 0.3827178832350078, -0.939761459030734, -1.0709476633631219, 1.0761905108852718, -1.2773959291125143, -0.8828052560957371, -0.6609186720967267], "biases": [-0.44912481167721924, -0.38160714951042646, 1.4423195934412798, -2.469271086931915, 1.7840106720744546, 0.20263131253522704, 0.6775307910806581, -1.0829780237645088, -2.1196791967143684, -0.6789566744359328, 1.6862864279064294, -1.6665455777523226, 1.6643218716165973]}