{"generation": 661, "inputs": ["y", "yvel", "xpipe", "ypipe"], "outputs": ["jump"], "layers": [4, 4, 4, 4, 1], "activation": "sigmoid", "ticks": 7275908, "weights": [-0.9978236130729838, 0.17617614142047672, 2.316202731335204, 0.34502355789228945, -0.5298949936611809, -0.13485971815415768, 0.9033540527139668, 0.459417634655847, -1.0712211336048891, -0.007661368865117802, 0.8424440049123737, 0.45906983251727623, -0.013851827364161063, -0.1297458407814159, -0.7634950272766703, 0.7142307950520703, -0.32444752965545454, -1.0033426053519479, -1.4410029793355061, 1.2855832684103272, 2.570328416524188, 0.3770304246249845, 1.261410799379248, 0.13295996616639524, 0.9784456403625303, -0.023275440915969288, -0.8367523605618494, 0.11157935831020069, -0.9606242344264841, 0.09680131028231079, -0.1097437016644937, 1.3497428251506984, -0.1927573379765749, 1.5366103349434146, 1.2408228265921775, -0.3475978685868246, 0.49289788255959033, 0.5006587706362912, -0.04873360398619727, -1.1518522713198927, -1.3687809750557172, 0.3342102160205248, 0.8708886196927076, 0.9954446161250854, 2.036315939418107, 0.3827178832350078, -0.86079168907301, -1.1081917469966105, 1.0761905108852718, -1.2773959291125143, -0.8828052560957371, -0.6609186720967267], "biases": [-0.4311714539388715, -0.36179168280393764, 1.4458486783680629, -2.5545872507960885, 1.7151604278605657, 0.31902018117277375, 0.7228172262811143, -1.0945579590418664, -2.102372182645312, -0.7412832797075808, 1.6251803524087478, -1.685402069702985, 1.6693386819068001]}