{"generation": 654, "inputs": ["y", "yvel", "xpipe", "ypipe"], "outputs": ["jump"], "layers": [4, 4, 4, 4, 1], "activation": "sigmoid", "ticks": 7102092, "weights": [-0.9631677778731619, 0.17617614142047672, 2.316202731335204, 0.34502355789228945, -0.5298949936611809, -0.13485971815415768, 0.9033540527139668, 0.45927536168085603, -1.0731908307274967, -0.007661368865117802, 0.8482578637057362, 0.506315405526901, -0.013851827364161063, -0.1297458407814159, -0.7173932503100535, 0.7142307950520703, -0.3422666799976615, -1.0410758460607916, -1.4410029793355061, 1.2855832684103272, 2.570328416524188, 0.39144234926030724, 1.2438458685697693, 0.13295996616639524, 0.9784456403625303, -0.023275440915969288, -0.8367523605618494, 0.11157935831020069, -0.9606242344264841, 0.09680131028231079, -0.1097437016644937, 1.3497428251506984, -0.1927573379765749, 1.5366103349434146, 1.2408228265921775, -0.3475978685868246, 0.49289788255959033, 0.4446430356525834, -0.05885381766350922, -1.1025665832689595, -1.3687809750557172, 0.3342102160205248, 0.8708886196927076, 1.0453887063643839, 2.036315939418107, 0.3827178832350078, -0.844726259142789, -1.1081917469966105, 1.0761905108852718, -1.2773959291125143, -0.8828052560957371, -0.6609186720967267], "biases": [-0.45070777107017657, -0.40967959507515117, 1.428034637011983, -2.5423263283706072, 1.7371126642407766, 0.2806789158442428, 0.6900624420423587, -1.091305618154558, -2.099649523021965, -0.7192176484503386, 1.7149229115142521, -1.652860856429586, 1.661680208441869]}