{"generation": 759, "inputs": ["y", "yvel", "xpipe", "ypipe"], "outputs": ["jump"], "layers": [4, 4, 4, 4, 1], "activation": "sigmoid", "ticks": 11812494, "weights": [-1.1296596726569987, 0.1635322761198771, 2.2026730960920173, 0.3395548033881962, -0.4471020462374204, -0.03530271956246724, 0.8545098864902303, 0.36818247869855497, -0.957028748319908, -0.007661368865117802, 0.90936583141309, 0.5485293720566855, -0.07000800118003839, -0.1297458407814159, -0.7878357540519004, 0.7993976446283154, -0.3435698904056364, -1.0495919270112029, -1.4876161201601354, 1.3094735857793043, 2.6727081190660487, 0.35897526885364767, 1.2215191873020734, 0.1493841906752547, 0.8592470967586521, -0.12988087661757142, -0.8074827693149202, 0.10609431986013863, -0.8966781100102111, 0.2276976389114379, -0.14445550991795758, 1.3266148034720922, -0.1753337918835928, 1.523702528964893, 1.1043316697988685, -0.43015746619631123, 0.34853247313043034, 0.49863968762421157, -0.06907487071245941, -1.099951381707069, -1.344594221013135, 0.2501386289192013, 0.8669433902969902, 1.0941540858566712, 1.9961378439926638, 0.37140334521273694, -0.9510167389620697, -1.0899324980975962, 1.0880126727370252, -1.273150514179925, -0.8354784548239155, -0.7128318802234637], "biases": [-0.5047315555451457, -0.48223473249459187, 1.4739101118368716, -2.5589049532049435, 1.5073825609509321, -0.012595610138484335, 0.9043982265658931, -1.0515289197924127, -2.186907156725986, -0.6446234178073236, 1.5320160470847477, -1.5060253177092755, 1.6152503975075285]}