{"generation": 768, "inputs": ["y", "yvel", "ypipe"], "outputs": ["jump"], "layers": [3, 4, 4, 1], "activation": "sigmoid", "ticks": 30805881, "time": 2316.922474861145, "weights": [0.38918411492121613, 0.5062888602953468, -0.09640241499022718, -0.5966421574285486, -0.7184131426509273, 0.6584706472798149, 0.783490468840669, 0.40987150620941254, -1.1956621696703795, -0.36781543725214894, 0.10773152998127754, 1.194708115048891, -0.003848710555289859, -0.5581596154365739, -0.26187177053451455, 0.28295391141455056, 0.4982733698359298, 0.552557090763227, 0.6736102468680852, 0.0891685591665842, 1.078597512773022, -0.4602420495585858, -0.6679267193575539, 0.19435924153226894, -0.8673181186577763, 1.2506540630250929, -0.013596097982223079, -0.5773334811632256, 0.2144256480226981, -0.2881255405197822, -0.7739487153196777, 0.8513892783259602], "biases": [-0.36816719915224916, 0.6693258881397038, -0.4568493652827654, 0.3086257746773581, 0.1549997602918188, -0.425336571487025, -0.35539417008125873, 0.16550031265200635, -0.09303798202627941]}