{"generation": 778, "inputs": ["y", "yvel", "xpipe", "ypipe"], "outputs": ["jump"], "layers": [4, 4, 4, 4, 1], "activation": "sigmoid", "ticks": 13183208, "weights": [-1.0987573809650488, 0.17045981480653166, 2.2288764184175682, 0.3703877736816436, -0.47131039524475615, -0.03530271956246724, 0.8545098864902303, 0.36818247869855497, -1.0123829330474652, -0.007661368865117802, 0.8639404930055005, 0.5485293720566855, -0.08768982754067758, -0.1297458407814159, -0.7878357540519004, 0.7774243323638257, -0.29758636282659967, -1.0659043869806588, -1.5268238626546182, 1.2961409454207682, 2.6727081190660487, 0.3572337302499952, 1.2215191873020734, 0.1489982172365986, 0.8394671392953083, -0.1265280409982817, -0.7672274771656669, 0.11617132790549795, -0.9209923398111302, 0.1952548919442895, -0.1276968322051133, 1.3422670354137836, -0.1885991635176974, 1.523702528964893, 1.1025194224464046, -0.4322860006385507, 0.34853247313043034, 0.5164185256590251, -0.0567510124487063, -1.1117623991039784, -1.3030602986630369, 0.2647224865586392, 0.8669433902969902, 1.0633244450143027, 1.9624339366812713, 0.364218926945365, -0.9510167389620697, -1.1024852186895795, 1.0880126727370252, -1.273150514179925, -0.8410105783224855, -0.7128318802234637], "biases": [-0.512485081246248, -0.5640130526448301, 1.5399137505594787, -2.5589768916870685, 1.4908552416142944, 0.01082666545267267, 0.8922921618300221, -0.9823544076271099, -2.1146972111549305, -0.6702567056885991, 1.4627359996835811, -1.4558430778301572, 1.6054406935932142]}