{"generation": 756, "inputs": ["y", "yvel", "ypipe"], "outputs": ["jump"], "layers": [3, 4, 4, 1], "activation": "sigmoid", "ticks": 30377975, "time": 2300.2962868213654, "weights": [0.38918411492121613, 0.5034682467037035, -0.09640241499022718, -0.5966421574285486, -0.7184131426509273, 0.6584706472798149, 0.7878125421552429, 0.40987150620941254, -1.192162233995445, -0.36781543725214894, 0.10773152998127754, 1.194708115048891, -0.058316948803109295, -0.5581596154365739, -0.25726414122218, 0.3724596537684386, 0.4982733698359298, 0.552557090763227, 0.6736102468680852, 0.0891685591665842, 1.0432101163866319, -0.4602420495585858, -0.7265892672637544, 0.13746349289137266, -0.8423868740353756, 1.2754609756644317, -0.013596097982223079, -0.5773334811632256, 0.2144256480226981, -0.2881255405197822, -0.8069219389965754, 0.8510869258334116], "biases": [-0.3346066280240173, 0.6368491150754102, -0.46547962783845953, 0.24842166850045733, 0.18382215101209773, -0.38486678518620615, -0.32512930060219336, 0.17009907451203785, -0.06996396648103534]}