{"generation": 751, "inputs": ["y", "yvel", "xpipe", "ypipe"], "outputs": ["jump"], "layers": [4, 4, 4, 4, 1], "activation": "sigmoid", "ticks": 11191337, "weights": [-1.1296596726569987, 0.1635322761198771, 2.2503714060628197, 0.3395548033881962, -0.4471020462374204, -0.03530271956246724, 0.8521804713436969, 0.36818247869855497, -0.957028748319908, -0.007661368865117802, 0.90936583141309, 0.5485293720566855, -0.07000800118003839, -0.1297458407814159, -0.8093607241993263, 0.8298240730389856, -0.3435698904056364, -1.0495919270112029, -1.4876161201601354, 1.3094735857793043, 2.6561027082071975, 0.3481480281540907, 1.2215191873020734, 0.1493841906752547, 0.8359513230016875, -0.12988087661757142, -0.8074827693149202, 0.07857284407287125, -0.9284869840320772, 0.2276976389114379, -0.16920103131669023, 1.3266148034720922, -0.1608805846443385, 1.5365548028843294, 1.1499962742448635, -0.404154213211812, 0.34853247313043034, 0.49863968762421157, -0.06907487071245941, -1.148550023569593, -1.3309142366917748, 0.2501386289192013, 0.8669433902969902, 1.0915742601880998, 2.0260045834325338, 0.3773755881169786, -0.9510167389620697, -1.0899324980975962, 1.0880126727370252, -1.273150514179925, -0.8431341476633089, -0.7222812192129138], "biases": [-0.46526224878898675, -0.44283658115624086, 1.4921915762110167, -2.5924707473305, 1.6025712959600107, -0.012595610138484335, 0.8032098461819367, -1.0515289197924127, -2.1850743515717195, -0.6524980828739083, 1.5320160470847477, -1.5539770554395107, 1.6152503975075285]}