{"generation": 772, "inputs": ["y", "yvel", "ypipe"], "outputs": ["jump"], "layers": [3, 4, 4, 1], "activation": "sigmoid", "ticks": 30960845, "time": 2322.073079586029, "weights": [0.37033858816244136, 0.5062888602953468, -0.09640241499022718, -0.5966421574285486, -0.7040148041747868, 0.6982259912391573, 0.783490468840669, 0.40987150620941254, -1.1956621696703795, -0.36781543725214894, 0.10773152998127754, 1.194708115048891, -0.003848710555289859, -0.5889484435763032, -0.28281936603848556, 0.23877659735429121, 0.4982733698359298, 0.552557090763227, 0.6736102468680852, 0.1025539473530481, 1.078597512773022, -0.4602420495585858, -0.6679267193575539, 0.19435924153226894, -0.8673181186577763, 1.2506540630250929, -0.013596097982223079, -0.5773334811632256, 0.2144256480226981, -0.2881255405197822, -0.7739487153196777, 0.8513892783259602], "biases": [-0.41840638123797097, 0.6828342308955907, -0.4568493652827654, 0.3356272969440574, 0.15748134993833246, -0.3947899295353098, -0.36653463621761234, 0.16550031265200635, -0.09303798202627941]}