{"generation": 721, "inputs": ["y", "yvel", "xpipe", "ypipe"], "outputs": ["jump"], "layers": [4, 4, 4, 4, 1], "activation": "sigmoid", "ticks": 9228712, "weights": [-1.1505374917083624, 0.1635322761198771, 2.3189108826847087, 0.32671156727848455, -0.43306874781056315, -0.08501384813369947, 0.8908612773987055, 0.3701018151591806, -0.957028748319908, -0.007661368865117802, 0.8834937938041889, 0.5485293720566855, -0.035665648523994134, -0.1297458407814159, -0.8193205232859597, 0.8140284888721868, -0.3869335330584035, -1.0006161400479967, -1.503103311202169, 1.3094735857793043, 2.6908437680853825, 0.3481480281540907, 1.2215191873020734, 0.20887066337532964, 0.8704366175828071, -0.11013095385731092, -0.8367523605618494, 0.048964394886406894, -0.9284869840320772, 0.18190360392525826, -0.16920103131669023, 1.3576795977847855, -0.198340770700188, 1.5121070165029784, 1.1997135430790886, -0.3730537561691047, 0.436446873029617, 0.4985702501926302, -0.03919318770451445, -1.1756121711299272, -1.3748468442305748, 0.25601100640554664, 0.8018224497587197, 1.052727876020004, 2.0161180715176594, 0.35993590115029245, -0.9704839912555515, -1.0693595740441353, 1.07971695530136, -1.2773959291125143, -0.8504346559377199, -0.6988361591090201], "biases": [-0.5064252302994612, -0.519568299244115, 1.4658835613212389, -2.5830518744195414, 1.5886724212409011, 0.06628132661559039, 0.7485366005649424, -1.089125676789348, -2.135090585447464, -0.6830803487899937, 1.6643051678583167, -1.5192369521826685, 1.6152503975075285]}