{"generation": 750, "inputs": ["y", "yvel", "ypipe"], "outputs": ["jump"], "layers": [3, 4, 4, 1], "activation": "sigmoid", "ticks": 30166110, "time": 2292.1391468048096, "weights": [0.38918411492121613, 0.5034682467037035, -0.09640241499022718, -0.5966421574285486, -0.7184131426509273, 0.6584706472798149, 0.7878125421552429, 0.40987150620941254, -1.192162233995445, -0.36181652552425037, 0.10773152998127754, 1.194708115048891, -0.013159696636185545, -0.5581596154365739, -0.25726414122218, 0.4342043901063112, 0.5429351019597304, 0.552557090763227, 0.6736102468680852, 0.05849413555840155, 1.0432101163866319, -0.4602420495585858, -0.7265892672637544, 0.13746349289137266, -0.8822316568482236, 1.2754609756644317, -0.01040236862852785, -0.5423715477137607, 0.2144256480226981, -0.2881255405197822, -0.8069219389965754, 0.8510869258334116], "biases": [-0.345771544846033, 0.6913717464823884, -0.47005316880902553, 0.2433681781376226, 0.1799373034149493, -0.41026259987892616, -0.32512930060219336, 0.17121535273840255, -0.06996396648103534]}