{"generation": 76, "inputs": ["y", "yvel", "ypipe"], "outputs": ["jump"], "layers": [3, 4, 4, 1], "activation": "sigmoid", "ticks": 958122, "time": 34.1487979888916, "weights": [0.2773049071640988, 0.5501129309453999, -0.046271546529468494, -0.8170659456326651, -0.7460214934843457, 0.9031478505979984, 0.5589318057275715, 0.283844988805603, -0.9129946061467725, -0.3295148182231454, 0.08352383695419927, 0.9750670910856042, 0.07142428079350993, -0.1825912968768125, -0.4956203736817836, -0.11522134715002191, 0.6406084924131474, 0.5637030123728695, 0.740114956052181, 0.18948574540825158, 0.9834049837731923, -0.3105301901853264, -0.70030777254798, -0.18186195357388038, -0.792944938902248, 0.8693784495664153, 0.26463965244006277, -0.48930977731947806, 0.1855839824640801, -0.1896575512984233, -0.6665550460349383, 0.8138442970104023], "biases": [0.0650577407903165, 0.373000057876584, -0.0807466678356985, -0.25812227474367616, -0.22904790810890635, -0.055726088202953834, -0.12723274180703953, -0.08083025210181313, 0.06628261099123246]}