{"generation": 733, "inputs": ["y", "yvel", "xpipe", "ypipe"], "outputs": ["jump"], "layers": [4, 4, 4, 4, 1], "activation": "sigmoid", "ticks": 9908538, "weights": [-1.1640812993541156, 0.1635322761198771, 2.2955486224487536, 0.34671591409651126, -0.4471020462374204, -0.08317722042365577, 0.8742475911946502, 0.3701018151591806, -0.957028748319908, -0.007661368865117802, 0.8834937938041889, 0.5485293720566855, -0.035665648523994134, -0.1297458407814159, -0.8193205232859597, 0.8140284888721868, -0.3869335330584035, -1.013478402913492, -1.512277245883033, 1.3094735857793043, 2.6561027082071975, 0.3481480281540907, 1.2215191873020734, 0.17732872013094889, 0.8704366175828071, -0.09726426677015396, -0.8367523605618494, 0.048964394886406894, -0.9284869840320772, 0.2079469371909028, -0.16920103131669023, 1.354089608076299, -0.15945654939017476, 1.5121070165029784, 1.1499962742448635, -0.3730537561691047, 0.36433146308137915, 0.4985702501926302, -0.021670606514206478, -1.1096136301859054, -1.3309142366917748, 0.2501386289192013, 0.8018224497587197, 1.052727876020004, 1.9818898891780854, 0.35993590115029245, -0.9704839912555515, -1.0693595740441353, 1.07971695530136, -1.2773959291125143, -0.8431341476633089, -0.6934270112705179], "biases": [-0.39724599136304783, -0.4862452494197302, 1.445593542710241, -2.5830518744195414, 1.6048677300560772, -0.010421290227989898, 0.8015916084453901, -1.0393974322447936, -2.185276043174543, -0.6574548506920109, 1.5859710841315104, -1.555861124746283, 1.6152503975075285]}