{"generation": 765, "inputs": ["y", "yvel", "ypipe"], "outputs": ["jump"], "layers": [3, 4, 4, 1], "activation": "sigmoid", "ticks": 30712374, "time": 2312.8700647354126, "weights": [0.38918411492121613, 0.5062888602953468, -0.09640241499022718, -0.5966421574285486, -0.7184131426509273, 0.6584706472798149, 0.783490468840669, 0.40987150620941254, -1.1956621696703795, -0.36781543725214894, 0.10773152998127754, 1.194708115048891, -0.01768257801786558, -0.5581596154365739, -0.26187177053451455, 0.3259635274383281, 0.4982733698359298, 0.552557090763227, 0.6736102468680852, 0.0891685591665842, 1.078597512773022, -0.4602420495585858, -0.704803564598347, 0.15234003615780395, -0.8423868740353756, 1.2506540630250929, -0.013596097982223079, -0.5773334811632256, 0.2144256480226981, -0.2881255405197822, -0.8138907601658061, 0.8513892783259602], "biases": [-0.41141654265340566, 0.6693258881397038, -0.4568493652827654, 0.2661070337766274, 0.1549997602918188, -0.425336571487025, -0.33295386306057256, 0.1430330042274952, -0.06996396648103534]}