{"generation": 745, "inputs": ["y", "yvel", "xpipe", "ypipe"], "outputs": ["jump"], "layers": [4, 4, 4, 4, 1], "activation": "sigmoid", "ticks": 10759749, "weights": [-1.1640812993541156, 0.1635322761198771, 2.2739577793911963, 0.34671591409651126, -0.4471020462374204, -0.03530271956246724, 0.8521804713436969, 0.36818247869855497, -0.957028748319908, -0.007661368865117802, 0.8881573708828082, 0.5485293720566855, -0.036080238095050954, -0.1297458407814159, -0.8093607241993263, 0.8298240730389856, -0.3753492058783507, -1.013478402913492, -1.512277245883033, 1.3094735857793043, 2.6561027082071975, 0.3481480281540907, 1.2215191873020734, 0.1493841906752547, 0.8359513230016875, -0.12988087661757142, -0.8367523605618494, 0.07857284407287125, -0.9284869840320772, 0.2276976389114379, -0.16920103131669023, 1.3266148034720922, -0.1608805846443385, 1.5365548028843294, 1.1499962742448635, -0.404154213211812, 0.34853247313043034, 0.49863968762421157, -0.021670606514206478, -1.1096136301859054, -1.3309142366917748, 0.2501386289192013, 0.8669433902969902, 1.0904376909008384, 2.0260045834325338, 0.35993590115029245, -0.9510167389620697, -1.0693595740441353, 1.07971695530136, -1.2773959291125143, -0.8431341476633089, -0.6934270112705179], "biases": [-0.424779965667663, -0.48116896354130106, 1.4921915762110167, -2.5924707473305, 1.6025712959600107, 0.02056943736277938, 0.8015916084453901, -1.024194229553874, -2.1804523545462704, -0.6524980828739083, 1.5645321181166816, -1.5710284127590362, 1.6152503975075285]}