{"generation": 767, "inputs": ["y", "yvel", "xpipe", "ypipe"], "outputs": ["jump"], "layers": [4, 4, 4, 4, 1], "activation": "sigmoid", "ticks": 12352737, "weights": [-1.0987573809650488, 0.15707640396575925, 2.2026730960920173, 0.3395548033881962, -0.43493374758987796, -0.03530271956246724, 0.8545098864902303, 0.36818247869855497, -1.0123829330474652, -0.007661368865117802, 0.90936583141309, 0.5485293720566855, -0.07000800118003839, -0.1297458407814159, -0.7878357540519004, 0.7993976446283154, -0.314804878514765, -1.0659043869806588, -1.4876161201601354, 1.2961409454207682, 2.6727081190660487, 0.3572337302499952, 1.2215191873020734, 0.16840323972825755, 0.8394671392953083, -0.205587067382826, -0.8074827693149202, 0.10609431986013863, -0.8966781100102111, 0.17796316349217883, -0.1276968322051133, 1.342562359456975, -0.1885991635176974, 1.523702528964893, 1.1043316697988685, -0.43015746619631123, 0.34853247313043034, 0.5561724128963945, -0.06907487071245941, -1.099951381707069, -1.344594221013135, 0.2501386289192013, 0.8669433902969902, 1.0633244450143027, 1.9961378439926638, 0.37140334521273694, -0.9510167389620697, -1.0532243495927323, 1.0880126727370252, -1.273150514179925, -0.8354784548239155, -0.7128318802234637], "biases": [-0.42439191852784847, -0.5640130526448301, 1.520610553271798, -2.594790557847206, 1.5240618934618828, 0.043512375463057244, 0.8760114911731336, -1.00414670358419, -2.1894107279774984, -0.6446234178073236, 1.5184349153580192, -1.5195411504353153, 1.6152503975075285]}