{"generation": 760, "inputs": ["y", "yvel", "ypipe"], "outputs": ["jump"], "layers": [3, 4, 4, 1], "activation": "sigmoid", "ticks": 30530056, "time": 2306.201275587082, "weights": [0.38918411492121613, 0.5034682467037035, -0.09640241499022718, -0.5966421574285486, -0.7184131426509273, 0.6584706472798149, 0.7878125421552429, 0.40987150620941254, -1.1956621696703795, -0.36781543725214894, 0.10773152998127754, 1.194708115048891, -0.058316948803109295, -0.5581596154365739, -0.26187177053451455, 0.3497513461062224, 0.4982733698359298, 0.552557090763227, 0.6736102468680852, 0.0891685591665842, 1.0432101163866319, -0.4602420495585858, -0.7265892672637544, 0.15234003615780395, -0.8423868740353756, 1.2754609756644317, -0.013596097982223079, -0.5773334811632256, 0.2144256480226981, -0.2881255405197822, -0.8138907601658061, 0.8513892783259602], "biases": [-0.35810759983579693, 0.6368491150754102, -0.4568493652827654, 0.2661070337766274, 0.17173827430862107, -0.38486678518620615, -0.32512930060219336, 0.17009907451203785, -0.06996396648103534]}