{"generation": 815, "inputs": ["y", "yvel", "xpipe", "ypipe"], "outputs": ["jump"], "layers": [4, 4, 4, 4, 1], "activation": "sigmoid", "ticks": 16621123, "weights": [-1.1809656908542248, 0.17119878359801094, 2.2691554152900495, 0.42399888500136446, -0.47307383534512865, 0.033478913810717534, 0.8368371920699506, 0.3609763176809853, -1.0408295309081708, -0.007661368865117802, 0.862998198507961, 0.5485293720566855, -0.19191658383022125, -0.1297458407814159, -0.8282877954560871, 0.7442965940042275, -0.22002611912332426, -1.0472600262271228, -1.5268238626546182, 1.2776621328901245, 2.648028945215585, 0.3572337302499952, 1.1951244016536413, 0.0882442521922639, 0.8344955712699911, -0.15227392841965304, -0.7933397464855304, 0.11617132790549795, -0.9906486797098488, 0.1952548919442895, -0.1687596914758029, 1.334469946546766, -0.18125486822538675, 1.523702528964893, 1.119384826617093, -0.4861105074000239, 0.3611329798722211, 0.4870021189663584, -0.025051612040691167, -1.1682371516971333, -1.2619846707578752, 0.3283968583287111, 0.9137130740437087, 0.9702939599723747, 1.8991969495589154, 0.33464479643155326, -0.906200437445221, -1.1024852186895795, 1.0825565341514314, -1.273150514179925, -0.8410105783224855, -0.7623805625285451], "biases": [-0.5691912772030971, -0.5302581815298792, 1.2677442394224712, -2.560515727475028, 1.5110533280641711, 0.04253079820102908, 0.8562597907471106, -1.0509065010320378, -2.1318342864031474, -0.7095960134072825, 1.4779430780997824, -1.3705046833812986, 1.6059208392092066]}