{"generation": 897, "inputs": ["y", "yvel", "xpipe", "ypipe"], "outputs": ["jump"], "layers": [4, 4, 4, 4, 1], "activation": "sigmoid", "ticks": 24195562, "weights": [-1.0749870518447306, 0.17119878359801094, 2.1688605157787286, 0.35748658434980113, -0.557682725483116, 0.01408577768891614, 0.7876802374957367, 0.19951568399413122, -0.9953665003063863, -0.006577343221213905, 0.844841660911141, 0.5446809682341263, -0.1786593126002772, -0.1297458407814159, -0.8251045007940832, 0.6918828545381877, -0.33276767570609633, -1.057979138832735, -1.5707120535991834, 1.1753609829400447, 2.633001264525132, 0.415920922529613, 1.0393216292831489, 0.10373127526360826, 0.8246609614580168, -0.13818158833081987, -0.7498344462051623, 0.05520423003148651, -1.027608850800511, 0.1444478915537915, -0.16939800348003675, 1.4129731932081246, -0.14287502964193452, 1.5096902631042908, 1.0079145247890857, -0.4952226917920317, 0.411414371228499, 0.411548194415164, 0.07865241935631588, -1.119768388090988, -1.231578115632136, 0.40721641435719597, 0.8903921644967446, 1.0894803324870557, 1.8991969495589154, 0.3507635242114423, -0.8859740159452071, -1.049931346790116, 1.1277555133027544, -1.3124349194937903, -0.8660758388258617, -0.7787276696869021], "biases": [-0.8119502376906613, -0.5800867945362698, 1.4954224171029693, -2.718219986289406, 1.381369656223178, -0.0843273418271123, 0.9181204493111985, -0.8615127861805978, -2.191292440532291, -0.8249109738557211, 1.6123618632496701, -1.259855576562395, 1.6243878563349263]}