{"generation": 863, "inputs": ["y", "yvel", "xpipe", "ypipe"], "outputs": ["jump"], "layers": [4, 4, 4, 4, 1], "activation": "sigmoid", "ticks": 22353152, "weights": [-1.0791802550534668, 0.17119878359801094, 2.1911411711970565, 0.4090572408977947, -0.5355885004718837, 0.040238863918201515, 0.8100461284338254, 0.26020458989523626, -0.9872124785792521, -0.006577343221213905, 0.8479946925459654, 0.5446809682341263, -0.1786593126002772, -0.1297458407814159, -0.8033990990352856, 0.766043113310918, -0.22002611912332426, -1.0745423403131613, -1.5380442724956969, 1.1620020850277561, 2.6062004634443325, 0.37352940548068764, 1.1714178939292919, 0.0882442521922639, 0.7809790343461507, -0.16664175261698044, -0.7504075845693573, 0.09951529339729907, -0.9522281833595496, 0.14886388417281482, -0.21356089428747732, 1.4129731932081246, -0.17017878624970917, 1.4968957000329208, 1.1357903458641088, -0.5191425221225452, 0.3713701822078483, 0.4875766863453081, 0.05445230323718826, -1.121993318106305, -1.2089449176824063, 0.3697690150436156, 0.9415672187501528, 1.0813558886699393, 1.8991969495589154, 0.3507635242114423, -0.8628847751630735, -1.1024852186895795, 1.0849086760450617, -1.3124349194937903, -0.8410105783224855, -0.8194710852526527], "biases": [-0.6941897395551127, -0.4428568849334611, 1.3991862299098692, -2.5812092562954776, 1.4794193119590253, -0.023666334826208515, 0.7808816765708314, -0.9321464299552191, -2.1416238734695616, -0.8079323441645314, 1.587397033293038, -1.3225302118031081, 1.6106391833443063]}