{"generation": 877, "inputs": ["y", "yvel", "xpipe", "ypipe"], "outputs": ["jump"], "layers": [4, 4, 4, 4, 1], "activation": "sigmoid", "ticks": 23100902, "weights": [-1.0631701774697282, 0.17119878359801094, 2.1688605157787286, 0.40653528630227376, -0.5345931337320323, 0.01408577768891614, 0.8100461284338254, 0.23552559712576857, -1.006574093695789, -0.006577343221213905, 0.8544304958570563, 0.5446809682341263, -0.1786593126002772, -0.1297458407814159, -0.8251045007940832, 0.7304157947336044, -0.33276767570609633, -1.0299732523441334, -1.5334173220206864, 1.1620020850277561, 2.6062004634443325, 0.4010841008929672, 1.0927812297452935, 0.10373127526360826, 0.7809790343461507, -0.17410357046967237, -0.7755853368507712, 0.09951529339729907, -1.0074669725028516, 0.14886388417281482, -0.18911106892256918, 1.4129731932081246, -0.17017878624970917, 1.4968957000329208, 1.091106105929411, -0.5191425221225452, 0.3713701822078483, 0.4875766863453081, 0.05445230323718826, -1.121993318106305, -1.231578115632136, 0.4080922737908084, 0.9403521251998217, 1.0807214624710186, 1.8991969495589154, 0.3507635242114423, -0.8701389664692383, -1.0868340830616596, 1.116459690177207, -1.3124349194937903, -0.8562829553470894, -0.7787276696869021], "biases": [-0.7413615729044584, -0.560476740338737, 1.407653910477197, -2.669442714687902, 1.5286688501951942, -0.03516586913568218, 0.8546873357181816, -0.8895383049299097, -2.125756505117573, -0.8079323441645314, 1.5639804351355513, -1.3061573983888806, 1.6243878563349263]}