{"generation": 872, "inputs": ["y", "yvel", "xpipe", "ypipe"], "outputs": ["jump"], "layers": [4, 4, 4, 4, 1], "activation": "sigmoid", "ticks": 22861634, "weights": [-1.0791802550534668, 0.17119878359801094, 2.1688605157787286, 0.40653528630227376, -0.5157846285511631, 0.040238863918201515, 0.8100461284338254, 0.23552559712576857, -1.006574093695789, -0.006577343221213905, 0.8544304958570563, 0.5446809682341263, -0.1786593126002772, -0.1297458407814159, -0.8033990990352856, 0.7304157947336044, -0.2535939908555609, -1.0029551787719115, -1.5334173220206864, 1.1620020850277561, 2.6062004634443325, 0.4010841008929672, 1.1304233817442706, 0.10373127526360826, 0.7809790343461507, -0.15916981968703642, -0.7504075845693573, 0.09951529339729907, -0.9522281833595496, 0.14886388417281482, -0.18911106892256918, 1.4129731932081246, -0.17017878624970917, 1.4968957000329208, 1.091106105929411, -0.5191425221225452, 0.3713701822078483, 0.4875766863453081, 0.05445230323718826, -1.121993318106305, -1.231578115632136, 0.4080922737908084, 0.9415672187501528, 1.055697013454699, 1.8991969495589154, 0.3507635242114423, -0.8701389664692383, -1.1024852186895795, 1.116459690177207, -1.3124349194937903, -0.8562829553470894, -0.7787276696869021], "biases": [-0.6734862274468382, -0.51318559045396, 1.367233008701752, -2.669442714687902, 1.4794193119590253, -0.023666334826208515, 0.8267560849649377, -0.8895383049299097, -2.1341254534047405, -0.8079323441645314, 1.6437868424236206, -1.347620072035127, 1.6106391833443063]}