{"generation": 823, "inputs": ["y", "yvel", "xpipe", "ypipe"], "outputs": ["jump"], "layers": [4, 4, 4, 4, 1], "activation": "sigmoid", "ticks": 19653074, "weights": [-1.1342024358448999, 0.17119878359801094, 2.2691554152900495, 0.3877652651939696, -0.455537364632113, 0.033478913810717534, 0.8368371920699506, 0.31794337136770434, -1.032869407520061, -0.007661368865117802, 0.8761226260018605, 0.5446809682341263, -0.19191658383022125, -0.1297458407814159, -0.806012983880551, 0.766043113310918, -0.22002611912332426, -1.0472600262271228, -1.5268238626546182, 1.2776621328901245, 2.648028945215585, 0.40222123465609394, 1.1951244016536413, 0.0882442521922639, 0.8344955712699911, -0.15227392841965304, -0.7933397464855304, 0.11617132790549795, -0.9724520499436791, 0.1952548919442895, -0.1766018818010121, 1.334469946546766, -0.20339881881426713, 1.523702528964893, 1.088662871109901, -0.4861105074000239, 0.3611329798722211, 0.4870021189663584, -0.025051612040691167, -1.1682371516971333, -1.2731883551873688, 0.3283968583287111, 0.9415672187501528, 0.959644498395578, 1.8991969495589154, 0.33464479643155326, -0.8973642226598348, -1.1024852186895795, 1.0825565341514314, -1.273150514179925, -0.8410105783224855, -0.7994706819204952], "biases": [-0.6173206769895049, -0.5500665829703423, 1.282099557253288, -2.6050015684946612, 1.5170809588544585, 0.011965376567829034, 0.8562597907471106, -1.0686039372808236, -2.1318342864031474, -0.7252100449526677, 1.4588128098910953, -1.3705046833812986, 1.6059208392092066]}