{"generation": 834, "inputs": ["y", "yvel", "xpipe", "ypipe"], "outputs": ["jump"], "layers": [4, 4, 4, 4, 1], "activation": "sigmoid", "ticks": 20811341, "weights": [-1.1816585803931923, 0.17119878359801094, 2.2691554152900495, 0.39089749463385876, -0.455537364632113, 0.033478913810717534, 0.8368371920699506, 0.31794337136770434, -1.032869407520061, -0.007661368865117802, 0.9238543118742282, 0.5446809682341263, -0.22552549657176912, -0.1297458407814159, -0.8033990990352856, 0.766043113310918, -0.22002611912332426, -1.0472600262271228, -1.5268238626546182, 1.2496829492509145, 2.648028945215585, 0.40222123465609394, 1.1951244016536413, 0.0882442521922639, 0.8344955712699911, -0.12128661885318355, -0.7933397464855304, 0.11617132790549795, -0.9724520499436791, 0.1952548919442895, -0.1824394729218816, 1.3819746679628853, -0.20339881881426713, 1.523702528964893, 1.088662871109901, -0.5122136966659445, 0.3595494920117173, 0.47782557164579564, -0.011859796399407166, -1.121993318106305, -1.2031557719148884, 0.3320028326408686, 0.9415672187501528, 1.0537745499328797, 1.8991969495589154, 0.33464479643155326, -0.8535546106052613, -1.1024852186895795, 1.0825565341514314, -1.2907865962522118, -0.8410105783224855, -0.7994706819204952], "biases": [-0.6144647518305602, -0.4800632436805149, 1.330737043040536, -2.6050015684946612, 1.5621576866206932, 0.04603244394877236, 0.8106688055317776, -1.0350922157214533, -2.153730008610219, -0.8181376688725381, 1.5171910571086944, -1.256634806380839, 1.6059208392092066]}