{"generation": 880, "inputs": ["y", "yvel", "xpipe", "ypipe"], "outputs": ["jump"], "layers": [4, 4, 4, 4, 1], "activation": "sigmoid", "ticks": 23245375, "weights": [-1.060622019049331, 0.17119878359801094, 2.1688605157787286, 0.38986372812013836, -0.5345931337320323, 0.01408577768891614, 0.8100461284338254, 0.2609378954572396, -1.006574093695789, -0.006577343221213905, 0.8544304958570563, 0.5446809682341263, -0.1786593126002772, -0.1297458407814159, -0.8251045007940832, 0.7304157947336044, -0.33276767570609633, -1.0299732523441334, -1.5707120535991834, 1.1620020850277561, 2.6062004634443325, 0.4010841008929672, 1.0927812297452935, 0.10373127526360826, 0.7809790343461507, -0.17410357046967237, -0.7755853368507712, 0.09951529339729907, -0.9978541539263188, 0.11021799597139237, -0.18911106892256918, 1.4129731932081246, -0.17017878624970917, 1.4968957000329208, 1.091106105929411, -0.5191425221225452, 0.3713701822078483, 0.4875766863453081, 0.05445230323718826, -1.121993318106305, -1.231578115632136, 0.4080922737908084, 0.9403521251998217, 1.0807214624710186, 1.8991969495589154, 0.3507635242114423, -0.8701389664692383, -1.049931346790116, 1.1277555133027544, -1.3124349194937903, -0.8660758388258617, -0.7787276696869021], "biases": [-0.7413615729044584, -0.560476740338737, 1.3947825837849, -2.669442714687902, 1.458114917869342, -0.03195744807713604, 0.8501264924120415, -0.8895383049299097, -2.166743157218149, -0.8080116913923846, 1.5639804351355513, -1.3061573983888806, 1.6243878563349263]}