{"generation": 887, "inputs": ["y", "yvel", "xpipe", "ypipe"], "outputs": ["jump"], "layers": [4, 4, 4, 4, 1], "activation": "sigmoid", "ticks": 23627671, "weights": [-1.060622019049331, 0.17119878359801094, 2.1688605157787286, 0.38986372812013836, -0.5510590553289715, 0.01408577768891614, 0.7876802374957367, 0.24451705273713595, -1.0078228830091425, -0.006577343221213905, 0.8919006547387849, 0.5446809682341263, -0.1786593126002772, -0.1297458407814159, -0.8251045007940832, 0.7304157947336044, -0.33276767570609633, -1.057979138832735, -1.5707120535991834, 1.1753609829400447, 2.6062004634443325, 0.4010841008929672, 1.051108839215031, 0.10373127526360826, 0.8246609614580168, -0.17410357046967237, -0.7498344462051623, 0.09951529339729907, -0.9978541539263188, 0.0642798563550151, -0.1903815723079067, 1.4129731932081246, -0.14287502964193452, 1.4635996948470058, 1.0079145247890857, -0.5191425221225452, 0.3713701822078483, 0.44716764811991855, 0.05445230323718826, -1.121993318106305, -1.231578115632136, 0.4080922737908084, 0.9403521251998217, 1.0894803324870557, 1.8991969495589154, 0.3507635242114423, -0.9063829428268236, -1.049931346790116, 1.1277555133027544, -1.3124349194937903, -0.8660758388258617, -0.7787276696869021], "biases": [-0.7760418597428244, -0.5578138345417858, 1.3973382466872215, -2.624550808166558, 1.473572805270706, -0.03195744807713604, 0.8683425409818523, -0.8425440647001942, -2.211157143637336, -0.8080116913923846, 1.6123618632496701, -1.298548464510324, 1.6243878563349263]}