{"generation": 86, "inputs": ["y", "yvel", "xpipe", "ypipe"], "outputs": ["jump"], "layers": [4, 4, 4, 4, 1], "activation": "sigmoid", "ticks": 774467, "weights": [-0.26426159450874, 0.4632068223482149, 2.110942482677282, 0.4179998358618917, -0.5951676035830236, 0.0460482663727857, 0.896855856128775, 0.6175303593741792, -1.0727421402742412, -0.13571056868291945, 0.6789785202601893, 0.2662932778718369, 0.7529163086947807, -0.03012758306168372, -0.5661013721613367, 0.6205020463490839, -0.5684189768884856, -0.8367089202931944, -1.3234997642476487, 0.9006625293824351, 2.3938325873745576, 0.21277547159056642, 1.0025688769961185, 0.4716635071597101, 0.8520117577645949, 0.13333389653744257, -0.5994690110785353, -0.03417713991060213, -0.8695080425202466, 0.13645415318348836, -0.17193093087088518, 1.4371405861786501, -0.24086049736785436, 1.2742746732455048, 1.1028799592678697, -0.18142340814503252, 0.6271170996261757, 0.1919109476522016, -0.0767934053091934, -1.0763145985820268, -1.0478284390649564, 0.6234704091236778, 0.6773163153885762, 1.15445708501668, 1.710992035880729, 0.4173154935052664, -0.8137049562778684, -1.0707137570986212, 1.0845686130098282, -1.064364094801005, -1.0041715379686014, -0.4852741994799229], "biases": [-0.22793179322740628, 0.02244619083239474, 1.3510115281815527, -2.0649233674798406, 1.4769313671809619, -0.11240569085607263, 0.3625429820724617, -0.9139620228292773, -2.107257439406498, -1.0279039019192604, 1.5145414634630554, -1.5362434483186722, 1.5343112285689087]}