{"generation": 81, "inputs": ["y", "yvel", "ypipe"], "outputs": ["jump"], "layers": [3, 4, 4, 1], "activation": "sigmoid", "ticks": 1027476, "time": 36.75905418395996, "weights": [0.34871249032382307, 0.5501129309453999, -0.046271546529468494, -0.8170659456326651, -0.7460214934843457, 0.9138139163409719, 0.5608417127867241, 0.283844988805603, -0.9129946061467725, -0.360451529440571, 0.04566819014712589, 0.9750670910856042, 0.07142428079350993, -0.1825912968768125, -0.4956203736817836, -0.11522134715002191, 0.6406084924131474, 0.5637030123728695, 0.7625432717738896, 0.18948574540825158, 0.9834049837731923, -0.27013237116558303, -0.70030777254798, -0.18186195357388038, -0.792944938902248, 0.8693784495664153, 0.2474410378814762, -0.48930977731947806, 0.1855839824640801, -0.1896575512984233, -0.6665550460349383, 0.8138442970104023], "biases": [0.04054684169399879, 0.4105662443217182, -0.07541686110476177, -0.25812227474367616, -0.24866190365210544, -0.040107615964347, -0.12723274180703953, -0.08083025210181313, 0.06628261099123246]}