{"generation": 957, "inputs": ["y", "yvel", "xpipe", "ypipe"], "outputs": ["jump"], "layers": [4, 4, 4, 4, 1], "activation": "sigmoid", "ticks": 27339106, "weights": [-1.0624145428486231, 0.17119878359801094, 2.163141691787551, 0.2752268750682144, -0.6072910477928329, 0.007132365037667995, 0.8565573641470603, 0.17198551284098973, -0.9072474681478138, -0.0006999044354035859, 0.8573904496980492, 0.5787177493498017, -0.2839830105921393, -0.13000638335488443, -0.9252707205867521, 0.6886134972489695, -0.36736727669284625, -1.0413322276656236, -1.604367666961869, 1.1429091725487872, 2.579477617737106, 0.415920922529613, 1.003737410129381, 0.11161660580551944, 0.9183366090867994, -0.24619924024592094, -0.7384259235662253, 0.13027681994224138, -1.027608850800511, 0.2001390059370573, -0.23464028625877645, 1.4479329785602009, -0.1986547299783751, 1.5003528252563954, 1.0945127434408009, -0.4880421361044284, 0.36244888881591886, 0.41144840148118483, 0.13772424547134565, -1.1299902768854766, -1.1679526409600909, 0.3950961291893963, 0.8404244930700753, 1.0823824774472752, 1.928026744508793, 0.3507635242114423, -0.7935482674508385, -1.0576171450340381, 1.17663019788244, -1.3113956369293176, -0.857282974675961, -0.7721755830081264], "biases": [-1.0248875977979393, -0.5368963984843059, 1.6175543383783515, -2.7260126292699876, 1.3752940222294996, 0.14333613420303815, 1.0347138036568844, -0.8601183543447927, -2.22730654152751, -0.761630370724957, 1.4630747657360799, -1.3475398222283066, 1.6243878563349263]}