{"generation": 90, "inputs": ["y", "yvel", "ypipe"], "outputs": ["jump"], "layers": [3, 4, 4, 1], "activation": "sigmoid", "ticks": 1158463, "time": 41.648574113845825, "weights": [0.34871249032382307, 0.5501129309453999, -0.046271546529468494, -0.7979311557988581, -0.7460214934843457, 0.9138139163409719, 0.5608417127867241, 0.2618479096462215, -0.9129946061467725, -0.360451529440571, 0.06251792165680459, 0.9629001363011727, 0.059618567083330486, -0.20928636910263634, -0.4956203736817836, -0.1571479670970031, 0.617481628427032, 0.5637030123728695, 0.7625432717738896, 0.18948574540825158, 0.9964112761021953, -0.27013237116558303, -0.684253222009126, -0.18186195357388038, -0.792944938902248, 0.8693784495664153, 0.2474410378814762, -0.48930977731947806, 0.2150327154856865, -0.1896575512984233, -0.6665550460349383, 0.8138442970104023], "biases": [-0.030471223325040014, 0.42082345921288716, -0.06427918555732332, -0.25812227474367616, -0.19870033172210125, -0.018316173919890197, -0.12026205527962033, -0.03333393330886045, 0.06628261099123246]}