{"generation": 95, "inputs": ["y", "yvel", "ypipe"], "outputs": ["jump"], "layers": [3, 4, 4, 1], "activation": "sigmoid", "ticks": 1250797, "time": 44.66314196586609, "weights": [0.34871249032382307, 0.5072271200121763, -0.046271546529468494, -0.8253469566475251, -0.7460214934843457, 0.929347894916873, 0.5608417127867241, 0.22547809086827075, -0.9129946061467725, -0.360451529440571, 0.05689658152371391, 0.9629001363011727, 0.059618567083330486, -0.20928636910263634, -0.4956203736817836, -0.1571479670970031, 0.617481628427032, 0.5940249187216831, 0.7625432717738896, 0.19028859105388332, 0.9964112761021953, -0.27013237116558303, -0.684253222009126, -0.18186195357388038, -0.792944938902248, 0.8618906015484827, 0.2790116269467375, -0.48930977731947806, 0.2150327154856865, -0.1896575512984233, -0.6665550460349383, 0.8138442970104023], "biases": [-0.030471223325040014, 0.46571328605495577, -0.06427918555732332, -0.23556128999828543, -0.24275754522115714, 0.005895931432166605, -0.09560537317715533, -0.03333393330886045, 0.06628261099123246]}