{"generation": 903, "inputs": ["y", "yvel", "xpipe", "ypipe"], "outputs": ["jump"], "layers": [4, 4, 4, 4, 1], "activation": "sigmoid", "ticks": 24535997, "weights": [-1.1071261662612513, 0.17119878359801094, 2.1631928210546185, 0.35748658434980113, -0.5440020977953536, 0.01408577768891614, 0.8302051392637017, 0.19951568399413122, -0.947598161379925, -0.006577343221213905, 0.844841660911141, 0.5446809682341263, -0.1786593126002772, -0.1297458407814159, -0.8251045007940832, 0.6918828545381877, -0.3168650524294395, -1.057979138832735, -1.5707120535991834, 1.1753609829400447, 2.673788210167102, 0.415920922529613, 1.0393216292831489, 0.10373127526360826, 0.8246609614580168, -0.13818158833081987, -0.7498344462051623, 0.06135720913716788, -1.027608850800511, 0.1444478915537915, -0.16939800348003675, 1.4129731932081246, -0.125913839552136, 1.461225559127287, 1.0079145247890857, -0.4952226917920317, 0.3911061317262069, 0.411548194415164, 0.1032195834411945, -1.119768388090988, -1.231578115632136, 0.40721641435719597, 0.8903921644967446, 1.0894803324870557, 1.8855505831843287, 0.3507635242114423, -0.8859740159452071, -1.049931346790116, 1.1685807211305284, -1.3124349194937903, -0.8660758388258617, -0.7787276696869021], "biases": [-0.8240206336933693, -0.5800867945362698, 1.50136822558936, -2.718219986289406, 1.381369656223178, 0.0038391057389559266, 0.9459416700723567, -0.8615127861805978, -2.189115117355889, -0.7923062418540066, 1.6123618632496701, -1.2235177574227936, 1.6243878563349263]}