{"generation": 969, "inputs": ["y", "yvel", "xpipe", "ypipe"], "outputs": ["jump"], "layers": [4, 4, 4, 4, 1], "activation": "sigmoid", "ticks": 27998958, "weights": [-1.0751853525497699, 0.17119878359801094, 2.163141691787551, 0.232920262910054, -0.6072910477928329, 0.007132365037667995, 0.8525928521547832, 0.13869735366567804, -0.9072474681478138, -0.0006999044354035859, 0.9022440898189774, 0.5541772484047184, -0.2839830105921393, -0.13000638335488443, -0.8668868300436868, 0.6622195270984692, -0.36736727669284625, -1.0413322276656236, -1.6429226408197215, 1.1429091725487872, 2.615001394912531, 0.415920922529613, 1.003737410129381, 0.12845703226592817, 0.9242383435341578, -0.24619924024592094, -0.7665933838106798, 0.13027681994224138, -1.027608850800511, 0.18005624715988203, -0.2764246220034624, 1.4459062837671692, -0.22913985880918886, 1.5003528252563954, 1.0759520148334876, -0.510438205500158, 0.33140227404772565, 0.356386475072112, 0.13772424547134565, -1.1299902768854766, -1.1679526409600909, 0.3797053558751692, 0.8404244930700753, 1.0823824774472752, 1.960234346014699, 0.3385587554482759, -0.7935482674508385, -1.0576171450340381, 1.127769795762801, -1.3113956369293176, -0.857282974675961, -0.758597304892739], "biases": [-1.047999241485423, -0.49129702756169763, 1.6076802874183904, -2.691485930227189, 1.4148257866527663, 0.11381703821753208, 1.0551880134083682, -0.8385264316141331, -2.2082268576640964, -0.7119507225100952, 1.4263413316419777, -1.310829994359564, 1.6243878563349263]}