{"generation": 935, "inputs": ["y", "yvel", "xpipe", "ypipe"], "outputs": ["jump"], "layers": [4, 4, 4, 4, 1], "activation": "sigmoid", "ticks": 26149507, "weights": [-1.0574839848310815, 0.17119878359801094, 2.1631928210546185, 0.3141095905179392, -0.6072910477928329, 0.007132365037667995, 0.8901659521497365, 0.13157925004909937, -0.9072474681478138, 0.017753132542951546, 0.8226793842387057, 0.5787177493498017, -0.23498422431576624, -0.13000638335488443, -0.9385939815738287, 0.6586894284401899, -0.3131733024593924, -1.0416729031579812, -1.5745521110735181, 1.1753609829400447, 2.665729254684749, 0.415920922529613, 1.003737410129381, 0.11299744485789598, 0.8456758178592512, -0.16929693084196173, -0.7498344462051623, 0.10737284148624596, -1.027608850800511, 0.1782412742900406, -0.17816655169903836, 1.4429755570994702, -0.1662356233321442, 1.4883092213383073, 1.0474965949870643, -0.5350928652373517, 0.4041076544198172, 0.4354003901092803, 0.12859817334683055, -1.1299902768854766, -1.231578115632136, 0.42178138944199817, 0.8404244930700753, 1.0823824774472752, 1.928026744508793, 0.3507635242114423, -0.8594257283708645, -1.0266063867741377, 1.17663019788244, -1.3113956369293176, -0.857282974675961, -0.7721755830081264], "biases": [-0.9048465919198972, -0.4765073879127658, 1.5585381739474948, -2.7284451312583595, 1.4432311836768856, 0.13183206564892894, 1.039760984399243, -0.7858573046761598, -2.277512813308064, -0.7879895317701667, 1.6023923769091875, -1.3165615681115785, 1.6243878563349263]}