{"generation": 917, "inputs": ["y", "yvel", "xpipe", "ypipe"], "outputs": ["jump"], "layers": [4, 4, 4, 4, 1], "activation": "sigmoid", "ticks": 25245640, "weights": [-1.1071261662612513, 0.17119878359801094, 2.1631928210546185, 0.3141095905179392, -0.6094704643093275, 0.035537736291683886, 0.8901659521497365, 0.17440203970334023, -0.9360503364368412, -0.006577343221213905, 0.8911247139961072, 0.623227842962487, -0.1786593126002772, -0.1297458407814159, -0.9011803768231983, 0.6829863519200859, -0.3131733024593924, -1.0416729031579812, -1.5707120535991834, 1.1753609829400447, 2.693242216583043, 0.415920922529613, 1.0393216292831489, 0.10373127526360826, 0.8246609614580168, -0.16929693084196173, -0.7498344462051623, 0.057514478191533734, -1.027608850800511, 0.1444478915537915, -0.17875181027951068, 1.4429755570994702, -0.125913839552136, 1.4633241251580542, 1.0008747228554666, -0.5227403037607833, 0.4041076544198172, 0.411548194415164, 0.1032195834411945, -1.1163104712455223, -1.231578115632136, 0.4143977252510512, 0.8680720303655723, 1.0894803324870557, 1.8855505831843287, 0.3507635242114423, -0.8594257283708645, -1.049931346790116, 1.1798623089696167, -1.3124349194937903, -0.8660758388258617, -0.7875510154168996], "biases": [-0.8392151294044229, -0.5103390291188188, 1.5246837953784853, -2.7441437980943837, 1.461076029658877, 0.0682653709804735, 0.9149975403164168, -0.7828467124513079, -2.19214518562608, -0.755714148385862, 1.6307172451823664, -1.2648839802603442, 1.6243878563349263]}