{"generation": 986, "inputs": ["y", "yvel", "xpipe", "ypipe"], "outputs": ["jump"], "layers": [4, 4, 4, 4, 1], "activation": "sigmoid", "ticks": 28898381, "weights": [-1.0751853525497699, 0.17119878359801094, 2.1706378729753517, 0.26945912701948505, -0.6072910477928329, 0.007132365037667995, 0.8926441031875902, 0.10162126683318855, -0.9534336422075973, 0.005542165440324288, 0.9176477065010401, 0.5836809128573264, -0.2779476304311142, -0.13000638335488443, -0.8668868300436868, 0.6622195270984692, -0.33126159830762286, -0.9965106590419384, -1.6844754775343664, 1.1429091725487872, 2.623556297879434, 0.38182420158306063, 1.003737410129381, 0.12845703226592817, 1.0012914812376814, -0.2588461306030756, -0.7665933838106798, 0.09732634008247558, -1.0018720957428158, 0.16961016226234962, -0.26177046857326675, 1.4459062837671692, -0.22913985880918886, 1.4815063231879142, 1.0759520148334876, -0.510438205500158, 0.33140227404772565, 0.37050559817778944, 0.13772424547134565, -1.1299902768854766, -1.1679526409600909, 0.37393790960229306, 0.8478291911694107, 1.0753491728573101, 1.960234346014699, 0.2922610381805597, -0.7556222774666961, -1.087250858186701, 1.1621315129053083, -1.3113956369293176, -0.857282974675961, -0.7152952308755013], "biases": [-1.08549907321136, -0.45422866427124, 1.5846433069002734, -2.8035771150399182, 1.43159291325021, 0.18609592035339587, 1.1284512121025683, -0.810645603786173, -2.2151702019732307, -0.7161732160928926, 1.3799649727016519, -1.321958875134912, 1.6243878563349263]}