{"generation": 940, "inputs": ["y", "yvel", "xpipe", "ypipe"], "outputs": ["jump"], "layers": [4, 4, 4, 4, 1], "activation": "sigmoid", "ticks": 26400656, "weights": [-1.0574839848310815, 0.17119878359801094, 2.163141691787551, 0.3141095905179392, -0.6072910477928329, 0.007132365037667995, 0.8901659521497365, 0.13157925004909937, -0.9072474681478138, 0.017753132542951546, 0.8226793842387057, 0.5787177493498017, -0.23498422431576624, -0.13000638335488443, -0.9252707205867521, 0.6586894284401899, -0.3131733024593924, -1.0416729031579812, -1.549585934661509, 1.1429091725487872, 2.665729254684749, 0.415920922529613, 1.003737410129381, 0.11299744485789598, 0.8456758178592512, -0.16929693084196173, -0.7498344462051623, 0.10737284148624596, -1.027608850800511, 0.1782412742900406, -0.17816655169903836, 1.4429755570994702, -0.1662356233321442, 1.4883092213383073, 1.1173990611098654, -0.5058660865984852, 0.4041076544198172, 0.39687220990912764, 0.12879260320415198, -1.1299902768854766, -1.1888791115436805, 0.42178138944199817, 0.8404244930700753, 1.0823824774472752, 1.928026744508793, 0.3507635242114423, -0.8279300278819128, -1.0450377277393927, 1.17663019788244, -1.3113956369293176, -0.857282974675961, -0.7721755830081264], "biases": [-0.9410500300575576, -0.5080785052702125, 1.5413527765951518, -2.762322303369561, 1.403469975625636, 0.16570002876810946, 0.9967961233340134, -0.7858573046761598, -2.277512813308064, -0.7446638305909165, 1.5533938365246545, -1.2748666690067036, 1.6243878563349263]}