{"generation": 912, "inputs": ["y", "yvel", "xpipe", "ypipe"], "outputs": ["jump"], "layers": [4, 4, 4, 4, 1], "activation": "sigmoid", "ticks": 24994361, "weights": [-1.1071261662612513, 0.17119878359801094, 2.1631928210546185, 0.3141095905179392, -0.5783450369684636, 0.035537736291683886, 0.8901659521497365, 0.17440203970334023, -0.9360503364368412, -0.006577343221213905, 0.844841660911141, 0.5801610849483224, -0.1786593126002772, -0.1297458407814159, -0.8696343773660666, 0.6918828545381877, -0.3131733024593924, -1.0416729031579812, -1.5707120535991834, 1.1753609829400447, 2.673788210167102, 0.415920922529613, 1.0393216292831489, 0.10373127526360826, 0.8246609614580168, -0.13818158833081987, -0.7498344462051623, 0.057514478191533734, -1.027608850800511, 0.1444478915537915, -0.16939800348003675, 1.4129731932081246, -0.125913839552136, 1.4633241251580542, 1.025325276269464, -0.4952226917920317, 0.4041076544198172, 0.411548194415164, 0.1032195834411945, -1.1163104712455223, -1.231578115632136, 0.4143977252510512, 0.8680720303655723, 1.0894803324870557, 1.8855505831843287, 0.3507635242114423, -0.8594257283708645, -1.049931346790116, 1.1798623089696167, -1.3124349194937903, -0.8660758388258617, -0.783364675297188], "biases": [-0.8497750310548615, -0.5453810792263675, 1.5092320949987506, -2.7441437980943837, 1.461076029658877, 0.07050060808527872, 0.9149975403164168, -0.8615127861805978, -2.19214518562608, -0.755714148385862, 1.623184781401394, -1.2190825619824612, 1.6243878563349263]}