{"generation": 993, "inputs": ["y", "yvel", "xpipe", "ypipe"], "outputs": ["jump"], "layers": [4, 4, 4, 4, 1], "activation": "sigmoid", "ticks": 29293352, "weights": [-1.0612222561251723, 0.17119878359801094, 2.1706378729753517, 0.26945912701948505, -0.6072910477928329, 0.007132365037667995, 0.9364649884826844, 0.10162126683318855, -0.9534336422075973, 0.005542165440324288, 0.9430006647277963, 0.5836809128573264, -0.2779476304311142, -0.13000638335488443, -0.8668868300436868, 0.6475842572640722, -0.33695609725227677, -0.9965106590419384, -1.6844754775343664, 1.1374251526268186, 2.623556297879434, 0.38182420158306063, 1.003737410129381, 0.10547450755415733, 1.0012914812376814, -0.269337853134921, -0.7665933838106798, 0.09732634008247558, -1.0018720957428158, 0.16961016226234962, -0.2426708260147272, 1.4364744103716722, -0.22913985880918886, 1.4895484887553943, 1.0759520148334876, -0.510438205500158, 0.33140227404772565, 0.37050559817778944, 0.13772424547134565, -1.1397531269971377, -1.2073056293837732, 0.37393790960229306, 0.8478291911694107, 1.0753491728573101, 1.9895861733020557, 0.2922610381805597, -0.7556222774666961, -1.0721185501286208, 1.2084610283568473, -1.3113956369293176, -0.8476973214724396, -0.7152952308755013], "biases": [-1.08549907321136, -0.45422866427124, 1.5935923567200558, -2.8268696849755144, 1.4613523355928932, 0.12947879964596537, 1.1284512121025683, -0.8173528745599524, -2.3136940849749363, -0.717689311168217, 1.3979130440842171, -1.3447506531606672, 1.6243878563349263]}