{"generation": 962, "inputs": ["y", "yvel", "xpipe", "ypipe"], "outputs": ["jump"], "layers": [4, 4, 4, 4, 1], "activation": "sigmoid", "ticks": 27630563, "weights": [-1.0624145428486231, 0.17119878359801094, 2.163141691787551, 0.232920262910054, -0.6072910477928329, 0.007132365037667995, 0.8881611062794856, 0.17198551284098973, -0.9072474681478138, -0.0006999044354035859, 0.8950471960931483, 0.5778146048641448, -0.2839830105921393, -0.13000638335488443, -0.9373327716774044, 0.6886134972489695, -0.36736727669284625, -1.0413322276656236, -1.604367666961869, 1.1429091725487872, 2.579477617737106, 0.415920922529613, 1.003737410129381, 0.11161660580551944, 0.9242383435341578, -0.24619924024592094, -0.7665933838106798, 0.13027681994224138, -1.027608850800511, 0.2001390059370573, -0.23464028625877645, 1.4459062837671692, -0.1986547299783751, 1.5003528252563954, 1.0759520148334876, -0.5358903417782425, 0.33140227404772565, 0.41144840148118483, 0.13772424547134565, -1.1299902768854766, -1.1679526409600909, 0.3950961291893963, 0.8404244930700753, 1.0823824774472752, 1.960234346014699, 0.3507635242114423, -0.7935482674508385, -1.0576171450340381, 1.127769795762801, -1.3113956369293176, -0.857282974675961, -0.758597304892739], "biases": [-1.0049238008080166, -0.45983440536739756, 1.6076802874183904, -2.7260126292699876, 1.3752940222294996, 0.17556206206069644, 1.0179369421277695, -0.8385264316141331, -2.204669817512613, -0.761630370724957, 1.5108335470613228, -1.310527250187635, 1.6243878563349263]}