{"generation": 946, "inputs": ["y", "yvel", "xpipe", "ypipe"], "outputs": ["jump"], "layers": [4, 4, 4, 4, 1], "activation": "sigmoid", "ticks": 26720613, "weights": [-1.0574839848310815, 0.17119878359801094, 2.163141691787551, 0.2752268750682144, -0.6072910477928329, 0.007132365037667995, 0.8565573641470603, 0.13157925004909937, -0.9072474681478138, 0.017753132542951546, 0.8226793842387057, 0.5787177493498017, -0.2839830105921393, -0.13000638335488443, -0.9252707205867521, 0.6586894284401899, -0.35163100784966816, -1.0413322276656236, -1.5896703790434121, 1.1429091725487872, 2.619823159165448, 0.415920922529613, 1.003737410129381, 0.11299744485789598, 0.8456758178592512, -0.20868987912058862, -0.7498344462051623, 0.1429624503942507, -1.027608850800511, 0.1782412742900406, -0.17816655169903836, 1.4526103535076433, -0.1662356233321442, 1.4993760024788598, 1.1173990611098654, -0.5058660865984852, 0.376377558372049, 0.39687220990912764, 0.13772424547134565, -1.1299902768854766, -1.1841789400868445, 0.42178138944199817, 0.8404244930700753, 1.0823824774472752, 1.928026744508793, 0.3507635242114423, -0.8279300278819128, -1.0576171450340381, 1.17663019788244, -1.3113956369293176, -0.857282974675961, -0.7721755830081264], "biases": [-0.9551690516611536, -0.5368963984843059, 1.566676917651748, -2.762322303369561, 1.403469975625636, 0.16570002876810946, 0.9998727383733974, -0.7828862767982958, -2.206940079071041, -0.7299814561922062, 1.4975697410052642, -1.332697498753352, 1.6243878563349263]}